//Numpy array shape [200]
//Min -0.014404296875
//Max 0.021972656250
//Number of zeros 60

#ifndef B14_H_
#define B14_H_

#ifndef __SYNTHESIS__
bias14_t b14[200];
#else
bias14_t b14[200] = {0.0064697265625, -0.0079345703125, -0.0058593750000, 0.0046386718750, 0.0009765625000, 0.0000000000000, 0.0065917968750, 0.0000000000000, 0.0000000000000, 0.0140380859375, 0.0001220703125, 0.0000000000000, -0.0081787109375, -0.0039062500000, 0.0092773437500, 0.0000000000000, -0.0072021484375, -0.0090332031250, -0.0061035156250, -0.0012207031250, 0.0089111328125, 0.0101318359375, 0.0000000000000, 0.0056152343750, 0.0075683593750, -0.0010986328125, -0.0070800781250, 0.0000000000000, 0.0035400390625, -0.0074462890625, 0.0000000000000, 0.0219726562500, -0.0062255859375, 0.0054931640625, -0.0085449218750, 0.0083007812500, 0.0085449218750, -0.0090332031250, 0.0000000000000, 0.0000000000000, 0.0000000000000, 0.0000000000000, 0.0000000000000, -0.0048828125000, 0.0056152343750, 0.0029296875000, 0.0000000000000, 0.0080566406250, 0.0000000000000, -0.0078125000000, 0.0000000000000, -0.0062255859375, 0.0000000000000, 0.0074462890625, 0.0000000000000, -0.0072021484375, 0.0001220703125, 0.0015869140625, 0.0067138671875, 0.0000000000000, -0.0073242187500, -0.0091552734375, -0.0059814453125, 0.0000000000000, 0.0039062500000, 0.0085449218750, 0.0043945312500, 0.0056152343750, 0.0000000000000, 0.0064697265625, 0.0124511718750, 0.0147705078125, 0.0063476562500, -0.0100097656250, 0.0020751953125, 0.0064697265625, 0.0081787109375, 0.0000000000000, 0.0000000000000, -0.0114746093750, 0.0000000000000, 0.0024414062500, 0.0000000000000, -0.0010986328125, 0.0076904296875, -0.0144042968750, -0.0042724609375, 0.0000000000000, 0.0073242187500, 0.0000000000000, 0.0000000000000, 0.0092773437500, -0.0028076171875, -0.0061035156250, 0.0000000000000, -0.0064697265625, 0.0078125000000, -0.0058593750000, -0.0028076171875, 0.0009765625000, 0.0181884765625, 0.0164794921875, 0.0047607421875, 0.0056152343750, 0.0000000000000, 0.0067138671875, -0.0141601562500, 0.0000000000000, -0.0078125000000, 0.0000000000000, -0.0013427734375, 0.0000000000000, -0.0017089843750, 0.0000000000000, 0.0083007812500, 0.0000000000000, 0.0000000000000, -0.0054931640625, -0.0050048828125, -0.0034179687500, 0.0064697265625, 0.0000000000000, -0.0108642578125, 0.0000000000000, 0.0000000000000, -0.0037841796875, 0.0012207031250, 0.0148925781250, -0.0015869140625, 0.0000000000000, 0.0000000000000, 0.0000000000000, 0.0000000000000, 0.0047607421875, -0.0090332031250, 0.0134277343750, 0.0070800781250, 0.0106201171875, 0.0101318359375, 0.0052490234375, 0.0101318359375, 0.0000000000000, -0.0083007812500, 0.0091552734375, -0.0080566406250, 0.0051269531250, -0.0062255859375, -0.0003662109375, 0.0000000000000, 0.0052490234375, 0.0001220703125, 0.0000000000000, -0.0083007812500, 0.0079345703125, 0.0000000000000, -0.0087890625000, -0.0097656250000, 0.0012207031250, -0.0021972656250, 0.0141601562500, 0.0007324218750, 0.0019531250000, -0.0069580078125, 0.0020751953125, -0.0074462890625, 0.0083007812500, 0.0089111328125, 0.0000000000000, 0.0000000000000, 0.0059814453125, 0.0000000000000, 0.0000000000000, -0.0089111328125, 0.0028076171875, 0.0026855468750, -0.0047607421875, 0.0150146484375, -0.0020751953125, 0.0000000000000, 0.0000000000000, 0.0000000000000, 0.0079345703125, 0.0000000000000, -0.0097656250000, 0.0000000000000, 0.0000000000000, 0.0000000000000, 0.0000000000000, -0.0043945312500, -0.0119628906250, 0.0073242187500, -0.0085449218750, -0.0111083984375, -0.0050048828125, 0.0194091796875, -0.0046386718750, -0.0061035156250, 0.0053710937500, 0.0000000000000, -0.0035400390625};
#endif

#endif
