//Numpy array shape [50]
//Min -0.006958007812
//Max 0.014404296875
//Number of zeros 6

#ifndef B16_H_
#define B16_H_

#ifndef __SYNTHESIS__
bias16_t b16[50];
#else
bias16_t b16[50] = {0.0000000000000, 0.0144042968750, -0.0062255859375, 0.0068359375000, -0.0068359375000, -0.0065917968750, -0.0069580078125, -0.0068359375000, 0.0081787109375, -0.0034179687500, 0.0000000000000, 0.0068359375000, 0.0013427734375, 0.0002441406250, 0.0064697265625, 0.0025634765625, -0.0068359375000, -0.0068359375000, 0.0080566406250, -0.0068359375000, 0.0072021484375, -0.0069580078125, -0.0068359375000, 0.0069580078125, 0.0000000000000, -0.0018310546875, 0.0068359375000, -0.0068359375000, -0.0013427734375, 0.0068359375000, -0.0069580078125, 0.0079345703125, 0.0004882812500, 0.0000000000000, -0.0069580078125, -0.0069580078125, 0.0000000000000, 0.0068359375000, -0.0069580078125, -0.0042724609375, 0.0000000000000, -0.0015869140625, -0.0063476562500, -0.0001220703125, -0.0050048828125, 0.0054931640625, -0.0006103515625, 0.0003662109375, -0.0063476562500, -0.0065917968750};
#endif

#endif
