//Numpy array shape [200, 100]
//Min -0.124996185303
//Max 0.124996185303
//Number of zeros 1443

#ifndef W5_H_
#define W5_H_

#ifndef __SYNTHESIS__
weight5_t w5[20000];
#else
weight5_t w5[20000] = {1.7440185546875, -0.5751953125000, 2.0815429687500, 3.5410156250000, -0.0158691406250, 0.0000000000000, -1.3653564453125, -0.0858154296875, 3.4730224609375, 0.0000000000000, 3.9151611328125, 0.0000000000000, -2.7647705078125, -2.6092529296875, -2.6291503906250, 2.3666992187500, 3.1319580078125, 0.5089111328125, -0.0003662109375, -2.0625000000000, 3.7939453125000, -1.7293701171875, 1.3695068359375, -1.7271728515625, -1.8166503906250, -1.8907470703125, -2.0297851562500, -2.5799560546875, 2.7591552734375, 1.2836914062500, -3.1407470703125, -1.6326904296875, 2.4700927734375, -1.7099609375000, -3.1508789062500, 3.8571777343750, 2.7823486328125, -1.8504638671875, -1.3521728515625, 0.0288085937500, 1.8392333984375, -2.5374755859375, 1.7373046875000, -0.0001220703125, 2.8609619140625, -3.8776855468750, 0.9240722656250, 1.8728027343750, -2.5671386718750, -1.2058105468750, -0.2714843750000, 0.0000000000000, 1.4205322265625, -0.0666503906250, 3.3637695312500, -3.6668701171875, 3.0610351562500, 3.2910156250000, 3.3793945312500, 2.3850097656250, -3.7576904296875, 1.6650390625000, -1.0836181640625, -0.4097900390625, -0.0334472656250, 0.7287597656250, 0.0000000000000, -1.5660400390625, 2.1098632812500, -0.8151855468750, 0.9174804687500, -3.2215576171875, -1.7193603515625, -0.0061035156250, 2.5393066406250, 1.1955566406250, 1.2327880859375, 0.7349853515625, -1.0762939453125, -3.5700683593750, 3.6439208984375, 1.2388916015625, 2.7709960937500, 1.4459228515625, 0.9316406250000, 1.4962158203125, 3.0264892578125, -0.0869140625000, 2.2094726562500, 2.8717041015625, -0.2598876953125, -1.3386230468750, 1.9189453125000, 0.6645507812500, 2.9552001953125, 0.5178222656250, -3.3692626953125, 0.1369628906250, 1.6029052734375, 3.3813476562500, 3.3399658203125, -0.0971679687500, 2.5187988281250, -3.4698486328125, 1.5662841796875, 0.1817626953125, 3.2336425781250, 2.5218505859375, -1.5870361328125, -2.7912597656250, -2.0256347656250, 2.8200683593750, 3.9824218750000, 2.3408203125000, 0.6593017578125, -3.7382812500000, -1.5649414062500, 0.3093261718750, 3.0892333984375, 1.2720947265625, -1.9686279296875, 0.0524902343750, 0.1611328125000, -3.9711914062500, -0.3767089843750, -0.7244873046875, 3.6385498046875, -2.4985351562500, -3.1988525390625, 1.4660644531250, 0.2307128906250, -2.0175781250000, 0.5142822265625, -2.9429931640625, -2.0180664062500, 3.1542968750000, 2.9365234375000, -1.3909912109375, 3.1954345703125, -1.1608886718750, -0.3610839843750, -0.9964599609375, -1.5382080078125, -1.1383056640625, -2.0030517578125, 1.2618408203125, -1.7569580078125, -3.6508789062500, -2.5275878906250, -0.7812500000000, -1.4509277343750, 2.2636718750000, 2.4620361328125, -3.6583251953125, -3.4960937500000, -1.0886230468750, 0.4848632812500, 3.5339355468750, -2.9741210937500, -1.6059570312500, 3.5627441406250, -1.9631347656250, -0.4493408203125, 3.6335449218750, 0.9143066406250, 2.5430908203125, -0.7333984375000, 1.6534423828125, 0.0000000000000, -0.4393310546875, 3.7332763671875, -0.2315673828125, 0.0633544921875, -0.4039306640625, 1.1896972656250, -2.3082275390625, -0.7924804687500, 1.1346435546875, -0.4014892578125, -2.0295410156250, 1.0167236328125, 1.5831298828125, 1.4973144531250, 0.6325683593750, -2.3846435546875, 0.2224121093750, 0.6330566406250, 0.4282226562500, -3.6612548828125, -0.0001220703125, 3.7044677734375, -1.9550781250000, -2.0446777343750, -3.1346435546875, -0.9172363281250, 3.3105468750000, -0.5903320312500, 1.4727783203125, -1.7363281250000, 2.5620117187500, -1.1263427734375, 3.5498046875000, -0.5389404296875, 0.2110595703125, -3.9998779296875, -1.4415283203125, -2.1695556640625, -0.8039550781250, 0.3782958984375, -0.6353759765625, 0.7364501953125, -2.8625488281250, 1.3966064453125, 3.6284179687500, 1.7624511718750, -3.2170410156250, 3.8438720703125, -0.8648681640625, -3.1148681640625, 2.3458251953125, -1.7858886718750, -2.9580078125000, 1.4283447265625, 2.3352050781250, -2.6984863281250, -3.1602783203125, 2.9003906250000, 0.4360351562500, -3.2801513671875, -0.9117431640625, 2.7374267578125, -3.1440429687500, -1.0250244140625, -0.6838378906250, 0.2474365234375, 0.1612548828125, 0.3264160156250, -1.9165039062500, -1.0336914062500, 0.0000000000000, 1.8328857421875, 0.5988769531250, 3.5795898437500, -1.3826904296875, -2.1744384765625, 1.5345458984375, 3.5712890625000, 2.7692871093750, -1.1594238281250, 2.7021484375000, -1.4796142578125, -2.7347412109375, 1.3327636718750, -1.2479248046875, 2.7814941406250, 3.3156738281250, -2.0603027343750, 3.1669921875000, -2.7984619140625, -2.7353515625000, -0.8631591796875, -1.7384033203125, -3.7531738281250, 0.3966064453125, -2.5250244140625, 0.8830566406250, 1.2030029296875, 3.0020751953125, 1.7823486328125, 3.7382812500000, -0.4051513671875, 3.2092285156250, -2.9995117187500, 0.0373535156250, -0.3553466796875, -0.2677001953125, -0.4350585937500, -1.5240478515625, 2.5926513671875, 3.5145263671875, -1.0826416015625, 1.1108398437500, 0.0000000000000, -0.5723876953125, 2.3016357421875, -0.6331787109375, -1.8525390625000, -2.9659423828125, 2.5993652343750, -1.1934814453125, -2.3878173828125, 2.6267089843750, 2.1298828125000, 0.0386962890625, -2.4018554687500, 2.9365234375000, 3.9572753906250, -0.7142333984375, -1.3370361328125, 1.9548339843750, -2.0021972656250, 2.9576416015625, 3.2589111328125, 0.6453857421875, 1.5490722656250, -1.2335205078125, -1.0856933593750, -2.1181640625000, 1.6774902343750, -2.2384033203125, -3.1596679687500, -0.6623535156250, -3.2116699218750, -1.1090087890625, -3.1491699218750, -3.1094970703125, -1.3443603515625, -3.4851074218750, -0.3638916015625, -0.5583496093750, 0.2554931640625, -0.3513183593750, 0.0574951171875, 3.1586914062500, -0.7857666015625, -3.1119384765625, -2.2832031250000, -1.9746093750000, 1.7561035156250, 1.3843994140625, 3.4237060546875, 0.7880859375000, 1.1507568359375, -2.8015136718750, -2.8267822265625, 3.4807128906250, -2.1778564453125, 0.0064697265625, 0.0366210937500, -0.0001220703125, 0.0024414062500, -3.5147705078125, -1.7031250000000, 0.2985839843750, -1.8225097656250, 0.1234130859375, 2.6126708984375, 3.5980224609375, -2.5550537109375, -3.3094482421875, 0.6365966796875, -2.7667236328125, -2.6602783203125, 2.0065917968750, -2.2650146484375, 0.3752441406250, -1.1612548828125, -1.8784179687500, 3.9998779296875, -0.7864990234375, 3.7099609375000, 0.0000000000000, 1.2009277343750, 3.5440673828125, -0.0001220703125, 1.4591064453125, 1.7795410156250, 2.9312744140625, -2.0332031250000, -0.6560058593750, 3.4019775390625, 1.9072265625000, 3.6499023437500, 1.7254638671875, -1.8074951171875, 1.9111328125000, 2.5528564453125, 2.7377929687500, 2.8154296875000, -2.4320068359375, -2.3103027343750, 1.9854736328125, 1.9428710937500, 2.0970458984375, 0.7761230468750, 0.0777587890625, -1.8835449218750, -2.4510498046875, -0.2399902343750, -2.2075195312500, -0.1260986328125, 1.2836914062500, 0.0344238281250, -2.9566650390625, 0.7990722656250, 0.6787109375000, 2.0660400390625, 0.3657226562500, 0.4073486328125, -3.3610839843750, -2.1594238281250, -2.1595458984375, -0.2580566406250, -0.8737792968750, -0.8297119140625, 2.5856933593750, -2.3234863281250, -2.7301025390625, -2.9384765625000, 0.6927490234375, -0.7764892578125, 0.8439941406250, -0.0622558593750, 0.1054687500000, -0.9145507812500, 0.9622802734375, 1.2169189453125, -1.8383789062500, -1.9073486328125, 3.0172119140625, 2.8565673828125, -1.0516357421875, 2.8231201171875, -1.4350585937500, 0.1740722656250, 1.9407958984375, 0.0000000000000, 1.7188720703125, -1.2095947265625, 0.0062255859375, 0.0000000000000, 2.5650634765625, 0.0000000000000, -2.9514160156250, 1.5002441406250, -3.0739746093750, 2.1212158203125, 1.6586914062500, -2.7841796875000, -0.1326904296875, 0.0001220703125, 0.1901855468750, 2.1578369140625, 0.0000000000000, 2.2769775390625, -0.0001220703125, -2.1077880859375, 0.1043701171875, -0.2331542968750, -3.1112060546875, -2.8464355468750, 0.7941894531250, 0.0000000000000, -1.0173339843750, 0.0000000000000, 0.8388671875000, 1.9611816406250, 1.1593017578125, -2.7349853515625, -0.8167724609375, -1.6105957031250, 0.0725097656250, 1.8558349609375, -0.9901123046875, 0.4559326171875, 1.8192138671875, 1.5203857421875, 3.0036621093750, 0.0000000000000, -0.1623535156250, 1.0131835937500, -1.4788818359375, -3.0039062500000, 0.3841552734375, -2.8432617187500, -2.7269287109375, 0.0000000000000, 2.4616699218750, 0.9281005859375, -1.8208007812500, 0.8251953125000, -1.7175292968750, -2.1188964843750, -1.4995117187500, 2.8111572265625, 2.8449707031250, 0.9611816406250, -0.2684326171875, 0.0053710937500, -0.2144775390625, 1.7751464843750, -1.1694335937500, -0.9621582031250, -1.1408691406250, 2.9962158203125, 2.2391357421875, 2.7425537109375, 0.0000000000000, 0.1688232421875, 0.0000000000000, -0.3389892578125, 0.0000000000000, -3.1834716796875, -0.0507812500000, 0.9656982421875, 1.7347412109375, 0.0000000000000, 0.7325439453125, -0.0001220703125, -1.2166748046875, -1.0609130859375, 0.0000000000000, -0.0236816406250, 0.0000000000000, 2.5358886718750, 0.5515136718750, 2.3634033203125, -1.3743896484375, -0.0001220703125, 2.1373291015625, 1.1752929687500, -1.1345214843750, 0.5618896484375, 1.1767578125000, 0.7312011718750, -3.0062255859375, 0.5799560546875, -1.7977294921875, 2.1948242187500, 0.0000000000000, 2.5670166015625, -3.0971679687500, 0.7695312500000, -0.9836425781250, -1.6907958984375, -0.9990234375000, 0.9658203125000, -0.0001220703125, 0.0000000000000, 0.6750488281250, 1.3181152343750, -0.0001220703125, 0.8645019531250, -2.2871093750000, 1.4237060546875, 0.8564453125000, 0.9888916015625, -1.3383789062500, 2.4477539062500, -0.0849609375000, 2.4670410156250, -1.2869873046875, -1.5761718750000, 1.8428955078125, 1.9866943359375, -2.9698486328125, 2.2581787109375, -3.0721435546875, -0.9240722656250, 0.9416503906250, -1.8721923828125, -0.8966064453125, -1.6339111328125, 0.0000000000000, -0.4197998046875, 2.1662597656250, -1.3472900390625, 2.6173095703125, 2.0078125000000, -1.9289550781250, -0.0001220703125, 0.1470947265625, -0.0001220703125, 0.5354003906250, 2.2542724609375, -2.5406494140625, -2.5675048828125, -1.1345214843750, 1.2066650390625, 0.0001220703125, 0.5310058593750, 0.4573974609375, -2.0716552734375, 2.3630371093750, -0.7680664062500, -2.6010742187500, -2.5368652343750, -0.4727783203125, -1.9561767578125, -0.8094482421875, 2.8387451171875, 0.0000000000000, -0.0981445312500, -2.6065673828125, -1.0075683593750, 0.4322509765625, -3.1383056640625, 1.9117431640625, -1.7044677734375, -2.9029541015625, -0.1901855468750, 0.3159179687500, -2.0889892578125, 2.9215087890625, -0.2425537109375, -0.5880126953125, -1.2553710937500, 0.1411132812500, 2.2889404296875, 3.0924072265625, 3.8630371093750, 3.1578369140625, 1.5450439453125, 3.7707519531250, 1.3518066406250, 2.0632324218750, -1.9643554687500, -1.3867187500000, 3.0021972656250, 1.1706542968750, 0.0000000000000, -2.7498779296875, -0.2974853515625, 2.4394531250000, -0.4748535156250, 2.7641601562500, -1.9097900390625, -1.4346923828125, 3.0991210937500, 0.8981933593750, -2.2604980468750, -2.0145263671875, -3.7303466796875, -1.8607177734375, 1.4291992187500, -0.2291259765625, 1.4177246093750, -0.8083496093750, -3.4923095703125, -2.0128173828125, 1.7913818359375, -3.3298339843750, -1.6739501953125, 0.3801269531250, -0.4919433593750, 2.7839355468750, -2.9704589843750, 3.5804443359375, 1.1024169921875, 1.7868652343750, -2.8352050781250, -1.5762939453125, -0.7385253906250, 2.7135009765625, 0.2823486328125, -1.6469726562500, 2.8598632812500, 1.4669189453125, 3.0435791015625, -0.0001220703125, 1.8320312500000, 1.1044921875000, -1.8750000000000, -3.2969970703125, -1.7412109375000, -1.8077392578125, 2.3084716796875, 0.9525146484375, 3.2025146484375, 1.7032470703125, -0.2451171875000, -0.2302246093750, -1.9261474609375, 0.8953857421875, -0.2839355468750, 0.0000000000000, -2.6870117187500, -0.0003662109375, -1.2716064453125, -1.9097900390625, -0.9113769531250, -1.2783203125000, -2.9882812500000, -0.7176513671875, -0.4954833984375, -1.6026611328125, 1.6726074218750, -1.2749023437500, -2.1101074218750, 0.0000000000000, -3.7246093750000, 1.2033691406250, 0.5880126953125, -3.6527099609375, 1.8264160156250, 1.6776123046875, -1.5958251953125, -0.3024902343750, -1.4476318359375, -3.5070800781250, -0.7502441406250, 0.5704345703125, -0.4799804687500, 0.0000000000000, 0.0000000000000, -0.9776611328125, 1.4542236328125, 0.0000000000000, -1.0881347656250, 2.4212646484375, 0.6920166015625, 2.0087890625000, 1.2225341796875, 0.4720458984375, 1.5886230468750, -1.6737060546875, -0.4332275390625, 0.0703125000000, 3.1280517578125, -3.2006835937500, -3.1639404296875, 2.6508789062500, 1.0401611328125, -2.7122802734375, -0.8218994140625, 1.5321044921875, -0.7011718750000, -1.3409423828125, 0.0000000000000, -2.9461669921875, 0.4869384765625, -2.0603027343750, -0.8272705078125, -0.5007324218750, 0.0000000000000, 1.3909912109375, 0.6527099609375, -0.0001220703125, -1.4748535156250, 2.6409912109375, 1.9166259765625, 0.0000000000000, -0.2379150390625, 1.3599853515625, -2.0129394531250, 2.5457763671875, 0.4859619140625, -0.5860595703125, 2.6279296875000, 0.2269287109375, 0.0076904296875, 2.0307617187500, -0.7124023437500, 1.5224609375000, 0.0001220703125, 1.0819091796875, -2.9201660156250, -0.7529296875000, 2.1644287109375, -2.9567871093750, -1.4888916015625, -0.4102783203125, 0.4831542968750, -1.2890625000000, 0.6691894531250, 0.0000000000000, -2.3911132812500, -1.5212402343750, 2.6776123046875, 1.6124267578125, 0.9677734375000, -0.9826660156250, 2.1357421875000, -1.6479492187500, 1.5828857421875, -0.4587402343750, -1.6156005859375, -1.1146240234375, 2.3994140625000, 0.0559082031250, 0.0000000000000, 1.8726806640625, -2.0166015625000, 0.7252197265625, 1.9080810546875, -3.2416992187500, 3.2562255859375, 2.7087402343750, -1.2575683593750, -1.6855468750000, -1.4710693359375, -1.7822265625000, 2.2535400390625, 1.9903564453125, 0.0000000000000, 0.0000000000000, -1.4887695312500, 2.5979003906250, -2.5975341796875, 0.0229492187500, 1.5279541015625, -0.5070800781250, 0.6684570312500, -3.1778564453125, 1.9538574218750, 0.0000000000000, -1.5852050781250, -0.9475097656250, -0.0001220703125, 2.9066162109375, 0.2222900390625, 2.9519042968750, -1.4003906250000, 1.6965332031250, 0.0000000000000, 0.9150390625000, 0.2935791015625, 0.0001220703125, -2.3807373046875, -2.4431152343750, 0.0877685546875, 2.7977294921875, -1.7197265625000, -0.3415527343750, -2.0897216796875, -2.9870605468750, 0.0000000000000, 3.2065429687500, 2.0227050781250, -2.7419433593750, -0.7154541015625, 0.0195312500000, 1.4207763671875, 1.9569091796875, -1.4005126953125, -2.9505615234375, 3.1645507812500, -1.0258789062500, 0.0000000000000, -2.3359375000000, 0.0000000000000, 0.0000000000000, -1.6850585937500, -0.1236572265625, 0.0000000000000, -1.4997558593750, -2.9339599609375, -2.1147460937500, 0.7648925781250, -0.4899902343750, -0.3703613281250, -0.8945312500000, -3.0784912109375, 2.4660644531250, 0.0000000000000, 2.9692382812500, 2.0351562500000, -0.7758789062500, 2.1773681640625, 3.2457275390625, 0.0001220703125, -3.0499267578125, 0.0000000000000, 2.6425781250000, 1.2598876953125, -1.4595947265625, 0.7052001953125, 0.0001220703125, 0.2170410156250, 1.2808837890625, 0.0001220703125, -1.3431396484375, -3.1660156250000, 2.5640869140625, 0.0001220703125, -1.2176513671875, 0.5153808593750, 2.7524414062500, -1.2723388671875, 3.1971435546875, -0.4849853515625, -2.1938476562500, 0.0000000000000, -1.6754150390625, 0.0000000000000, 0.0661621093750, -1.4360351562500, 1.7021484375000, -1.3216552734375, 2.9403076171875, 0.0000000000000, 0.0000000000000, -1.3914794921875, -0.3896484375000, 0.0000000000000, 0.0000000000000, 0.0000000000000, 0.0000000000000, -2.8521728515625, -1.6656494140625, 1.6945800781250, 0.6732177734375, 2.4796142578125, 2.1966552734375, 0.2418212890625, 0.5842285156250, -3.7813720703125, -1.2913818359375, -0.3001708984375, 0.0000000000000, 2.1575927734375, -0.5620117187500, -2.8754882812500, 1.3632812500000, -1.9040527343750, -2.3936767578125, 1.2767333984375, -1.5784912109375, -3.1082763671875, 2.0384521484375, -2.0269775390625, -0.8259277343750, 3.9294433593750, -1.8254394531250, 2.0798339843750, -1.8620605468750, 2.1289062500000, -2.0200195312500, -1.5506591796875, 1.8154296875000, -0.1887207031250, -2.4099121093750, 3.2061767578125, 2.9876708984375, -0.9886474609375, 1.4216308593750, 3.3997802734375, -2.2113037109375, -0.1209716796875, 1.5942382812500, 0.0000000000000, 3.9998779296875, 1.1055908203125, -0.0487060546875, 0.1593017578125, -0.0004882812500, 0.5424804687500, -1.0253906250000, 2.9273681640625, 0.2280273437500, 3.7546386718750, 0.5629882812500, -1.9053955078125, -1.7834472656250, -2.6293945312500, 1.3818359375000, 2.5656738281250, -1.0334472656250, 3.5954589843750, 1.0563964843750, -1.7381591796875, -0.0675048828125, -3.1990966796875, 2.6175537109375, -0.4687500000000, -3.3039550781250, 0.3851318359375, 2.0255126953125, -1.7481689453125, 3.0567626953125, -2.5599365234375, -3.7717285156250, 2.0729980468750, -0.4263916015625, -3.9998779296875, 0.0001220703125, -2.0417480468750, 1.7834472656250, 0.1596679687500, -1.8414306640625, 1.3627929687500, 0.3223876953125, -1.5220947265625, -1.7243652343750, 3.7529296875000, -3.8020019531250, 2.5278320312500, 0.2628173828125, 2.3032226562500, 2.7435302734375, -0.0061035156250, 0.9700927734375, -0.9476318359375, 0.3696289062500, -1.1104736328125, -1.4725341796875, 1.8485107421875, 2.3696289062500, 3.3684082031250, 1.6202392578125, 1.6396484375000, -1.0485839843750, -1.1867675781250, 3.3439941406250, -2.0598144531250, 2.9716796875000, -1.6644287109375, 0.7797851562500, 2.5347900390625, 2.2058105468750, -0.9088134765625, 0.0000000000000, -1.4417724609375, 3.6082763671875, -2.1798095703125, 0.2565917968750, -0.7783203125000, 0.1513671875000, -3.3078613281250, 3.4111328125000, 3.4748535156250, 0.0000000000000, 2.8527832031250, -1.9759521484375, 1.1267089843750, 1.2414550781250, 0.6353759765625, 0.3199462890625, 3.2946777343750, -0.8327636718750, -1.9670410156250, 2.9074707031250, 3.4447021484375, -0.3753662109375, -1.1680908203125, -1.5572509765625, -0.4625244140625, 2.2131347656250, -0.6390380859375, -0.0001220703125, -0.1542968750000, 3.1661376953125, -1.9650878906250, 0.0000000000000, -3.8043212890625, 1.9750976562500, 0.6577148437500, -3.5422363281250, 0.3510742187500, -3.6159667968750, 1.9395751953125, 0.0000000000000, 2.1625976562500, -2.4804687500000, 1.5605468750000, 2.5960693359375, -2.4445800781250, -3.0705566406250, -0.7531738281250, -1.9184570312500, -0.5937500000000, -1.6130371093750, -0.9337158203125, 1.1712646484375, -1.1555175781250, 1.4716796875000, 0.0000000000000, 3.9083251953125, -1.0778808593750, -3.6251220703125, -0.5159912109375, -0.9724121093750, 3.2495117187500, -0.4245605468750, 0.7097167968750, -0.3000488281250, 2.7125244140625, 2.9075927734375, -3.3081054687500, 3.2978515625000, 3.9998779296875, -0.0456542968750, -2.7779541015625, 1.9251708984375, -2.1774902343750, -0.5999755859375, 1.3175048828125, 2.6427001953125, 3.7739257812500, 2.1627197265625, 3.5286865234375, -2.3742675781250, -1.5515136718750, 2.5394287109375, 0.0000000000000, -1.8220214843750, 0.8068847656250, -1.8562011718750, 1.3928222656250, -0.5955810546875, 0.0000000000000, 0.0000000000000, 2.5187988281250, 0.8946533203125, -0.1951904296875, -0.1995849609375, -1.5903320312500, -1.8758544921875, -0.6003417968750, 2.0340576171875, 0.0000000000000, 0.6496582031250, 2.3038330078125, -2.5050048828125, 2.2210693359375, 0.0000000000000, 1.8321533203125, -0.6505126953125, 3.1855468750000, 0.0000000000000, 0.0000000000000, 2.6182861328125, 1.2930908203125, -0.0001220703125, 0.2050781250000, -1.3037109375000, -2.6397705078125, 0.0000000000000, -0.1108398437500, -1.6027832031250, -3.0306396484375, 1.5260009765625, 0.0000000000000, 0.2264404296875, 0.0000000000000, -1.8118896484375, 0.7679443359375, 1.1605224609375, -0.4945068359375, 2.9782714843750, 0.9617919921875, -1.1215820312500, -1.2998046875000, 0.0000000000000, -1.1614990234375, 2.2419433593750, 2.1701660156250, -0.1679687500000, 2.2852783203125, 1.1645507812500, -2.1317138671875, 2.0311279296875, 0.0000000000000, 0.5140380859375, 2.5130615234375, -2.7965087890625, -1.2686767578125, 1.9188232421875, 1.5183105468750, 1.1920166015625, 0.0001220703125, 0.8101806640625, -1.0324707031250, 0.7406005859375, 2.2600097656250, 2.1866455078125, -0.7556152343750, -2.3903808593750, 0.9410400390625, -1.1756591796875, 1.0251464843750, -2.0072021484375, -2.4193115234375, 0.0000000000000, 0.8070068359375, 3.1997070312500, -2.3308105468750, 1.9036865234375, 2.8332519531250, -0.4766845703125, 2.5266113281250, -1.6850585937500, 2.1796875000000, -1.6992187500000, 2.5761718750000, 1.8543701171875, 1.9235839843750, -0.3463134765625, 2.3218994140625, 1.6766357421875, -0.2507324218750, 0.9088134765625, -1.7495117187500, 0.7155761718750, -1.4294433593750, 1.7111816406250, -1.1293945312500, -1.7879638671875, -1.4134521484375, 1.7019042968750, 1.7497558593750, 3.1777343750000, -2.9876708984375, -3.0557861328125, 2.0135498046875, -2.7143554687500, -2.8695068359375, 0.8317871093750, 1.0981445312500, -2.4215087890625, -2.2275390625000, -0.0001220703125, -1.3760986328125, 2.1237792968750, -0.1408691406250, -0.8509521484375, -3.0573730468750, 2.9957275390625, 0.7755126953125, -2.8193359375000, -0.9017333984375, 0.7242431640625, -3.2150878906250, 2.9539794921875, 0.6763916015625, -2.8923339843750, 1.6204833984375, 0.0000000000000, -0.3488769531250, -3.4857177734375, -2.9064941406250, -1.6343994140625, -1.3260498046875, 0.9553222656250, -2.0023193359375, -1.9521484375000, -3.6181640625000, 2.3841552734375, 0.9139404296875, -2.3375244140625, 3.1867675781250, 0.1060791015625, -0.0169677734375, 0.0000000000000, 2.6695556640625, 2.8331298828125, -1.6915283203125, -2.7398681640625, 1.6972656250000, 1.3906250000000, -1.1275634765625, 1.1123046875000, 1.7081298828125, -0.6251220703125, -3.7077636718750, -3.2130126953125, 0.0000000000000, 1.3448486328125, -1.2779541015625, 2.6479492187500, 3.8836669921875, -1.0341796875000, -2.2431640625000, -0.5532226562500, -2.0913085937500, -1.1437988281250, -0.4169921875000, -0.5672607421875, 0.0000000000000, 2.9468994140625, 3.2229003906250, -2.7194824218750, -2.8890380859375, -1.1763916015625, 2.6824951171875, -0.0001220703125, -3.2885742187500, -0.9243164062500, 1.2923583984375, -2.2864990234375, -0.4573974609375, 0.3073730468750, -0.2108154296875, 1.8734130859375, -2.2652587890625, 2.9765625000000, 3.9410400390625, 0.0000000000000, -1.3525390625000, -1.7557373046875, -1.8247070312500, 0.4942626953125, -0.0362548828125, -3.4141845703125, 0.0000000000000, 1.5053710937500, 1.6767578125000, -3.2397460937500, -2.4154052734375, -2.1811523437500, 2.5764160156250, 2.9771728515625, 0.0001220703125, 2.7866210937500, 1.3165283203125, -1.2667236328125, -2.1689453125000, 0.0000000000000, 1.9044189453125, -2.5415039062500, 1.2076416015625, 2.5270996093750, 0.3037109375000, 0.4025878906250, -2.0405273437500, -0.2817382812500, -1.6827392578125, 3.6091308593750, 3.6428222656250, -1.3035888671875, -2.2817382812500, -0.3205566406250, 3.2590332031250, -2.7380371093750, 2.3764648437500, 1.0119628906250, 3.8392333984375, -2.1981201171875, -0.2049560546875, -0.3516845703125, -2.7286376953125, 1.3276367187500, -0.7399902343750, -0.8994140625000, -2.5474853515625, 3.2564697265625, 2.7060546875000, -1.2502441406250, -3.3651123046875, -0.9965820312500, -0.2679443359375, -3.4049072265625, -3.5897216796875, 2.2261962890625, 0.6713867187500, 0.9956054687500, 2.0991210937500, -2.2408447265625, -2.4624023437500, 2.8060302734375, 3.3007812500000, -2.1115722656250, 1.6665039062500, -2.9340820312500, -2.2786865234375, 1.9658203125000, 0.0000000000000, 3.4274902343750, -0.5253906250000, -0.0688476562500, -1.0222167968750, 0.0000000000000, -1.8125000000000, -1.0393066406250, -2.2733154296875, -1.2048339843750, 0.0000000000000, -1.5302734375000, 2.9044189453125, -2.1058349609375, -2.2288818359375, 1.4414062500000, 2.9837646484375, -2.3988037109375, -2.0454101562500, 2.1760253906250, 0.5266113281250, 0.3747558593750, 2.4720458984375, -3.1279296875000, -0.5667724609375, 3.8568115234375, -2.2856445312500, 2.7795410156250, -2.8840332031250, 3.1691894531250, -0.8619384765625, 0.0000000000000, 2.5817871093750, 2.6096191406250, -3.0046386718750, 3.6308593750000, 1.9128417968750, -0.4953613281250, 0.0000000000000, -3.5118408203125, 1.2756347656250, -1.1002197265625, 0.0000000000000, 0.2491455078125, -2.1645507812500, -0.6522216796875, 0.0000000000000, 1.3084716796875, 1.8295898437500, 0.3808593750000, 0.0000000000000, -0.0911865234375, 2.8005371093750, 2.1697998046875, -1.6289062500000, -0.1536865234375, -3.8912353515625, -0.6053466796875, 1.6232910156250, -0.4504394531250, -0.8181152343750, -3.5108642578125, -2.0012207031250, 1.3835449218750, 0.9322509765625, -2.9644775390625, -2.0277099609375, -3.5479736328125, 2.6807861328125, 0.0000000000000, -0.6075439453125, -0.4869384765625, -0.7669677734375, 2.5844726562500, -0.2084960937500, -0.1414794921875, -1.9550781250000, -2.7163085937500, 0.0408935546875, 0.7159423828125, -0.8142089843750, -3.2354736328125, 3.3863525390625, 1.1354980468750, 1.8930664062500, 1.9298095703125, 1.4649658203125, 3.0018310546875, 2.4570312500000, -0.2817382812500, 2.3328857421875, 2.0368652343750, -2.9147949218750, -3.1942138671875, 1.5024414062500, -3.1003417968750, 0.0000000000000, 2.6325683593750, 2.8098144531250, 2.9916992187500, 1.0679931640625, -2.3332519531250, 3.5264892578125, -2.9743652343750, 0.1683349609375, -0.0001220703125, -2.9305419921875, -1.2081298828125, 0.6800537109375, 2.1241455078125, 3.0430908203125, -1.1506347656250, 0.0001220703125, 0.8188476562500, -3.1575927734375, 0.2487792968750, 2.2535400390625, -0.3610839843750, 1.7354736328125, 0.0059814453125, 2.2391357421875, 1.6379394531250, 0.0000000000000, -3.6887207031250, 2.4343261718750, 2.9996337890625, -2.7412109375000, 0.9697265625000, -1.2939453125000, -0.2160644531250, -1.7425537109375, -1.0002441406250, -1.5740966796875, 2.2672119140625, 2.0721435546875, 0.0000000000000, 1.2912597656250, -2.3372802734375, 2.1302490234375, 3.7410888671875, -0.1252441406250, 1.2503662109375, 0.1433105468750, 0.0000000000000, -2.0546875000000, 0.5083007812500, 3.1922607421875, -0.1837158203125, 0.0000000000000, -0.0001220703125, 2.1949462890625, -0.9945068359375, -3.2113037109375, -0.8776855468750, 0.0000000000000, -2.9337158203125, 0.0000000000000, 0.0000000000000, 0.3018798828125, -1.4172363281250, -0.3399658203125, -1.5239257812500, -2.4522705078125, 0.0000000000000, 2.5338134765625, -3.0528564453125, 0.7471923828125, -0.1123046875000, 0.1158447265625, 1.2722167968750, 2.3438720703125, -1.1003417968750, 2.3458251953125, -1.0828857421875, -2.3217773437500, -0.1777343750000, 0.0000000000000, -2.2761230468750, -1.3471679687500, 0.0000000000000, 2.1533203125000, 1.1710205078125, 0.1778564453125, 2.0566406250000, 1.5985107421875, -0.6601562500000, 1.1940917968750, 0.0000000000000, 0.0686035156250, 0.0000000000000, -2.6561279296875, -1.4547119140625, 0.3927001953125, -0.5982666015625, 1.9803466796875, -2.4114990234375, 0.8374023437500, 1.8485107421875, 1.7441406250000, -0.1237792968750, -1.2425537109375, -0.4395751953125, 0.0000000000000, -1.8629150390625, 0.0000000000000, -2.7926025390625, 0.1582031250000, 0.0000000000000, -1.8033447265625, 0.0000000000000, 0.1400146484375, -2.7861328125000, 0.0001220703125, 0.7548828125000, 1.9376220703125, -2.1619873046875, -0.9984130859375, -0.5211181640625, 0.0000000000000, -0.0001220703125, 2.1740722656250, 1.2646484375000, -0.1116943359375, 2.3850097656250, -1.3671875000000, 1.3531494140625, -1.7497558593750, -2.6774902343750, 2.3159179687500, 3.1705322265625, 0.0000000000000, 1.0615234375000, -0.4608154296875, -0.3111572265625, 1.6530761718750, 0.9505615234375, -2.0410156250000, 0.0000000000000, -3.0889892578125, 3.2429199218750, -2.2036132812500, 3.0881347656250, 1.1020507812500, -1.4980468750000, -1.2257080078125, -0.3032226562500, 0.3046875000000, 3.7583007812500, -2.9168701171875, -1.8858642578125, -2.6583251953125, 2.2447509765625, 2.7438964843750, 2.8889160156250, 1.7084960937500, 0.6085205078125, -1.2537841796875, -1.1823730468750, 1.9283447265625, -0.7224121093750, -1.1649169921875, 1.1026611328125, 2.2285156250000, 3.8704833984375, -1.0021972656250, 1.6793212890625, -2.1918945312500, -0.0355224609375, -1.1074218750000, 1.9605712890625, 2.7149658203125, 1.8205566406250, -3.7302246093750, -2.6854248046875, 0.8719482421875, 1.2550048828125, 3.6447753906250, -0.8226318359375, 0.0689697265625, 3.8378906250000, -2.5865478515625, -1.2854003906250, -2.0113525390625, 1.9912109375000, -1.2226562500000, 3.6517333984375, -2.9827880859375, 2.7977294921875, 3.2514648437500, -3.5119628906250, 1.2539062500000, -0.7264404296875, -0.0461425781250, 0.1417236328125, 2.8485107421875, -1.3985595703125, 3.4793701171875, 1.8120117187500, -3.0645751953125, 0.9522705078125, -1.3447265625000, 0.9504394531250, 0.0275878906250, -0.8198242187500, 2.5695800781250, -1.0863037109375, -2.5991210937500, 1.6735839843750, 3.1597900390625, 2.1182861328125, 2.8298339843750, -3.1492919921875, 1.9852294921875, 0.2988281250000, 0.4349365234375, 1.9038085937500, -1.6173095703125, -2.4110107421875, -3.0230712890625, -0.5242919921875, -1.0166015625000, -1.0196533203125, 3.9998779296875, -0.3178710937500, -1.5919189453125, 0.8076171875000, -2.1771240234375, -3.3037109375000, -3.1046142578125, 3.0319824218750, -1.8658447265625, -2.0443115234375, 2.2507324218750, 0.0000000000000, 0.1429443359375, 3.3833007812500, -0.7862548828125, 2.8750000000000, 2.6185302734375, -1.0478515625000, -0.7751464843750, 2.2974853515625, -1.3289794921875, 2.9155273437500, 0.6578369140625, 0.4311523437500, -2.8858642578125, -1.7786865234375, 1.1630859375000, 0.0000000000000, 0.0743408203125, 1.0423583984375, -0.7836914062500, 0.0000000000000, 1.2968750000000, -3.5406494140625, -1.3209228515625, -1.0570068359375, -3.1917724609375, -2.8828125000000, 1.3005371093750, 3.0255126953125, -0.5439453125000, -0.3760986328125, 1.6163330078125, 0.0280761718750, 3.2607421875000, -3.1577148437500, 3.0938720703125, 0.2148437500000, 2.8779296875000, 1.1728515625000, 0.7445068359375, -2.8626708984375, 3.4141845703125, -3.7130126953125, 3.6149902343750, 2.2952880859375, -1.0206298828125, -2.7597656250000, 3.9173583984375, -0.8388671875000, -1.5744628906250, -0.6749267578125, -3.7263183593750, -2.6960449218750, -1.6862792968750, -3.2344970703125, 1.3387451171875, -1.8409423828125, -3.2080078125000, 3.6661376953125, -0.9418945312500, -1.6480712890625, -2.4613037109375, 0.5566406250000, -2.8928222656250, -3.1612548828125, -0.0979003906250, 2.6918945312500, -0.7813720703125, 0.3594970703125, -2.5311279296875, -2.0919189453125, 0.6318359375000, 1.3363037109375, 0.5728759765625, 2.5446777343750, 2.8813476562500, -0.5718994140625, 0.2336425781250, -3.0948486328125, -3.0218505859375, -3.7210693359375, -1.7403564453125, -0.5738525390625, -2.8607177734375, -2.1352539062500, -0.8183593750000, -2.3825683593750, 0.8059082031250, 0.3862304687500, 3.1920166015625, -2.0872802734375, 3.7773437500000, 0.7512207031250, 1.5385742187500, 3.4268798828125, -2.1420898437500, 0.7059326171875, 0.5407714843750, -0.7614746093750, -0.5249023437500, -2.9978027343750, 1.3200683593750, 3.3371582031250, 0.9915771484375, -1.4074707031250, -2.5645751953125, 2.2441406250000, -2.7247314453125, -1.7412109375000, -3.3283691406250, -0.3637695312500, -1.5847167968750, 0.7147216796875, 1.5351562500000, 1.4300537109375, 2.9428710937500, -1.3193359375000, 0.9908447265625, -0.0001220703125, -3.8205566406250, 0.0000000000000, -0.4556884765625, 0.3920898437500, -1.6843261718750, 1.2659912109375, 3.2644042968750, -2.4108886718750, -0.0390625000000, -1.0113525390625, 2.5080566406250, 2.1944580078125, 2.2619628906250, -1.9454345703125, -2.6923828125000, 0.5491943359375, 0.0000000000000, 0.6456298828125, 2.2803955078125, 0.5981445312500, -1.1418457031250, 0.0087890625000, -3.7246093750000, 1.0429687500000, -2.2290039062500, 2.6416015625000, -3.3289794921875, 2.2442626953125, -0.6154785156250, -3.1446533203125, -2.0400390625000, -0.6490478515625, 3.3059082031250, -0.4477539062500, 3.2716064453125, -0.4462890625000, 0.1750488281250, -3.6594238281250, 1.0826416015625, -3.7794189453125, 1.9895019531250, 3.0972900390625, 1.3710937500000, 3.1130371093750, -1.6884765625000, -2.6837158203125, -3.1755371093750, -0.0305175781250, -0.2916259765625, -2.8688964843750, -1.7731933593750, 0.0001220703125, -0.0031738281250, -2.7232666015625, 2.4121093750000, -0.5456542968750, -2.8450927734375, -0.3966064453125, -1.2077636718750, -1.1506347656250, -2.8126220703125, 3.5318603515625, 3.3532714843750, 1.4053955078125, 0.8823242187500, 3.7187500000000, 0.3161621093750, 2.8260498046875, 0.7723388671875, 0.7780761718750, 3.5593261718750, 3.1103515625000, 3.9886474609375, -0.1811523437500, -2.8402099609375, 2.2730712890625, -2.9082031250000, 1.6081542968750, -1.5499267578125, -2.6043701171875, 0.2609863281250, -2.8482666015625, -3.0546875000000, -1.0915527343750, 0.0000000000000, 3.4232177734375, 2.8811035156250, 2.2449951171875, -1.5069580078125, 3.0566406250000, 0.3444824218750, 0.6673583984375, -1.1362304687500, 2.4180908203125, 0.8222656250000, -0.6774902343750, 3.0762939453125, 0.0000000000000, -2.1722412109375, 3.2404785156250, -1.9165039062500, -0.5178222656250, 0.0000000000000, 3.1075439453125, -3.1021728515625, 0.0000000000000, 0.0000000000000, -1.6293945312500, -2.7958984375000, -0.7534179687500, 0.0000000000000, -2.3380126953125, 3.2064208984375, -0.9476318359375, 2.1971435546875, -2.1326904296875, 3.0633544921875, 3.0653076171875, -2.7559814453125, -2.3310546875000, -2.7789306640625, -0.4351806640625, -2.1677246093750, 2.4428710937500, 1.4479980468750, 2.2988281250000, 1.0277099609375, -1.0869140625000, -3.2019042968750, 0.0000000000000, 0.0000000000000, -1.6113281250000, -2.8641357421875, -2.6276855468750, 3.0922851562500, 0.4836425781250, -1.9361572265625, 0.8858642578125, 2.5528564453125, -2.0649414062500, 1.8090820312500, 0.5548095703125, 2.3867187500000, 2.9583740234375, 0.2652587890625, 0.0000000000000, 0.8504638671875, 0.0000000000000, 0.0002441406250, 2.7021484375000, -1.7967529296875, 0.0000000000000, -2.3791503906250, -2.4993896484375, 1.2502441406250, 0.3464355468750, 2.8272705078125, -0.7722167968750, 1.2982177734375, 2.6357421875000, -0.5599365234375, -3.0684814453125, 0.8126220703125, 1.2905273437500, 0.0000000000000, 0.0000000000000, 1.8320312500000, -1.7885742187500, 3.0491943359375, -1.4743652343750, 0.3092041015625, -0.6232910156250, -3.2131347656250, 2.6384277343750, 1.5511474609375, 2.7954101562500, -2.2784423828125, 1.0775146484375, -2.3231201171875, 0.6623535156250, -1.6503906250000, 1.4543457031250, 0.0000000000000, -0.0318603515625, 0.0000000000000, 2.5588378906250, 2.1956787109375, 1.3435058593750, -1.7585449218750, -0.2625732421875, 0.0000000000000, -0.0001220703125, 3.0858154296875, 3.5179443359375, 1.8625488281250, -0.7242431640625, 2.9621582031250, 0.0000000000000, 1.1781005859375, -2.4864501953125, 1.3128662109375, 0.0000000000000, 3.2158203125000, 3.2337646484375, -1.4754638671875, -2.4649658203125, -2.3792724609375, 3.6759033203125, 0.2379150390625, -0.2155761718750, -2.7244873046875, -1.1309814453125, -2.4250488281250, 1.2824707031250, -3.2346191406250, 3.4011230468750, -0.0466308593750, 0.0001220703125, -3.5676269531250, 3.0075683593750, 0.0629882812500, -3.2518310546875, -1.2432861328125, 2.6090087890625, -3.6197509765625, 2.4689941406250, 3.4750976562500, 2.8005371093750, 3.6127929687500, 2.5256347656250, 3.6086425781250, 0.0000000000000, 0.0001220703125, -2.1401367187500, -0.0262451171875, 0.0000000000000, 0.2430419921875, -1.8753662109375, -3.0107421875000, 0.5142822265625, 1.7579345703125, 2.2006835937500, -1.8176269531250, 0.0000000000000, 0.0001220703125, 2.3643798828125, 2.6604003906250, 0.1206054687500, -2.4801025390625, -3.1264648437500, 2.3085937500000, 1.6406250000000, -3.0251464843750, 1.6772460937500, 3.1787109375000, -3.2708740234375, 0.0467529296875, 0.2194824218750, 2.2930908203125, -0.3684082031250, 0.6676025390625, -0.1547851562500, 1.0308837890625, 0.6179199218750, 0.7299804687500, 2.8463134765625, -0.8452148437500, -2.7327880859375, -2.7785644531250, 3.1013183593750, -1.6110839843750, -0.0308837890625, 1.5528564453125, -2.2148437500000, 1.0694580078125, 1.5166015625000, 0.2612304687500, 2.7523193359375, -3.6672363281250, 0.0000000000000, -2.7365722656250, -0.1033935546875, 2.8879394531250, -0.9660644531250, -0.1571044921875, 2.9982910156250, 1.3243408203125, -1.3880615234375, -0.2031250000000, 2.0927734375000, 3.0925292968750, 1.0560302734375, 0.0000000000000, -1.2971191406250, -2.9177246093750, -0.8382568359375, 3.4151611328125, -1.4294433593750, -3.3665771484375, -3.2321777343750, 2.8436279296875, 1.3090820312500, 1.4017333984375, -0.5998535156250, 0.8496093750000, 1.1097412109375, 0.0000000000000, 0.0008544921875, 0.6263427734375, 0.6394042968750, 2.3933105468750, -2.2746582031250, 1.7283935546875, 0.0000000000000, 3.9835205078125, -0.1524658203125, -2.3997802734375, 0.0001220703125, -3.4653320312500, 2.4538574218750, -1.7108154296875, -1.9683837890625, 2.5939941406250, 0.0000000000000, 3.6058349609375, 1.5754394531250, 2.7486572265625, 1.0447998046875, 0.5415039062500, -3.1241455078125, 1.1644287109375, -0.9174804687500, -1.4235839843750, 0.4272460937500, -0.3325195312500, 1.2290039062500, -3.3172607421875, -2.6356201171875, 2.2039794921875, 2.6879882812500, 1.2427978515625, -2.0113525390625, 3.2333984375000, -2.5567626953125, 0.0000000000000, -0.8771972656250, 0.6134033203125, 0.1407470703125, 0.0000000000000, -2.8005371093750, 1.0415039062500, 0.0000000000000, 2.4423828125000, 2.2933349609375, -0.6361083984375, -1.0590820312500, 1.8326416015625, -1.8245849609375, -3.5172119140625, -0.1097412109375, -1.2972412109375, 2.2746582031250, -3.5646972656250, 1.7324218750000, 0.0645751953125, 1.6425781250000, -3.0549316406250, -0.6177978515625, 0.0001220703125, 0.1724853515625, -3.7888183593750, -3.9998779296875, -0.4442138671875, -3.4971923828125, -2.7071533203125, 0.7412109375000, 3.2430419921875, 0.6511230468750, -0.3298339843750, 1.0642089843750, 1.7943115234375, 0.0000000000000, 1.9428710937500, 3.5172119140625, 3.1459960937500, 1.5307617187500, 2.6254882812500, -0.2065429687500, 2.8063964843750, 0.0000000000000, 0.0000000000000, 0.8746337890625, -2.9666748046875, 0.0000000000000, 0.7772216796875, 0.1506347656250, 2.1458740234375, 1.6601562500000, 0.0000000000000, 1.6063232421875, 1.5148925781250, 1.2424316406250, 0.0000000000000, 1.1938476562500, -1.2264404296875, 0.0000000000000, 0.6013183593750, -1.5731201171875, -1.5155029296875, 0.6320800781250, -2.3966064453125, 0.1429443359375, 0.0000000000000, 1.0640869140625, -2.3596191406250, -0.9720458984375, 0.0000000000000, -0.7048339843750, 0.0001220703125, -2.4957275390625, 0.7772216796875, 0.0000000000000, 0.0000000000000, 2.7856445312500, -2.8538818359375, -0.0484619140625, 0.0000000000000, 2.5841064453125, -2.6964111328125, -0.0736083984375, 2.9144287109375, -0.2204589843750, -2.1822509765625, 0.0000000000000, 1.5867919921875, 0.0000000000000, 0.5870361328125, 2.0264892578125, -2.8055419921875, -1.7817382812500, 2.9206542968750, 0.8464355468750, -3.2441406250000, 2.9108886718750, 1.1198730468750, 0.0000000000000, -2.9318847656250, 2.3928222656250, 0.1313476562500, 0.1973876953125, -1.5487060546875, 0.1776123046875, -2.2425537109375, 1.5227050781250, -0.9635009765625, 0.0000000000000, 0.6354980468750, 0.0000000000000, 2.0157470703125, -1.8874511718750, 0.0001220703125, 2.7662353515625, 2.5220947265625, 0.7871093750000, -1.7634277343750, -2.3837890625000, 1.7611083984375, -0.7950439453125, -2.9907226562500, 0.6048583984375, 0.0000000000000, 2.8298339843750, -2.8848876953125, 0.0000000000000, -2.2147216796875, 0.0001220703125, 0.0000000000000, 2.3813476562500, -3.2027587890625, -3.1260986328125, -1.4394531250000, -1.6688232421875, -1.4171142578125, 0.0000000000000, 3.1545410156250, -1.8359375000000, 0.0001220703125, 1.6062011718750, -1.6066894531250, 1.4163818359375, -0.7972412109375, 0.8106689453125, -1.4447021484375, -3.5147705078125, -2.1950683593750, -2.4902343750000, -0.3192138671875, -2.0196533203125, 0.0000000000000, 2.7637939453125, -2.5596923828125, -2.0377197265625, 0.2239990234375, -2.6621093750000, -0.6505126953125, -1.9321289062500, 0.8674316406250, -1.7105712890625, -0.5762939453125, -2.7943115234375, 0.0000000000000, -2.2032470703125, 0.5317382812500, -2.5787353515625, 0.0000000000000, -2.6474609375000, 2.7022705078125, 0.6239013671875, -0.0001220703125, -0.7565917968750, 1.4389648437500, 2.7849121093750, -3.4548339843750, 3.1447753906250, 2.8719482421875, 0.0931396484375, -0.3570556640625, -3.4268798828125, -1.2633056640625, -1.8073730468750, 0.9262695312500, 1.5856933593750, -1.2553710937500, 3.2563476562500, 1.5397949218750, 1.2875976562500, 2.6239013671875, -2.5037841796875, 2.5935058593750, 1.6127929687500, -0.0017089843750, 2.1754150390625, 3.6219482421875, -2.2867431640625, 0.0001220703125, -2.1495361328125, -0.3974609375000, -1.7211914062500, 1.9074707031250, -0.0086669921875, -1.1337890625000, 0.1771240234375, -2.6870117187500, -1.7941894531250, -1.8083496093750, 2.6214599609375, -1.5980224609375, -1.8332519531250, -3.3142089843750, -0.0156250000000, 2.3992919921875, 2.1623535156250, 0.0000000000000, -2.8726806640625, -1.4075927734375, 0.7485351562500, -1.4039306640625, -1.3723144531250, 0.7993164062500, 0.0000000000000, 2.6477050781250, -1.8521728515625, 0.0000000000000, 0.3481445312500, -0.9681396484375, 0.6998291015625, 0.0000000000000, -2.6507568359375, -0.6301269531250, -0.5661621093750, 0.4388427734375, 1.8085937500000, 3.1102294921875, -1.7601318359375, 0.7315673828125, 0.3231201171875, -1.5639648437500, 3.5137939453125, 3.1547851562500, 0.0000000000000, -3.2288818359375, 2.0963134765625, -3.6000976562500, -0.4050292968750, 1.5014648437500, 0.8446044921875, -1.6401367187500, 0.0000000000000, 0.9555664062500, -2.2320556640625, -2.2150878906250, 2.6469726562500, 0.3940429687500, -0.2697753906250, 2.7730712890625, 0.7326660156250, 0.0050048828125, -0.6385498046875, 0.6751708984375, -1.5513916015625, -2.6453857421875, -2.5261230468750, 2.0264892578125, 2.9631347656250, -3.3994140625000, -0.0899658203125, 0.8535156250000, 2.8162841796875, 1.5422363281250, 0.0000000000000, 0.0228271484375, -2.9423828125000, -0.3847656250000, -1.0811767578125, -1.7192382812500, -3.5186767578125, 1.6036376953125, -0.5314941406250, 1.9414062500000, 0.0007324218750, 2.9073486328125, 0.0000000000000, 0.0000000000000, -1.6097412109375, -0.2270507812500, -1.7164306640625, -3.2684326171875, -3.6311035156250, -1.5101318359375, 0.7750244140625, -0.2275390625000, 3.8229980468750, -2.1411132812500, 2.8052978515625, -0.8863525390625, -2.1123046875000, 0.8754882812500, 0.0418701171875, 0.0000000000000, -3.0405273437500, 2.9732666015625, 2.0599365234375, 2.8458251953125, 0.9697265625000, -1.7591552734375, 3.6225585937500, -0.7456054687500, -0.4458007812500, -0.9346923828125, 3.6231689453125, 2.5040283203125, -3.1525878906250, -0.7014160156250, -1.5528564453125, -0.1652832031250, -0.1561279296875, 1.1177978515625, -2.7037353515625, -1.8824462890625, -3.4783935546875, 3.3142089843750, 0.2569580078125, 2.7537841796875, 2.2322998046875, 3.3021240234375, -1.9421386718750, 2.3631591796875, -3.5306396484375, 1.2132568359375, 3.2026367187500, -3.5001220703125, -0.5183105468750, -0.8739013671875, -3.6048583984375, -2.5130615234375, 3.9998779296875, -2.9172363281250, 3.2994384765625, 0.7753906250000, -2.4163818359375, 2.4428710937500, -0.4370117187500, 2.5869140625000, 2.5808105468750, -0.9123535156250, 1.5008544921875, -3.5469970703125, 0.0000000000000, -1.0241699218750, -2.1688232421875, 0.0006103515625, 1.0651855468750, 3.1682128906250, 2.8253173828125, 2.6737060546875, 2.1386718750000, 3.1717529296875, 0.5878906250000, 0.0133056640625, -0.7253417968750, 0.5744628906250, 1.3336181640625, -0.8220214843750, -1.6174316406250, 3.1828613281250, 3.0327148437500, -0.3312988281250, 1.2326660156250, -1.3476562500000, -1.4559326171875, -0.3607177734375, 3.5543212890625, -0.2390136718750, 3.4635009765625, 1.3178710937500, -1.4586181640625, 0.4437255859375, -1.3160400390625, 3.4774169921875, -3.3674316406250, -2.8820800781250, -3.1613769531250, 1.6718750000000, -3.7061767578125, 3.4876708984375, -0.0397949218750, -1.2821044921875, 2.8765869140625, -2.4895019531250, -2.4516601562500, -2.4477539062500, -1.3515625000000, -0.7869873046875, 0.0001220703125, -3.4213867187500, -3.5557861328125, 2.0153808593750, -0.3858642578125, -1.0083007812500, 3.1507568359375, 0.3020019531250, -3.4925537109375, -3.7287597656250, 0.0000000000000, 0.9886474609375, 0.7630615234375, -2.0341796875000, 3.1364746093750, -0.0001220703125, -0.6822509765625, 0.0000000000000, -0.3953857421875, -2.9598388671875, -0.1632080078125, -2.2617187500000, -2.5050048828125, 2.9051513671875, -1.9927978515625, -1.5451660156250, 3.4931640625000, 0.6920166015625, 2.4792480468750, 0.7402343750000, 1.3625488281250, 1.1362304687500, 0.0008544921875, -1.1904296875000, -1.5922851562500, 0.9967041015625, 2.5194091796875, -0.1927490234375, 1.9276123046875, 3.7766113281250, 3.6157226562500, 0.0000000000000, 1.4556884765625, -0.5725097656250, 0.0000000000000, -0.4299316406250, 0.0000000000000, -0.3476562500000, 2.7972412109375, -2.9808349609375, 3.4033203125000, -3.0214843750000, 0.7624511718750, 2.6616210937500, -1.9791259765625, -0.5981445312500, 0.0000000000000, -2.2055664062500, 0.0000000000000, -1.3250732421875, -3.4000244140625, -0.3176269531250, 3.3419189453125, 2.4476318359375, 1.6306152343750, 0.4510498046875, -1.3856201171875, -3.0181884765625, 3.9998779296875, 1.4791259765625, -2.3247070312500, -2.1585693359375, 2.1516113281250, 0.9802246093750, -0.7409667968750, 2.1395263671875, 0.0000000000000, 3.1379394531250, -2.4213867187500, -1.6043701171875, -0.0572509765625, 2.8546142578125, -0.8386230468750, -0.4937744140625, -2.6693115234375, 3.4979248046875, -1.5751953125000, -2.3437500000000, 2.7287597656250, 3.6357421875000, 0.3160400390625, 3.6890869140625, 0.0000000000000, 1.7470703125000, 2.5155029296875, 1.3603515625000, 3.1096191406250, -3.4727783203125, -2.0809326171875, 0.5512695312500, 2.1141357421875, 2.0635986328125, 3.5231933593750, -1.1888427734375, 1.6866455078125, 2.9437255859375, 2.2559814453125, 0.7489013671875, 0.1826171875000, -0.7877197265625, -0.0001220703125, 0.6510009765625, 3.2620849609375, -1.6934814453125, -2.1136474609375, 0.6254882812500, 3.6597900390625, -0.0360107421875, 3.5056152343750, 0.5084228515625, -1.3127441406250, -2.6556396484375, -2.9349365234375, 1.6812744140625, -0.5080566406250, -3.5469970703125, -2.3243408203125, 1.2189941406250, -1.2430419921875, 1.8646240234375, -1.7213134765625, 0.3289794921875, -0.3261718750000, -0.2872314453125, 2.9697265625000, -1.1602783203125, -1.8992919921875, -1.4849853515625, 0.4134521484375, 2.9593505859375, -2.7235107421875, -0.5112304687500, -1.7915039062500, 0.0000000000000, -1.3806152343750, -1.3399658203125, -0.1037597656250, 3.0522460937500, -3.2471923828125, -0.3499755859375, -0.1568603515625, -0.3187255859375, 0.0000000000000, 1.5931396484375, -2.9018554687500, 3.0791015625000, 0.3575439453125, -0.1037597656250, 3.0762939453125, 0.2176513671875, 2.1759033203125, 1.1887207031250, 0.0000000000000, 2.4674072265625, 2.1176757812500, -0.4630126953125, 0.0000000000000, -3.0018310546875, -2.3634033203125, 2.8128662109375, 2.0507812500000, -3.0286865234375, -0.5991210937500, 1.4215087890625, -2.1829833984375, 3.1936035156250, -0.0001220703125, 0.0000000000000, -1.6564941406250, 0.0000000000000, 1.2274169921875, -0.1368408203125, 2.9539794921875, -2.5002441406250, -0.3499755859375, -1.8045654296875, 0.7135009765625, -1.7714843750000, -2.9816894531250, 2.9613037109375, 2.7998046875000, -2.2360839843750, 2.8878173828125, 1.2144775390625, -0.3121337890625, 0.9450683593750, -0.2662353515625, 0.0285644531250, -0.6503906250000, -0.7625732421875, 0.5563964843750, 0.0000000000000, -2.6688232421875, 2.6783447265625, 1.8087158203125, 2.2385253906250, -0.3660888671875, -1.1289062500000, -2.6789550781250, -1.0327148437500, 0.0000000000000, -2.1998291015625, 2.9958496093750, 0.0000000000000, -0.6658935546875, 1.3421630859375, 0.0931396484375, -0.1217041015625, 1.7687988281250, 0.0000000000000, -2.6943359375000, -2.4781494140625, 1.4980468750000, -0.0100097656250, 1.6702880859375, -1.2670898437500, -0.1660156250000, 1.4749755859375, -2.5792236328125, -1.1303710937500, 0.0000000000000, 3.1627197265625, 2.2962646484375, 2.9730224609375, 0.8688964843750, 1.2783203125000, 0.3884277343750, 0.0001220703125, -3.0541992187500, 0.0000000000000, -1.7720947265625, 0.0001220703125, 0.4735107421875, 2.9676513671875, -2.2204589843750, 0.0000000000000, -0.4533691406250, -2.1313476562500, -1.0380859375000, 3.2172851562500, 2.4514160156250, 1.5834960937500, 0.6148681640625, 2.6058349609375, -2.6723632812500, -0.2714843750000, 0.0000000000000, 1.5058593750000, -1.9822998046875, -2.4996337890625, -2.0582275390625, 2.4158935546875, -1.0277099609375, 1.3876953125000, -0.3009033203125, -0.9836425781250, 3.0067138671875, 1.5852050781250, 3.8016357421875, -0.1635742187500, -2.4958496093750, 2.5502929687500, 3.2186279296875, -0.2727050781250, 0.2928466796875, -3.1599121093750, 0.0000000000000, -1.4711914062500, 1.9262695312500, -1.7523193359375, 0.1019287109375, 1.6239013671875, -1.3431396484375, -2.8474121093750, 1.0662841796875, 2.0693359375000, 3.3507080078125, 2.0222167968750, -2.0355224609375, -3.0821533203125, -3.4960937500000, 3.4731445312500, 1.6398925781250, -3.2924804687500, -2.6929931640625, 0.9462890625000, -0.3259277343750, -3.5206298828125, 1.5174560546875, 3.7055664062500, -1.8072509765625, 0.5718994140625, 1.9232177734375, 1.4691162109375, -2.1334228515625, -1.2445068359375, -2.0059814453125, -0.6060791015625, -1.4794921875000, 0.9567871093750, 1.8878173828125, 0.1503906250000, 2.1154785156250, -1.8812255859375, 1.2137451171875, -1.4758300781250, 3.4304199218750, -3.1016845703125, 1.5867919921875, -0.6815185546875, -0.2576904296875, -2.8955078125000, -0.5718994140625, 0.6348876953125, 1.3865966796875, 1.3912353515625, 1.5817871093750, 3.5551757812500, -1.4675292968750, 0.4511718750000, -1.6185302734375, 0.8138427734375, 1.5347900390625, 0.2694091796875, 3.7730712890625, 0.4642333984375, 0.0000000000000, -2.8411865234375, -2.3471679687500, 2.8475341796875, -1.8624267578125, -2.2529296875000, 0.5571289062500, 2.5808105468750, -3.6066894531250, -1.4182128906250, 0.0000000000000, 3.1801757812500, 3.9998779296875, -1.8756103515625, 2.6846923828125, -1.8577880859375, 0.5461425781250, 1.2700195312500, -0.7480468750000, -0.4759521484375, 0.1997070312500, -1.1484375000000, -0.9254150390625, 2.7711181640625, -1.1577148437500, 2.9749755859375, 2.1079101562500, 2.5139160156250, 1.6182861328125, 2.8986816406250, 2.6298828125000, 0.9515380859375, -3.4722900390625, 0.0000000000000, -2.4599609375000, 2.8275146484375, 0.9222412109375, 0.3708496093750, -3.0529785156250, 2.5791015625000, -2.3010253906250, 1.6075439453125, 1.9591064453125, 2.3989257812500, -3.2229003906250, 1.9539794921875, 1.9189453125000, -0.6037597656250, -1.1457519531250, 0.7250976562500, -3.1157226562500, 3.1052246093750, -2.6809082031250, -1.9057617187500, -0.1899414062500, -3.6339111328125, 0.0000000000000, 0.0679931640625, -1.0565185546875, 3.3663330078125, 0.0908203125000, -3.5460205078125, 1.6820068359375, -1.0656738281250, 2.9311523437500, -0.1662597656250, 0.0885009765625, 3.5167236328125, 2.0594482421875, 0.0000000000000, -0.0744628906250, 1.9218750000000, 2.1490478515625, 3.5310058593750, -2.7907714843750, 3.2155761718750, 1.0676269531250, -3.0539550781250, 2.2177734375000, -0.5024414062500, -3.3977050781250, 2.9062500000000, -0.5108642578125, -3.3966064453125, 2.1749267578125, -2.1188964843750, -0.5815429687500, 2.5415039062500, 1.1389160156250, 0.0000000000000, -0.0856933593750, -3.4582519531250, 3.0130615234375, -2.4238281250000, 2.9205322265625, 2.7061767578125, -0.2128906250000, 1.8168945312500, -3.8077392578125, 0.2430419921875, 1.5252685546875, 1.6998291015625, -1.8818359375000, -3.1789550781250, -3.7852783203125, 3.0742187500000, -0.1678466796875, -1.7237548828125, 2.5157470703125, -0.8782958984375, -1.1397705078125, -2.3690185546875, 0.6765136718750, -1.6768798828125, 2.4737548828125, -0.7330322265625, 2.7513427734375, 2.0119628906250, -0.0461425781250, 0.9924316406250, 2.5961914062500, -2.2183837890625, 1.1484375000000, 0.8403320312500, 0.0000000000000, 0.0000000000000, 0.1893310546875, -2.9664306640625, -3.1568603515625, -1.5136718750000, -2.6732177734375, -1.6429443359375, 2.5250244140625, 3.1439208984375, 0.6412353515625, 2.2331542968750, 0.4531250000000, -2.4975585937500, -1.0496826171875, 2.3140869140625, 3.1975097656250, -2.5535888671875, 0.0000000000000, -3.0634765625000, 2.4821777343750, -1.4215087890625, 2.9168701171875, -0.0961914062500, -1.8807373046875, -1.0756835937500, 3.0922851562500, 3.0042724609375, -0.6687011718750, 0.0001220703125, -2.6297607421875, 0.7987060546875, -2.8809814453125, -1.9002685546875, -2.8690185546875, -0.3139648437500, 2.8428955078125, 0.0000000000000, -2.1666259765625, -2.4010009765625, 0.0000000000000, 1.7504882812500, -0.2387695312500, 0.9357910156250, 0.9898681640625, -1.6024169921875, -2.3271484375000, 1.2618408203125, 1.3226318359375, -0.6250000000000, -2.2009277343750, -1.8936767578125, -1.7969970703125, 0.8186035156250, -0.7468261718750, -0.4620361328125, -1.1392822265625, -2.4957275390625, -0.6469726562500, 2.6197509765625, 0.0000000000000, 3.0711669921875, 2.4449462890625, 0.0000000000000, 0.0000000000000, -1.6728515625000, -2.2684326171875, -2.8782958984375, -2.6530761718750, 2.2850341796875, 2.3005371093750, 3.0718994140625, 1.7406005859375, -2.8817138671875, 0.0000000000000, 0.1313476562500, -0.7463378906250, 0.8298339843750, 1.9063720703125, 0.7244873046875, 0.2504882812500, 1.8841552734375, -0.7785644531250, -0.4808349609375, -0.0001220703125, -0.0001220703125, -2.3895263671875, 0.0000000000000, 2.8015136718750, -1.2523193359375, 0.0000000000000, 0.0008544921875, 2.5452880859375, -2.3198242187500, -1.4340820312500, -2.9346923828125, 3.1796875000000, 2.6096191406250, 0.8636474609375, 1.3503417968750, -2.1093750000000, 0.5152587890625, -3.4271240234375, -0.3994140625000, -2.3223876953125, -3.0631103515625, -1.6158447265625, -0.5323486328125, -2.9494628906250, 0.0001220703125, 0.8825683593750, -3.1295166015625, -0.9382324218750, 0.7048339843750, 1.4016113281250, -3.3049316406250, 2.9276123046875, 2.9145507812500, 2.9295654296875, -2.6542968750000, -0.4781494140625, 2.6622314453125, -1.2625732421875, 0.6867675781250, -1.5738525390625, 0.8476562500000, 0.0000000000000, -2.9512939453125, -2.5145263671875, -1.2172851562500, -2.1407470703125, -2.8812255859375, 1.9868164062500, -3.0361328125000, 0.8303222656250, 2.7593994140625, 1.6993408203125, 0.9467773437500, 3.1933593750000, -2.4027099609375, 2.2795410156250, -2.8532714843750, 0.8735351562500, 0.7777099609375, 0.1785888671875, -0.8249511718750, -0.9892578125000, 3.9998779296875, 0.0000000000000, 0.0930175781250, 0.0000000000000, 0.9974365234375, 0.8892822265625, -1.1121826171875, -2.2844238281250, 0.0000000000000, -3.1845703125000, 1.0020751953125, -2.4815673828125, -0.1911621093750, 0.0000000000000, 0.9757080078125, 2.1861572265625, 1.4136962890625, 0.0000000000000, -2.3713378906250, -2.8994140625000, -3.0941162109375, 0.4160156250000, -0.7700195312500, -1.1215820312500, -0.7459716796875, -3.1032714843750, -0.9372558593750, -0.0144042968750, -1.5856933593750, -0.6679687500000, -0.5860595703125, 1.6790771484375, 0.8931884765625, 0.4931640625000, -0.0001220703125, 1.7535400390625, -1.5596923828125, -1.5316162109375, 2.8118896484375, 2.9110107421875, -1.4865722656250, -3.4860839843750, -1.3659667968750, 3.8553466796875, -2.5767822265625, 3.6688232421875, -2.5776367187500, -2.3333740234375, -1.2561035156250, 0.0747070312500, 2.2163085937500, -2.4516601562500, 1.0623779296875, -0.5842285156250, -0.3066406250000, 2.7940673828125, -0.8457031250000, 0.7585449218750, 3.4024658203125, 0.4468994140625, -3.4493408203125, -0.6318359375000, -2.8880615234375, -1.1400146484375, -0.9849853515625, -1.6904296875000, -2.1647949218750, 0.0000000000000, 0.1057128906250, -1.8676757812500, 2.9755859375000, -2.2601318359375, -2.4969482421875, 0.8380126953125, 3.7841796875000, 3.5228271484375, -1.7229003906250, -1.3077392578125, 2.5170898437500, -2.7539062500000, 1.2399902343750, 2.2950439453125, -0.0374755859375, 0.9355468750000, 3.8449707031250, 0.0000000000000, -3.7319335937500, -3.9010009765625, -0.2412109375000, 2.8660888671875, 1.7465820312500, -1.8494873046875, 1.7789306640625, -1.5933837890625, 1.4263916015625, 2.9212646484375, 1.5490722656250, -1.0948486328125, 2.3066406250000, 3.3100585937500, 0.2039794921875, 2.6693115234375, -1.2100830078125, 0.3483886718750, 2.8820800781250, 3.7279052734375, -1.4277343750000, -0.0614013671875, 1.4393310546875, 0.8660888671875, 1.3007812500000, 1.4555664062500, 2.5184326171875, 0.1600341796875, -2.5969238281250, 0.6877441406250, -1.2496337890625, -1.8240966796875, -0.0843505859375, 2.9244384765625, -2.5140380859375, 2.0161132812500, 3.4509277343750, -0.0916748046875, -1.4864501953125, 0.6925048828125, 1.1961669921875, 3.3839111328125, -0.9583740234375, 1.9649658203125, 0.9838867187500, 2.6065673828125, 1.1319580078125, 0.7283935546875, -2.8677978515625, -1.2381591796875, -0.0257568359375, 1.3468017578125, 3.8750000000000, 0.0000000000000, 2.0628662109375, 0.8730468750000, 3.2108154296875, -2.1973876953125, -1.4123535156250, -1.4121093750000, 3.6358642578125, 0.8142089843750, -2.5502929687500, -1.8935546875000, -0.4060058593750, 0.0000000000000, -0.0535888671875, 0.5733642578125, 2.5450439453125, -1.3354492187500, 3.3642578125000, 0.4165039062500, -1.3956298828125, -2.5706787109375, -0.0018310546875, -3.6693115234375, 2.9802246093750, -2.9587402343750, -2.9185791015625, 1.0865478515625, 1.0703125000000, -1.2329101562500, -1.0880126953125, -1.2930908203125, 0.5932617187500, 3.1748046875000, 0.0245361328125, -3.5382080078125, -1.7214355468750, -0.2994384765625, 1.7890625000000, 2.3085937500000, 1.8181152343750, -0.7272949218750, -1.5163574218750, -3.0872802734375, -1.5993652343750, 1.0526123046875, -0.9111328125000, 0.7324218750000, -2.5076904296875, 3.5166015625000, 0.6451416015625, -3.6066894531250, -3.2115478515625, 3.1761474609375, 2.9936523437500, 0.6951904296875, -2.7644042968750, 2.8157958984375, -0.4160156250000, -0.7208251953125, 0.2374267578125, -3.5393066406250, -3.0614013671875, 3.4171142578125, 1.9782714843750, 0.0000000000000, 2.8763427734375, -0.4144287109375, -0.3431396484375, -0.4227294921875, 3.1217041015625, -3.1169433593750, -2.3886718750000, 2.9444580078125, -3.3426513671875, 2.0291748046875, 1.6101074218750, -0.9423828125000, 1.0499267578125, -1.0845947265625, 0.0000000000000, 2.2332763671875, 2.0599365234375, 1.4342041015625, -3.7508544921875, 1.8007812500000, 0.1187744140625, -3.5029296875000, 2.4733886718750, 3.5484619140625, 3.3795166015625, -2.0229492187500, 3.3699951171875, 0.0000000000000, -0.7119140625000, -0.6098632812500, 2.9179687500000, 0.0989990234375, -2.9738769531250, 1.3583984375000, 0.0773925781250, 0.8371582031250, 1.5500488281250, 2.0153808593750, 0.7321777343750, -1.4581298828125, -1.6831054687500, 3.7360839843750, 2.5191650390625, 0.0000000000000, -0.1837158203125, 0.1004638671875, 0.5220947265625, -1.5828857421875, -0.2866210937500, 0.0000000000000, -2.8646240234375, 3.6728515625000, 3.4976806640625, 0.3737792968750, -0.3178710937500, -3.7761230468750, -0.8388671875000, -0.2452392578125, -3.2052001953125, -2.4632568359375, -1.3459472656250, -2.8857421875000, 0.2294921875000, -0.5985107421875, -1.4033203125000, 2.8825683593750, 1.8139648437500, 2.0314941406250, 0.7283935546875, -1.9213867187500, 2.4368896484375, -0.5391845703125, 0.6461181640625, 3.7147216796875, 0.2635498046875, -0.7778320312500, -2.1685791015625, 2.2955322265625, -2.3897705078125, -3.1397705078125, -2.8817138671875, -1.2980957031250, 1.1799316406250, 3.2166748046875, 3.0830078125000, -2.9924316406250, 3.7728271484375, 0.9119873046875, -0.6384277343750, 2.1046142578125, -0.4487304687500, 3.0319824218750, 0.0062255859375, -0.9617919921875, 2.8121337890625, -3.4227294921875, 2.4821777343750, -0.3104248046875, 0.5377197265625, 0.7087402343750, -2.0567626953125, 2.5446777343750, 0.0000000000000, -3.3929443359375, 0.8260498046875, -0.5517578125000, 0.0000000000000, -2.2098388671875, -0.2966308593750, -3.0876464843750, -3.7325439453125, 2.7576904296875, 2.1981201171875, 1.1762695312500, -1.1518554687500, -3.3424072265625, 2.0208740234375, 3.7521972656250, 3.9923095703125, -2.1367187500000, -1.5986328125000, 2.9869384765625, -3.3166503906250, 1.8157958984375, 3.3630371093750, 1.9101562500000, 0.6130371093750, 1.0603027343750, -0.4338378906250, 2.7363281250000, 0.6683349609375, -1.8642578125000, -2.7968750000000, -1.5725097656250, -1.4204101562500, -2.8305664062500, -2.5334472656250, 3.1468505859375, -0.6629638671875, -2.2579345703125, 0.3081054687500, -1.9018554687500, -2.2685546875000, -1.8912353515625, 2.1132812500000, -0.7854003906250, -0.2869873046875, -1.9984130859375, -1.0650634765625, -0.8585205078125, 2.1470947265625, -2.3713378906250, 0.0068359375000, 1.6950683593750, 3.5142822265625, 0.4754638671875, 2.7786865234375, 0.2945556640625, -3.1053466796875, 0.0001220703125, -0.4375000000000, 3.3250732421875, 0.0000000000000, 2.5471191406250, 1.1804199218750, -3.1364746093750, -2.9844970703125, 3.1837158203125, -0.7934570312500, 0.6336669921875, -1.8769531250000, -1.0825195312500, -1.5598144531250, -1.8096923828125, -0.2398681640625, 2.5137939453125, -1.4936523437500, 0.0000000000000, 2.4645996093750, 0.2606201171875, 3.7784423828125, -0.6168212890625, -2.5980224609375, 2.4519042968750, 1.4472656250000, 1.1646728515625, -0.1593017578125, -0.9846191406250, 3.9998779296875, -2.3242187500000, 0.4376220703125, -3.1232910156250, 1.9072265625000, 1.1339111328125, -2.6196289062500, 0.8474121093750, 2.7473144531250, 0.2316894531250, 3.2320556640625, 0.0000000000000, -0.0833740234375, -3.3034667968750, -2.4549560546875, -2.7728271484375, -1.6987304687500, 2.2636718750000, 0.0001220703125, -3.0522460937500, -1.8046875000000, 3.2745361328125, 0.1330566406250, 0.1162109375000, -3.9998779296875, 0.8876953125000, 0.0000000000000, 3.4174804687500, -0.7651367187500, -3.6293945312500, 1.2293701171875, -0.8120117187500, 2.6286621093750, -0.1968994140625, 0.3795166015625, 0.3125000000000, 3.0061035156250, -0.6550292968750, -1.3361816406250, 0.0000000000000, -2.6489257812500, -0.0515136718750, 0.0000000000000, 2.2877197265625, -1.4921875000000, -1.3236083984375, -2.9476318359375, -1.3129882812500, 0.0000000000000, 2.9931640625000, 0.8424072265625, -0.8339843750000, 0.1835937500000, 1.9747314453125, 2.6109619140625, 3.0911865234375, 0.6306152343750, -2.1158447265625, 3.2895507812500, 1.9912109375000, 3.0728759765625, -0.9422607421875, 1.3905029296875, 2.7402343750000, -1.7570800781250, 2.1523437500000, -3.5603027343750, 1.0220947265625, -0.0002441406250, 3.9437255859375, -0.0001220703125, 0.0642089843750, -0.4581298828125, -1.0836181640625, -3.1236572265625, 0.5273437500000, -2.3955078125000, -0.0001220703125, 0.2381591796875, 3.3221435546875, 3.2171630859375, -1.5729980468750, -2.6533203125000, -3.7984619140625, 1.6505126953125, 1.0434570312500, 3.2048339843750, 3.2056884765625, 2.6837158203125, -0.6661376953125, -2.7994384765625, -0.2214355468750, -1.0726318359375, -0.0001220703125, -3.2496337890625, 3.2977294921875, 2.8150634765625, -3.0946044921875, 3.7451171875000, -0.7088623046875, 1.5184326171875, -0.6271972656250, 0.1031494140625, 0.1701660156250, -3.3187255859375, -0.7855224609375, -1.1531982421875, 3.3232421875000, 1.9904785156250, -0.7114257812500, 2.5742187500000, 0.4403076171875, 3.4436035156250, -1.3659667968750, 1.8361816406250, 0.4342041015625, 0.2114257812500, -2.6297607421875, -0.4892578125000, 3.1302490234375, 3.6850585937500, 0.2320556640625, -3.3055419921875, 1.6901855468750, 3.2326660156250, -2.4598388671875, 0.0000000000000, 2.9777832031250, 0.9040527343750, -2.4659423828125, -0.2609863281250, -3.1647949218750, -0.9197998046875, -0.2886962890625, -0.4645996093750, -0.5865478515625, -2.1882324218750, -1.5700683593750, 1.6668701171875, 0.0000000000000, 0.2863769531250, -1.7886962890625, 1.4051513671875, -2.3961181640625, 1.8979492187500, -0.2303466796875, 0.2628173828125, -2.1453857421875, 2.4865722656250, -1.7603759765625, -2.0329589843750, -0.8952636718750, 1.9313964843750, -0.2878417968750, 2.3004150390625, -2.1887207031250, 3.6968994140625, 2.1555175781250, -0.3868408203125, 2.1193847656250, -1.5656738281250, -0.4118652343750, 3.2829589843750, 1.5008544921875, -1.5808105468750, 0.9993896484375, 3.5690917968750, 1.2403564453125, 0.3839111328125, -2.7547607421875, -2.6429443359375, -0.2615966796875, -0.9041748046875, -1.7171630859375, 2.4366455078125, 1.2490234375000, -1.5177001953125, 2.0114746093750, 3.5903320312500, -0.8659667968750, 2.5333251953125, -0.0001220703125, 0.9989013671875, -2.3647460937500, 1.8739013671875, -2.5511474609375, 3.4401855468750, 3.5402832031250, 2.8193359375000, 0.4829101562500, 0.8004150390625, -0.4083251953125, -1.2247314453125, -1.8966064453125, -3.2763671875000, 1.8098144531250, -1.8942871093750, -2.5328369140625, 2.4019775390625, 3.1062011718750, -1.4691162109375, 1.5129394531250, 3.2513427734375, -2.6198730468750, -0.4036865234375, 3.2331542968750, 0.0000000000000, -2.3934326171875, -2.6480712890625, 2.2993164062500, 0.1086425781250, -0.0001220703125, 1.9571533203125, -3.7713623046875, -1.8638916015625, -0.6701660156250, 2.7440185546875, 2.0078125000000, 1.2242431640625, 0.7554931640625, -0.7480468750000, -3.4991455078125, 3.4505615234375, 1.6281738281250, -1.7408447265625, 0.0000000000000, 0.2231445312500, -2.3099365234375, -3.8536376953125, 0.4937744140625, 3.9998779296875, 0.1079101562500, 1.0655517578125, -2.1861572265625, 1.6206054687500, -1.7476806640625, -2.2744140625000, -1.2427978515625, -1.0035400390625, 0.0150146484375, -2.2741699218750, 1.2177734375000, 0.0000000000000, -2.1295166015625, 0.3770751953125, 1.7469482421875, 3.7767333984375, -1.5578613281250, 0.0429687500000, 2.6510009765625, -0.6713867187500, 1.7001953125000, 0.5135498046875, 0.7840576171875, 1.4069824218750, 1.3774414062500, 3.0189208984375, 2.7758789062500, 0.0000000000000, 0.0000000000000, 3.1617431640625, -2.9541015625000, -3.1912841796875, 0.0000000000000, 0.9929199218750, -2.9464111328125, 0.0001220703125, -0.3568115234375, 1.3548583984375, -2.9326171875000, 0.9370117187500, 0.0000000000000, 1.8236083984375, 2.4890136718750, 2.6163330078125, 0.4759521484375, -2.5045166015625, -2.2590332031250, -0.4322509765625, -1.0733642578125, 1.0368652343750, 0.0000000000000, 1.1676025390625, -2.8514404296875, -2.3845214843750, 1.6971435546875, -2.9343261718750, 0.6889648437500, 2.1116943359375, 0.1906738281250, 0.8972167968750, -0.2823486328125, -0.0001220703125, 1.4916992187500, -3.2426757812500, 2.0772705078125, -1.7978515625000, -0.7197265625000, 0.9189453125000, 2.7712402343750, 2.1877441406250, -3.0373535156250, -0.4091796875000, 1.2589111328125, 0.0000000000000, 0.1181640625000, -0.6993408203125, -1.2108154296875, 0.3435058593750, 0.0000000000000, 0.0000000000000, 0.0000000000000, 0.0000000000000, 1.1105957031250, -0.6770019531250, 1.2961425781250, 2.5231933593750, -2.9478759765625, 0.0000000000000, 0.0000000000000, 0.0000000000000, 0.0000000000000, 1.5568847656250, -1.7667236328125, -2.1802978515625, 0.6906738281250, 0.0001220703125, 0.0001220703125, -1.0867919921875, 1.7486572265625, -0.6446533203125, -2.9599609375000, 0.0000000000000, 2.6007080078125, 0.9969482421875, 0.7918701171875, 1.5625000000000, 0.0000000000000, -1.4880371093750, -0.9747314453125, -0.0001220703125, 0.0000000000000, -0.0043945312500, 0.0000000000000, 2.5513916015625, -0.0001220703125, -0.5714111328125, 1.9151611328125, -0.0322265625000, -1.7971191406250, 2.8736572265625, 2.5106201171875, 0.3057861328125, -2.7138671875000, 2.3010253906250, 0.0000000000000, 0.7158203125000, 1.4270019531250, 2.2756347656250, 0.6579589843750, 0.0000000000000, -0.0001220703125, -1.8900146484375, -0.0001220703125, -3.2349853515625, 1.2325439453125, -1.3508300781250, 3.0303955078125, 0.0000000000000, -0.8067626953125, 0.0000000000000, 1.3476562500000, -0.4543457031250, -0.7005615234375, 0.0000000000000, -0.3211669921875, -2.9406738281250, 0.0000000000000, -0.7026367187500, 0.8701171875000, -0.8894042968750, -2.1988525390625, 0.9809570312500, -3.0844726562500, 2.2169189453125, -0.0001220703125, 1.8336181640625, -0.4014892578125, -0.6032714843750, -1.3802490234375, -0.0177001953125, -0.0678710937500, 2.6394042968750, 2.2077636718750, -1.6823730468750, -0.8581542968750, 2.8312988281250, 0.0000000000000, 0.0001220703125, 2.4761962890625, -1.0457763671875, 1.4112548828125, 1.3688964843750, 0.0001220703125, -0.0001220703125, -0.3394775390625, 0.0228271484375, -1.0487060546875, 1.4943847656250, 2.9584960937500, -0.5277099609375, -2.3247070312500, -2.4454345703125, 0.0000000000000, 0.0000000000000, -2.2971191406250, -2.5960693359375, -1.6965332031250, -0.0001220703125, -2.7047119140625, -0.0001220703125, -1.4586181640625, 0.4864501953125, 2.7816162109375, -0.7155761718750, 0.2363281250000, -1.3535156250000, 2.3929443359375, 0.0000000000000, 2.2165527343750, -0.5590820312500, 0.0000000000000, 0.9957275390625, 0.6044921875000, 0.0000000000000, -1.1588134765625, 1.6062011718750, -0.4888916015625, 0.4197998046875, -3.1894531250000, -1.4375000000000, 0.3161621093750, -2.5012207031250, 2.5676269531250, 2.5850830078125, 2.7105712890625, 2.4943847656250, 0.0000000000000, 2.1031494140625, -1.3486328125000, -0.5743408203125, 3.2506103515625, 2.6142578125000, -1.4195556640625, 0.0000000000000, 2.8626708984375, -0.2679443359375, 0.0000000000000, -3.0518798828125, -2.8239746093750, 0.0000000000000, 0.1071777343750, -1.5000000000000, 2.2264404296875, 1.7559814453125, -1.8718261718750, 0.0000000000000, 2.5050048828125, -1.5012207031250, -2.1718750000000, 2.8255615234375, -1.4833984375000, -0.1296386718750, 2.6099853515625, -3.2490234375000, 0.0000000000000, -0.5582275390625, 0.0000000000000, 2.3612060546875, 1.5297851562500, 1.9414062500000, -2.8179931640625, -2.8751220703125, -3.1019287109375, 0.5423583984375, 0.0000000000000, -0.0001220703125, 1.3901367187500, 1.9006347656250, 0.0000000000000, 0.0000000000000, -2.4248046875000, -0.0001220703125, 1.4606933593750, 2.9333496093750, -1.7449951171875, 0.0000000000000, 0.0000000000000, -2.8983154296875, -1.1666259765625, 0.0000000000000, -2.4960937500000, 1.3286132812500, 0.0000000000000, 2.6926269531250, -1.2320556640625, 0.0000000000000, -0.6374511718750, 2.1495361328125, 0.0000000000000, 2.1839599609375, 0.1389160156250, 0.2232666015625, 0.8006591796875, -2.2816162109375, 0.0000000000000, 1.3004150390625, -0.0527343750000, -2.0307617187500, 2.7053222656250, -2.0456542968750, -2.3074951171875, -0.8826904296875, 0.6058349609375, 0.0000000000000, 2.8544921875000, -0.0001220703125, 2.4107666015625, -1.7041015625000, -0.1875000000000, 0.0000000000000, 0.0000000000000, 2.9046630859375, -0.3839111328125, 0.8259277343750, 2.4553222656250, 0.2756347656250, 2.6116943359375, -1.7343750000000, -2.2701416015625, -0.3692626953125, 1.2982177734375, -2.0413818359375, 2.3400878906250, -3.1558837890625, 0.0000000000000, -1.8605957031250, -1.6936035156250, -2.0064697265625, 1.3044433593750, 0.2814941406250, -0.0001220703125, -0.0438232421875, -3.2366943359375, 0.2871093750000, 3.0159912109375, -1.2298583984375, -2.5115966796875, -2.5330810546875, 3.2391357421875, 0.7104492187500, 2.0607910156250, 0.6188964843750, 0.0000000000000, -2.3051757812500, 0.0000000000000, -1.5605468750000, 1.6976318359375, 2.3649902343750, 2.9561767578125, 1.6851806640625, -1.0303955078125, 0.0001220703125, -0.2641601562500, 3.2561035156250, 1.0260009765625, -1.4975585937500, -0.9116210937500, 2.1188964843750, 2.8720703125000, -0.8111572265625, 0.0000000000000, 0.0385742187500, 3.0054931640625, -3.2021484375000, 0.3900146484375, 2.5875244140625, 0.0000000000000, -1.1801757812500, -2.7674560546875, -1.7292480468750, -0.6103515625000, 1.2226562500000, -1.1005859375000, 0.0000000000000, 2.6389160156250, 1.0495605468750, 0.1379394531250, -0.0001220703125, 3.1177978515625, -2.7850341796875, 1.1176757812500, 2.0299072265625, 0.6899414062500, -1.2940673828125, 2.3576660156250, 0.1479492187500, 2.5234375000000, 1.7879638671875, 0.6560058593750, -1.4193115234375, -2.9379882812500, 1.0522460937500, -2.7478027343750, 0.0000000000000, 1.8577880859375, 0.5198974609375, 1.2061767578125, 3.1485595703125, -0.1505126953125, 1.0008544921875, -0.9685058593750, -2.3238525390625, 0.0000000000000, 3.0596923828125, 1.2142333984375, 2.5938720703125, 1.4373779296875, -2.5578613281250, -0.7211914062500, 2.6218261718750, 0.0000000000000, 2.4079589843750, -0.0001220703125, 1.7672119140625, -0.4764404296875, -0.8170166015625, -2.8887939453125, -1.8446044921875, 1.0246582031250, -1.2742919921875, 0.0000000000000, 2.5947265625000, 0.0000000000000, 1.3964843750000, 0.0000000000000, 0.0000000000000, 0.0811767578125, 2.7448730468750, 0.0000000000000, 0.7437744140625, 1.8935546875000, -2.8260498046875, -0.2625732421875, 3.1097412109375, 1.7978515625000, 0.3656005859375, 1.3923339843750, -2.3934326171875, 0.0000000000000, 2.0109863281250, -1.0721435546875, 1.5729980468750, 0.0000000000000, -0.3530273437500, 0.3481445312500, -0.5549316406250, 2.3625488281250, -2.6888427734375, 0.0000000000000, 2.1944580078125, 0.0000000000000, -2.3052978515625, -1.0406494140625, -2.7469482421875, -1.8759765625000, -2.1357421875000, 0.9493408203125, 2.4903564453125, -1.1545410156250, 0.0000000000000, -0.3842773437500, 1.4327392578125, -2.8819580078125, -1.0223388671875, -0.5538330078125, 0.0000000000000, 1.6016845703125, 2.6557617187500, -3.2224121093750, 2.9382324218750, 1.7591552734375, -0.5546875000000, 0.4053955078125, 0.4768066406250, -1.3785400390625, 0.1077880859375, -2.9978027343750, 2.6896972656250, -2.5792236328125, 1.4899902343750, 0.0000000000000, -3.1845703125000, -3.0614013671875, 1.7717285156250, -1.7144775390625, -0.1126708984375, -0.0001220703125, 0.0000000000000, 2.7720947265625, 2.1899414062500, -0.0001220703125, -2.8477783203125, 1.1756591796875, 0.0000000000000, 3.0550537109375, 1.6816406250000, -1.7304687500000, -0.1141357421875, 0.0000000000000, 0.0000000000000, 0.0000000000000, -2.1115722656250, 0.0000000000000, -0.2279052734375, 0.0050048828125, 0.9570312500000, 0.0000000000000, 0.0001220703125, 0.0000000000000, 0.0000000000000, -0.4843750000000, -2.8245849609375, -1.7697753906250, -1.4237060546875, -3.0361328125000, -0.9344482421875, 0.0000000000000, -0.4154052734375, -2.3211669921875, 0.3435058593750, 0.0000000000000, 2.2218017578125, -2.0847167968750, -0.3541259765625, -3.0449218750000, -1.8907470703125, 1.8172607421875, -1.3546142578125, -2.0992431640625, 0.5589599609375, 0.7297363281250, 3.2415771484375, -1.0187988281250, 1.0236816406250, 0.2115478515625, 0.4287109375000, 0.0000000000000, -0.8952636718750, 1.2634277343750, -2.0800781250000, -3.0772705078125, -2.2263183593750, -1.3232421875000, -2.9254150390625, 2.8729248046875, 0.3516845703125, -2.7366943359375, 0.7895507812500, -2.4792480468750, 1.3514404296875, 0.0000000000000, -2.9398193359375, 0.0000000000000, -1.2479248046875, -1.9500732421875, 1.1560058593750, 0.9388427734375, -1.3114013671875, -1.2962646484375, -1.2379150390625, 3.5562744140625, -2.4494628906250, 2.5238037109375, -1.5346679687500, 1.3822021484375, -0.6738281250000, -2.4948730468750, 1.3917236328125, -1.6572265625000, -0.4461669921875, 0.3511962890625, -2.6970214843750, 3.0781250000000, -2.7784423828125, 2.5158691406250, -0.0972900390625, -3.6853027343750, 1.0909423828125, -3.1234130859375, -3.8869628906250, -0.1901855468750, 1.4371337890625, 1.5270996093750, 3.0310058593750, 1.2681884765625, -1.7532958984375, 2.6340332031250, -2.3481445312500, -1.7109375000000, 0.3309326171875, -1.1887207031250, -3.4998779296875, -3.4790039062500, 2.5656738281250, 1.1406250000000, 2.2562255859375, 3.0914306640625, -2.1966552734375, 2.3496093750000, -0.1802978515625, -0.3618164062500, 1.9091796875000, -2.2559814453125, 2.0954589843750, 1.6138916015625, 2.4145507812500, 0.4020996093750, -0.9989013671875, 2.6673583984375, 2.7086181640625, 2.8790283203125, 0.4346923828125, 0.7814941406250, 0.6929931640625, -3.3872070312500, -2.1901855468750, 2.1186523437500, -1.2991943359375, 1.4190673828125, 3.0767822265625, -1.1545410156250, 0.7012939453125, 2.7655029296875, 2.0747070312500, 0.8977050781250, 0.0024414062500, -0.3809814453125, -1.8125000000000, -3.0212402343750, 1.8554687500000, 1.6901855468750, -0.3516845703125, -1.4991455078125, 3.1009521484375, 1.3935546875000, -1.4571533203125, 0.2634277343750, 2.3391113281250, 2.6284179687500, -2.9240722656250, 3.3736572265625, 1.2015380859375, 1.2265625000000, -2.2850341796875, 0.6824951171875, 1.5971679687500, -0.9880371093750, -0.4997558593750, -0.4348144531250, -0.4461669921875, -2.3807373046875, 1.9001464843750, 2.2801513671875, 0.6628417968750, 0.0000000000000, -3.7385253906250, -0.3637695312500, 1.0084228515625, -2.8843994140625, -2.7503662109375, -1.9013671875000, 2.3446044921875, 0.3392333984375, 3.4187011718750, 3.3175048828125, -3.4534912109375, 2.3183593750000, -1.9683837890625, -0.7685546875000, 3.5042724609375, 3.0059814453125, 1.8969726562500, 0.0000000000000, 1.1472167968750, -3.1248779296875, 3.7679443359375, -0.3460693359375, 1.2788085937500, 2.8742675781250, 0.2999267578125, 0.4642333984375, -2.6827392578125, -1.3504638671875, -3.7181396484375, -1.4017333984375, -0.8284912109375, -1.3812255859375, 3.0238037109375, 0.0000000000000, 1.1064453125000, -0.7248535156250, 2.3601074218750, 3.5668945312500, 3.0551757812500, -1.1523437500000, 0.7493896484375, -0.5395507812500, -1.0994873046875, -3.4521484375000, -2.3414306640625, -2.1798095703125, 1.8812255859375, -1.8173828125000, 1.4857177734375, 0.6496582031250, 1.8863525390625, -0.8309326171875, -2.4632568359375, -1.6129150390625, -1.8360595703125, -0.7458496093750, -0.4902343750000, 3.2380371093750, 3.4143066406250, 0.9550781250000, 1.3724365234375, -2.1735839843750, 0.0012207031250, -1.1369628906250, 1.7366943359375, 0.3944091796875, 0.0000000000000, -2.0989990234375, 3.2060546875000, 2.7684326171875, 1.6372070312500, 2.3995361328125, -1.6138916015625, -3.5123291015625, 3.2098388671875, 3.7487792968750, -3.1115722656250, -2.4340820312500, -3.1304931640625, -0.0454101562500, 0.7265625000000, 2.7036132812500, 2.0007324218750, -0.9121093750000, 3.1593017578125, -0.6921386718750, -0.0510253906250, -0.7996826171875, -3.1893310546875, -0.4432373046875, 1.7695312500000, -0.1358642578125, 2.5445556640625, -1.6030273437500, -1.3654785156250, 2.1756591796875, -0.2141113281250, 0.2048339843750, -1.1640625000000, -2.1196289062500, 3.5490722656250, -2.5218505859375, -3.5640869140625, -3.4149169921875, -1.8211669921875, -2.7387695312500, 2.8696289062500, 3.2912597656250, 3.7796630859375, -0.5131835937500, 2.3469238281250, -1.2248535156250, -0.7445068359375, -2.2077636718750, 1.3469238281250, -3.5095214843750, -2.5036621093750, 0.0000000000000, 3.6749267578125, 1.7882080078125, 0.8609619140625, 2.8707275390625, -0.3878173828125, 0.0000000000000, -3.6842041015625, 1.7381591796875, -1.8479003906250, 3.9284667968750, -3.4974365234375, -2.7709960937500, 2.3753662109375, 0.1309814453125, 0.0938720703125, -2.4521484375000, -2.8718261718750, -0.1984863281250, -0.0374755859375, -1.3050537109375, 2.2125244140625, 2.4185791015625, -3.1405029296875, 1.2908935546875, 0.0000000000000, 2.6789550781250, -2.5048828125000, 2.2934570312500, 0.6147460937500, 1.9426269531250, 3.2491455078125, -1.8425292968750, -1.5004882812500, 1.5267333984375, -2.1126708984375, -3.0601806640625, -0.8713378906250, -3.5249023437500, -0.5913085937500, 1.8165283203125, -1.3813476562500, -3.2572021484375, -0.4718017578125, 0.0000000000000, 2.7706298828125, 2.3365478515625, 3.9614257812500, 0.6411132812500, 0.0859375000000, -3.5294189453125, -1.3020019531250, 1.0958251953125, -2.9503173828125, 0.0000000000000, 0.0000000000000, -1.8116455078125, -0.9404296875000, -1.3641357421875, 0.2183837890625, 1.8931884765625, -2.7966308593750, -2.1721191406250, -0.7386474609375, -0.3463134765625, 0.0930175781250, -2.1424560546875, 1.0875244140625, 2.7253417968750, -1.2908935546875, 0.5203857421875, 2.6281738281250, 0.0864257812500, 3.1936035156250, 2.6951904296875, -0.2613525390625, -1.0657958984375, 2.4356689453125, 0.0001220703125, 0.0416259765625, -0.4019775390625, 1.1623535156250, -1.0069580078125, -2.2595214843750, 2.7261962890625, -3.1545410156250, 0.2105712890625, -2.8352050781250, -2.5181884765625, 1.4677734375000, 0.0000000000000, 0.0000000000000, -3.2347412109375, 1.3447265625000, 0.0000000000000, 2.1242675781250, 0.0001220703125, -2.4678955078125, 2.0103759765625, -2.3084716796875, 2.3546142578125, 0.0000000000000, -3.1376953125000, 0.0000000000000, 2.9931640625000, -2.6286621093750, 0.0000000000000, 1.4157714843750, -0.5292968750000, -2.2014160156250, 0.9698486328125, -2.5810546875000, 0.0000000000000, 0.9548339843750, 1.0380859375000, -1.4575195312500, -2.8173828125000, 0.0000000000000, 0.0000000000000, -2.2080078125000, 0.0000000000000, -1.0804443359375, 0.0000000000000, 0.3253173828125, -0.4710693359375, 0.0000000000000, 3.1137695312500, 2.3695068359375, -0.3763427734375, 0.6219482421875, 0.0000000000000, 1.9197998046875, -3.2288818359375, -0.8615722656250, -3.1755371093750, -0.0001220703125, -1.0689697265625, 0.8146972656250, -0.1433105468750, 0.8055419921875, 3.0478515625000, 2.4672851562500, -1.5253906250000, 1.1844482421875, 0.4207763671875, -2.1076660156250, 0.8398437500000, 0.0000000000000, 2.4733886718750, 0.5769042968750, -1.8375244140625, -2.7429199218750, 1.9373779296875, 1.5009765625000, -2.3579101562500, -3.2207031250000, 1.1530761718750, 3.0661621093750, 0.7058105468750, 0.0001220703125, 1.7027587890625, 3.7628173828125, 1.1109619140625, -0.0026855468750, -1.3171386718750, -2.0493164062500, 2.7321777343750, 2.6101074218750, -0.7973632812500, -0.4921875000000, 1.3092041015625, 1.1361083984375, 3.9998779296875, -0.1502685546875, -0.4189453125000, 3.0172119140625, -0.4801025390625, -1.9169921875000, -2.6452636718750, 3.8530273437500, 0.0124511718750, 1.1793212890625, -3.0905761718750, 2.0930175781250, 1.0512695312500, -1.7465820312500, -2.6094970703125, -0.4229736328125, -0.0001220703125, 1.5770263671875, 2.5340576171875, 1.5642089843750, 2.0722656250000, -0.5256347656250, 0.8873291015625, -2.9670410156250, 0.0000000000000, 0.0000000000000, -1.5578613281250, 0.2940673828125, 0.0406494140625, -0.5587158203125, 0.0000000000000, -3.2147216796875, -0.8094482421875, 1.8248291015625, -2.0294189453125, -0.7703857421875, 1.1684570312500, -0.0219726562500, 2.2049560546875, 1.1014404296875, -3.3641357421875, 0.0000000000000, -3.2000732421875, 2.8895263671875, 1.7386474609375, 2.9084472656250, -0.2000732421875, -3.2795410156250, -2.1126708984375, -2.1049804687500, -1.0017089843750, 1.9356689453125, -1.6286621093750, 1.0052490234375, -1.4945068359375, 2.0554199218750, 1.0411376953125, -2.7260742187500, 2.5837402343750, -2.8841552734375, 1.2960205078125, 0.0000000000000, 0.1247558593750, -3.5488281250000, 2.9527587890625, 2.6259765625000, -1.7182617187500, -0.4677734375000, 0.0129394531250, 2.9672851562500, -3.3541259765625, 2.2708740234375, -1.0811767578125, 1.6701660156250, 0.4921875000000, 0.6871337890625, 0.0760498046875, -2.0860595703125, 1.4301757812500, -3.2492675781250, 0.0777587890625, -2.0614013671875, 2.4658203125000, 1.3714599609375, 1.2073974609375, 0.0000000000000, 0.9718017578125, 0.0000000000000, 1.5373535156250, 1.9403076171875, 2.2260742187500, 1.9312744140625, 1.9047851562500, -0.0001220703125, 0.6718750000000, -3.0108642578125, -1.4602050781250, -0.3051757812500, -1.9434814453125, -2.3431396484375, 1.8917236328125, -0.2147216796875, -0.2080078125000, -0.6546630859375, -2.0755615234375, 1.0487060546875, -0.2165527343750, -0.8677978515625, 0.0000000000000, 0.0000000000000, 3.2570800781250, -2.0566406250000, -3.0516357421875, 0.0000000000000, 2.6374511718750, 0.0531005859375, 0.0000000000000, 0.0000000000000, 0.0000000000000, -3.0261230468750, -3.1301269531250, -2.3627929687500, 1.9666748046875, -3.2547607421875, 0.6033935546875, 3.2127685546875, -1.4114990234375, 3.0457763671875, 0.5651855468750, 0.0000000000000, -1.3588867187500, -0.7069091796875, -2.1889648437500, 0.0000000000000, 3.1760253906250, -0.0001220703125, 2.6508789062500, -3.0267333984375, 2.6889648437500, -1.5825195312500, 1.2020263671875, 1.6795654296875, -2.5606689453125, 0.0000000000000, 0.3112792968750, 2.3634033203125, -2.7032470703125, 3.0496826171875, 0.0001220703125, 0.0000000000000, -1.7071533203125, 0.1729736328125, -2.8906250000000, -2.1702880859375, 3.1213378906250, 0.0000000000000, 0.0908203125000, 1.8242187500000, 0.0000000000000, 2.4516601562500, 1.7614746093750, 2.0723876953125, -2.7191162109375, 2.7102050781250, 0.6649169921875, -1.5931396484375, 0.5948486328125, 1.2578125000000, 1.5510253906250, 2.9719238281250, -0.0129394531250, 3.1568603515625, 0.5474853515625, -2.7537841796875, -3.2336425781250, 2.5715332031250, 1.8768310546875, 1.1629638671875, -0.7429199218750, 1.3422851562500, -1.6257324218750, 0.2808837890625, -2.9880371093750, 2.7777099609375, 0.0000000000000, 0.0000000000000, -2.9221191406250, 0.0000000000000, 0.4395751953125, -0.8707275390625, -2.1098632812500, -2.5313720703125, 2.5616455078125, 2.9093017578125, -0.4127197265625, -2.5343017578125, -1.1783447265625, -1.8385009765625, 1.4904785156250, -0.0130615234375, 1.8297119140625, 1.8303222656250, -1.7672119140625, 2.7402343750000, 2.9720458984375, 3.2360839843750, -0.3515625000000, 0.5312500000000, 2.3759765625000, 3.2020263671875, 0.0000000000000, 1.4559326171875, -2.6505126953125, -3.1386718750000, 2.2985839843750, -2.5351562500000, 0.9127197265625, -0.3927001953125, -2.0498046875000, 2.6632080078125, -0.8575439453125, 0.1905517578125, 1.6302490234375, -3.5555419921875, 0.0000000000000, -1.7581787109375, 2.9166259765625, -3.0369873046875, -1.8753662109375, 2.1077880859375, -0.8240966796875, -2.2482910156250, -2.9136962890625, -3.7226562500000, -2.3731689453125, -2.2348632812500, 0.0001220703125, 3.4191894531250, 2.4719238281250, -1.2723388671875, 1.7766113281250, 0.2038574218750, -0.5921630859375, -0.6831054687500, 0.0000000000000, -1.5930175781250, 2.7716064453125, -1.6274414062500, 3.5443115234375, -0.5506591796875, -1.1093750000000, 2.3781738281250, 2.8142089843750, -2.6202392578125, 3.4143066406250, 2.2872314453125, -1.3360595703125, 3.7769775390625, -1.1524658203125, -2.7308349609375, 0.0000000000000, -2.0050048828125, -3.3894042968750, 0.0383300781250, 1.5318603515625, -3.2434082031250, 1.1561279296875, 0.9443359375000, 1.9594726562500, 1.6568603515625, 3.2370605468750, -1.9243164062500, 0.6551513671875, 3.4666748046875, -2.9582519531250, 1.4141845703125, -3.7102050781250, 0.7290039062500, -1.3385009765625, 1.3265380859375, 1.5872802734375, 1.3120117187500, -0.5958251953125, -0.4527587890625, -2.3411865234375, 0.0000000000000, 2.5169677734375, -2.2698974609375, 2.7988281250000, -1.1702880859375, -3.0250244140625, -0.1534423828125, 0.6812744140625, 0.0000000000000, -2.1579589843750, -2.9930419921875, -1.0839843750000, -2.2263183593750, 0.1490478515625, 1.1528320312500, -3.1314697265625, 2.2468261718750, -0.0001220703125, 2.2807617187500, -1.0307617187500, -2.6518554687500, -1.8973388671875, -2.8446044921875, 0.0340576171875, 0.1529541015625, 0.8306884765625, -1.1240234375000, 0.0000000000000, -1.9937744140625, -0.2556152343750, -0.4501953125000, 0.5380859375000, -2.3334960937500, -0.0001220703125, -1.8704833984375, -2.2393798828125, -2.7906494140625, 1.6044921875000, -0.0196533203125, 0.0675048828125, -0.4329833984375, 0.0000000000000, 2.5423583984375, 0.0000000000000, 0.0000000000000, 0.0000000000000, 1.6978759765625, 1.3778076171875, -1.5955810546875, -2.3197021484375, -1.5277099609375, 1.7165527343750, -1.4663085937500, 2.5195312500000, 0.0000000000000, 2.9936523437500, 1.2097167968750, -0.9500732421875, 0.9858398437500, -1.7882080078125, -2.8054199218750, 0.0000000000000, -0.0341796875000, -0.9340820312500, -1.0520019531250, 0.0001220703125, -2.7301025390625, 1.8643798828125, 1.4592285156250, -2.4323730468750, -1.5220947265625, -1.9503173828125, 0.0000000000000, -2.0689697265625, -0.1657714843750, -1.1625976562500, 0.0878906250000, 0.0000000000000, 2.6821289062500, 0.1647949218750, -0.2335205078125, 0.3564453125000, 2.2904052734375, -2.7746582031250, 1.3043212890625, 0.0000000000000, 1.7585449218750, -0.6672363281250, -0.9158935546875, -0.4853515625000, 0.9620361328125, -2.4559326171875, 1.6837158203125, -0.0001220703125, 1.8845214843750, 2.4149169921875, -3.2012939453125, -2.0955810546875, 1.0103759765625, 0.0000000000000, -0.7526855468750, 2.7557373046875, 2.4398193359375, 2.6221923828125, 1.5133056640625, 2.0572509765625, 2.3106689453125, 2.0252685546875, -2.3464355468750, 1.5803222656250, -0.2668457031250, -1.3687744140625, 0.3767089843750, -2.2630615234375, 1.5520019531250, 1.0704345703125, 3.4207763671875, -2.2418212890625, 0.2110595703125, 1.2159423828125, -0.4156494140625, 2.9583740234375, 3.4902343750000, -1.6474609375000, 3.4385986328125, 3.0351562500000, 2.2282714843750, 0.7115478515625, -0.3572998046875, -0.8823242187500, 2.7590332031250, -1.3630371093750, 3.7192382812500, -1.3521728515625, 1.6680908203125, -1.3784179687500, -0.4853515625000, -2.8482666015625, -1.0014648437500, 1.6879882812500, 2.3800048828125, 3.3629150390625, 3.1140136718750, 2.6776123046875, 2.1252441406250, 0.6339111328125, -2.4323730468750, -0.4332275390625, -1.3353271484375, -3.6577148437500, -3.4182128906250, 0.0000000000000, 1.5544433593750, 3.0605468750000, 0.4080810546875, -2.8754882812500, -2.5273437500000, 2.1958007812500, -0.5601806640625, 2.2224121093750, 3.1384277343750, -0.2509765625000, -1.9791259765625, -2.7331542968750, -0.9167480468750, 2.3096923828125, -3.5120849609375, 3.9934082031250, -0.4385986328125, 0.5059814453125, 0.5383300781250, -0.9827880859375, 1.3863525390625, 2.4633789062500, 0.7083740234375, -1.9150390625000, 1.2574462890625, -0.4696044921875, 2.7912597656250, -0.8018798828125, -1.0529785156250, 3.6953125000000, 1.5333251953125, 2.7674560546875, -0.4307861328125, 3.9083251953125, -0.3072509765625, 0.9505615234375, -0.4272460937500, 1.7763671875000, -1.4531250000000, -0.8300781250000, -3.1654052734375, 3.7148437500000, 0.0000000000000, 1.0441894531250, 1.5968017578125, 1.3359375000000, -1.8271484375000, -3.1381835937500, 1.9293212890625, 0.0000000000000, 0.2567138671875, -1.3615722656250, 0.3632812500000, 0.0654296875000, -1.4460449218750, -0.7355957031250, 0.0000000000000, -2.9552001953125, -2.3692626953125, 0.0000000000000, 3.2501220703125, -2.2711181640625, 0.2683105468750, 0.0000000000000, -1.8759765625000, 2.9960937500000, 0.0001220703125, 0.0000000000000, 2.3880615234375, -2.5402832031250, 0.5825195312500, -3.1000976562500, -2.3406982421875, 0.4343261718750, 0.0000000000000, 2.4864501953125, 0.0001220703125, -2.5462646484375, 0.0000000000000, 1.1627197265625, -2.9414062500000, 2.1870117187500, 0.0001220703125, 1.9488525390625, 1.3052978515625, 2.9847412109375, -1.6479492187500, 2.2576904296875, 0.0000000000000, 1.6040039062500, 0.0000000000000, -2.6275634765625, 0.0000000000000, -1.8376464843750, 1.6142578125000, 2.7711181640625, -1.5412597656250, 1.1923828125000, 0.9572753906250, 2.1656494140625, -1.2152099609375, 0.0000000000000, 0.5964355468750, -2.5941162109375, -1.6027832031250, 2.0000000000000, 1.9620361328125, 0.0001220703125, 0.2238769531250, -0.9243164062500, 1.8835449218750, -2.7806396484375, -1.9293212890625, 2.4276123046875, 0.8624267578125, -0.6818847656250, 0.0000000000000, -1.1041259765625, 0.0000000000000, 1.0004882812500, 1.8995361328125, -1.4332275390625, 2.9696044921875, 1.7631835937500, -2.6679687500000, 0.0000000000000, 0.0001220703125, -1.6772460937500, 1.1375732421875, -1.0179443359375, -0.1536865234375, 3.2540283203125, 2.5440673828125, -1.4306640625000, 0.0000000000000, 0.0000000000000, -3.1514892578125, 1.1026611328125, -0.1499023437500, 0.9591064453125, -2.0854492187500, -2.3963623046875, 1.5457763671875, -0.5888671875000, -3.0792236328125, -2.2075195312500, 0.1112060546875, -2.3316650390625, -2.8695068359375, 1.2924804687500, -2.6425781250000, 1.4549560546875, 0.7537841796875, 0.0001220703125, -1.1447753906250, 2.1258544921875, 3.0168457031250, 2.5971679687500, 2.6763916015625, -3.0229492187500, -0.0161132812500, -0.7347412109375, -1.2607421875000, 2.0223388671875, -2.7286376953125, 0.1508789062500, -0.1394042968750, -1.5982666015625, -3.3471679687500, 0.0001220703125, -0.6232910156250, -3.0310058593750, -2.2066650390625, 0.0000000000000, 0.0677490234375, 0.8688964843750, -0.0944824218750, -0.6130371093750, -3.8515625000000, -0.8468017578125, -1.8155517578125, 2.4117431640625, -3.7377929687500, 3.0313720703125, 1.1166992187500, 0.0007324218750, 3.8886718750000, -0.0230712890625, -3.7738037109375, -0.0067138671875, -0.2816162109375, 1.3349609375000, 2.9301757812500, 2.4891357421875, -1.4592285156250, 1.8746337890625, -0.1383056640625, 1.6665039062500, 0.9154052734375, 0.0000000000000, -3.5406494140625, -3.2098388671875, -3.6457519531250, -0.9353027343750, 0.0000000000000, 1.2413330078125, 1.2371826171875, 0.0000000000000, 1.5843505859375, 3.2498779296875, 3.6900634765625, -2.9398193359375, -1.8692626953125, -2.7346191406250, -3.0638427734375, -0.7319335937500, 2.6536865234375, 0.5949707031250, -0.5429687500000, 1.8833007812500, 0.0000000000000, 1.0522460937500, -2.2430419921875, -1.4278564453125, -1.0842285156250, -2.4632568359375, -2.2230224609375, -1.6318359375000, 1.7785644531250, -3.4362792968750, -0.6462402343750, 1.5561523437500, -0.5856933593750, -0.4940185546875, -1.7500000000000, -2.3839111328125, 3.3134765625000, 3.2459716796875, -1.5537109375000, 2.7315673828125, -2.5640869140625, -0.5537109375000, -0.0001220703125, -2.0012207031250, 1.3430175781250, -1.9249267578125, -3.2575683593750, -1.7310791015625, -1.2706298828125, 1.2852783203125, -2.5194091796875, -2.8604736328125, 2.9927978515625, -1.5242919921875, 2.1997070312500, 2.7355957031250, -2.9506835937500, -2.6658935546875, -1.6151123046875, 1.4418945312500, -2.9018554687500, 2.1785888671875, -3.0469970703125, -1.8424072265625, -0.2382812500000, -0.4219970703125, 0.6075439453125, -0.8524169921875, 2.1362304687500, 1.9063720703125, 2.4455566406250, 0.1649169921875, -1.4124755859375, 2.4737548828125, 0.0000000000000, -3.1396484375000, 0.0045166015625, 0.0000000000000, -0.8845214843750, -1.9034423828125, 0.8392333984375, 1.5714111328125, 2.3570556640625, 0.0000000000000, 0.1408691406250, -0.6353759765625, 1.9447021484375, -2.8092041015625, -2.7291259765625, 0.2586669921875, 0.0000000000000, -2.3544921875000, -2.4793701171875, 1.5833740234375, 0.0000000000000, 1.5721435546875, 2.9956054687500, 0.0000000000000, -2.8666992187500, -1.5202636718750, -2.8803710937500, 1.6292724609375, -2.3050537109375, -0.3789062500000, -0.1999511718750, 2.8023681640625, -0.5815429687500, 1.5560302734375, 0.0000000000000, -0.7939453125000, -0.9943847656250, -0.2481689453125, 2.5161132812500, 0.0000000000000, 2.8222656250000, -1.2451171875000, 0.0000000000000, 1.9847412109375, 0.0001220703125, -1.3753662109375, -0.0001220703125, 0.5058593750000, 1.8323974609375, -1.5886230468750, -2.0908203125000, 1.3631591796875, -0.1353759765625, 0.8684082031250, 0.0000000000000, -1.8073730468750, -2.5538330078125, -1.5170898437500, 0.0000000000000, 0.0000000000000, 0.0000000000000, 1.8830566406250, -1.7073974609375, 0.0000000000000, 2.2404785156250, -3.2181396484375, 0.1378173828125, 1.8397216796875, 0.8698730468750, 1.8737792968750, -0.4801025390625, 0.3338623046875, 1.7520751953125, -2.8369140625000, 1.6956787109375, 2.1158447265625, -1.1192626953125, 3.4339599609375, -2.4414062500000, 2.0224609375000, 3.0749511718750, 1.2990722656250, -0.4924316406250, -2.0058593750000, -1.3520507812500, 0.1887207031250, 1.8679199218750, 1.9898681640625, -1.6840820312500, 1.1704101562500, -1.8994140625000, -0.7165527343750, -0.0014648437500, -1.1352539062500, 0.8261718750000, 0.0046386718750, -1.1350097656250, -1.7764892578125, 0.0001220703125, -2.5775146484375, 1.1707763671875, -0.1435546875000, 3.9998779296875, -1.6467285156250, -1.1829833984375, -3.3148193359375, -0.9396972656250, 3.7845458984375, 1.7385253906250, 2.4089355468750, 1.3419189453125, 2.2796630859375, 1.3319091796875, -2.0638427734375, -2.7504882812500, 1.5694580078125, -3.1237792968750, -2.1599121093750, 2.7310791015625, 1.5336914062500, 0.6102294921875, -1.7313232421875, -3.8272705078125, -3.1875000000000, 0.6594238281250, -0.1434326171875, -2.0032958984375, 2.9101562500000, -1.5736083984375, -2.0920410156250, -1.5683593750000, -1.1445312500000, -0.5935058593750, 1.5811767578125, -3.7176513671875, -2.5373535156250, 0.6166992187500, -3.9388427734375, -3.0006103515625, 3.5447998046875, 1.8229980468750, 1.6333007812500, 0.9705810546875, -3.6750488281250, -2.2244873046875, 1.0344238281250, 1.8319091796875, -0.0965576171875, 3.5382080078125, -2.0468750000000, 2.7696533203125, 0.9410400390625, 1.6800537109375, -1.4780273437500, 3.4622802734375, -2.5467529296875, 0.0000000000000, -0.6674804687500, -2.7712402343750, -0.1268310546875, 1.3465576171875, -2.3978271484375, -0.8131103515625, -2.0501708984375, -0.5183105468750, -3.2645263671875, -3.1932373046875, 3.1164550781250, -1.3671875000000, -3.2719726562500, 3.2359619140625, -0.6066894531250, 1.3845214843750, 3.3273925781250, -2.5842285156250, -0.0006103515625, 0.3006591796875, -3.7639160156250, -0.7312011718750, 2.2938232421875, 0.8129882812500, 1.1567382812500, 1.9079589843750, 0.4583740234375, -3.2128906250000, -3.0316162109375, 2.6359863281250, 2.3878173828125, -0.9406738281250, 0.5864257812500, 3.9183349609375, 3.0751953125000, 3.0755615234375, 3.4504394531250, -0.4294433593750, -1.0911865234375, -2.7703857421875, -2.1496582031250, -0.2871093750000, -0.0344238281250, -1.3242187500000, -0.8612060546875, 0.8852539062500, 2.0675048828125, -0.2810058593750, -0.0893554687500, 1.2485351562500, -0.6600341796875, 3.1214599609375, 1.6499023437500, 2.2767333984375, -1.9865722656250, -0.4110107421875, 2.4903564453125, 1.2724609375000, -2.5395507812500, 1.5261230468750, 0.0000000000000, -0.8004150390625, -3.3533935546875, 2.4318847656250, 0.5102539062500, -0.3013916015625, -0.7894287109375, 2.9715576171875, -0.6580810546875, 0.3027343750000, -1.5587158203125, 0.6477050781250, 3.2778320312500, 3.1357421875000, 3.1558837890625, 1.1433105468750, 2.4018554687500, -2.2116699218750, -0.0137939453125, 2.8388671875000, 0.3314208984375, 0.2895507812500, 0.8773193359375, -0.4974365234375, 2.1245117187500, 0.0000000000000, 0.6245117187500, -2.7570800781250, 1.0161132812500, 3.2911376953125, 1.7036132812500, 0.8956298828125, -1.4943847656250, -3.0734863281250, -1.2371826171875, 2.3544921875000, 3.1583251953125, -2.6777343750000, 2.1895751953125, 0.5963134765625, -1.8411865234375, 2.4163818359375, 0.1334228515625, 3.9998779296875, 2.6475830078125, 2.0512695312500, 0.0000000000000, 1.0534667968750, -1.6883544921875, -1.6574707031250, -1.1116943359375, -1.4871826171875, 2.5563964843750, 2.9036865234375, -0.2084960937500, -0.4257812500000, 1.5971679687500, 1.6727294921875, -0.9930419921875, -2.9948730468750, 2.6220703125000, 0.3127441406250, -1.9383544921875, 0.3377685546875, -0.0001220703125, 1.0839843750000, 0.6625976562500, -2.6702880859375, 3.0675048828125, 3.6293945312500, 1.1859130859375, 0.6091308593750, 