//Numpy array shape [100, 50]
//Min -0.189392089844
//Max 0.181793212891
//Number of zeros 232

#ifndef W8_H_
#define W8_H_

#ifndef __SYNTHESIS__
weight8_t w8[5000];
#else
weight8_t w8[5000] = {-3.7830810546875, -1.6337890625000, 1.1546630859375, -2.5344238281250, -1.0953369140625, 1.7291259765625, 1.2982177734375, 0.2218017578125, -3.9998779296875, 1.2653808593750, -3.2927246093750, 1.1750488281250, 0.1562500000000, 1.1019287109375, -1.5513916015625, -0.9777832031250, 1.4527587890625, -1.1862792968750, -0.6604003906250, 0.5382080078125, 1.7004394531250, 1.3161621093750, 1.9141845703125, -0.7613525390625, 2.4080810546875, 1.6632080078125, 1.2380371093750, -0.3742675781250, 0.3983154296875, 1.0732421875000, 0.6970214843750, 2.1816406250000, -2.1417236328125, 0.0000000000000, -2.3649902343750, 1.3562011718750, 0.0000000000000, 0.9212646484375, -0.3201904296875, 1.7475585937500, 3.0484619140625, 2.0153808593750, -0.1982421875000, -2.2620849609375, -1.0494384765625, 0.3125000000000, -0.2137451171875, 3.6143798828125, 0.2290039062500, 1.2175292968750, -1.3929443359375, 1.5751953125000, 0.5333251953125, 0.7644042968750, 0.0720214843750, -0.8353271484375, 2.1275634765625, 0.7159423828125, -0.2816162109375, -1.7448730468750, -3.9998779296875, 1.4814453125000, -2.6522216796875, -3.9998779296875, -0.1287841796875, 1.9196777343750, 0.2476806640625, 1.5384521484375, 0.7357177734375, 0.0284423828125, -2.5343017578125, 2.1248779296875, -0.9440917968750, 0.4686279296875, 0.1176757812500, -0.5599365234375, 0.1473388671875, 1.7897949218750, -0.0001220703125, 0.8972167968750, 1.3640136718750, -1.8533935546875, -3.3204345703125, 1.6722412109375, 0.8952636718750, 1.9354248046875, 1.6694335937500, 2.2568359375000, -0.7258300781250, -0.8424072265625, 2.1945800781250, -0.9722900390625, 0.0277099609375, 2.6060791015625, -1.2429199218750, 0.2216796875000, 1.3911132812500, -0.0981445312500, 1.1086425781250, 1.6641845703125, 0.1629638671875, -0.1689453125000, -1.7514648437500, -2.0351562500000, -1.4161376953125, 0.0000000000000, 0.2670898437500, -1.5670166015625, 2.8819580078125, -1.9244384765625, -0.2239990234375, -0.8177490234375, -1.9180908203125, -3.6646728515625, -1.4871826171875, 0.7331542968750, -1.4398193359375, -2.0937500000000, 0.0666503906250, -0.2972412109375, -0.9803466796875, -0.8687744140625, 0.0000000000000, 0.8775634765625, 3.9998779296875, -3.9998779296875, 0.0000000000000, 1.2158203125000, 0.5428466796875, 1.4749755859375, 2.2143554687500, 0.0000000000000, -3.9998779296875, 0.1325683593750, -0.9893798828125, 0.3192138671875, -0.0222167968750, -0.5264892578125, -0.1198730468750, 1.8341064453125, -1.5782470703125, 0.1762695312500, -1.5230712890625, 1.9593505859375, 0.6845703125000, 0.2677001953125, 2.1859130859375, 1.0426025390625, 1.8516845703125, -1.8797607421875, 3.9998779296875, -1.4282226562500, -2.2315673828125, 0.1127929687500, -0.2897949218750, 1.7071533203125, 1.9536132812500, 2.1492919921875, 1.1545410156250, -0.9338378906250, -3.9058837890625, 2.1463623046875, -1.3641357421875, -2.5561523437500, -1.6865234375000, -1.4016113281250, 1.1700439453125, 0.1824951171875, 0.8447265625000, -0.3079833984375, 1.9832763671875, 1.7310791015625, 2.2923583984375, -0.1181640625000, 3.9820556640625, 0.6246337890625, 0.3039550781250, -0.2375488281250, -0.6190185546875, -1.9560546875000, -1.8356933593750, -0.8265380859375, -1.5443115234375, -2.8248291015625, -1.0895996093750, 0.3795166015625, 3.9998779296875, 0.1351318359375, -0.6569824218750, -2.2130126953125, 1.2659912109375, -0.7148437500000, -2.0454101562500, -1.5795898437500, 1.3974609375000, 2.5510253906250, -0.8306884765625, 0.8979492187500, 2.0943603515625, 0.3339843750000, -3.9998779296875, -2.0386962890625, -0.9060058593750, 1.5385742187500, 1.4615478515625, 1.2916259765625, -0.7670898437500, 0.0063476562500, 3.7952880859375, -1.1436767578125, 2.8372802734375, -2.2637939453125, -0.3524169921875, -0.0001220703125, -0.8612060546875, 1.3082275390625, 1.0961914062500, 0.4158935546875, 0.2332763671875, 1.0559082031250, -1.8675537109375, -2.1660156250000, -1.0915527343750, 1.2352294921875, -0.2839355468750, 2.4663085937500, 0.4766845703125, -2.1490478515625, 3.4299316406250, 1.1752929687500, 0.4468994140625, 2.3262939453125, -3.6671142578125, 0.0000000000000, -1.6358642578125, -0.3021240234375, -1.7036132812500, -1.4343261718750, 2.4466552734375, -1.0069580078125, -2.7553710937500, -1.4544677734375, -1.2664794921875, 0.2408447265625, -1.7861328125000, 0.0466308593750, 0.0000000000000, 0.8530273437500, -0.5963134765625, 1.6146240234375, 0.2840576171875, 0.1165771484375, -1.6822509765625, -1.6030273437500, -0.0620117187500, 0.6011962890625, 0.2415771484375, 0.1544189453125, -0.3906250000000, -1.4361572265625, 2.6060791015625, -1.7154541015625, 1.2807617187500, 1.6478271484375, 0.8847656250000, 1.7542724609375, 1.6093750000000, -2.3828125000000, 2.0865478515625, 1.2498779296875, 1.9742431640625, 0.5115966796875, -1.1955566406250, 1.6907958984375, 0.0000000000000, 0.0000000000000, -1.9698486328125, -0.5677490234375, 1.1549072265625, 0.3518066406250, -0.0583496093750, 1.9306640625000, -2.0091552734375, 2.8519287109375, -0.4804687500000, -1.7857666015625, -2.7419433593750, 0.0000000000000, -1.8977050781250, -1.5184326171875, -3.5405273437500, 2.1837158203125, -1.2552490234375, -0.6091308593750, -0.4294433593750, 0.4818115234375, -2.9226074218750, 0.0000000000000, -1.0493164062500, 0.5648193359375, -2.5262451171875, -0.9891357421875, -0.9194335937500, -1.3013916015625, -1.1685791015625, 0.6754150390625, -0.7371826171875, -0.8736572265625, 2.0284423828125, 0.2312011718750, 0.0000000000000, -0.7000732421875, -1.5889892578125, -0.8115234375000, -0.6988525390625, -1.4682617187500, -1.8996582031250, -0.9836425781250, -1.2171630859375, -0.6044921875000, -2.6059570312500, 0.1225585937500, 0.3609619140625, 2.1658935546875, 1.5194091796875, 1.5657958984375, 0.0103759765625, 2.5737304687500, 3.9998779296875, 0.6389160156250, -1.1947021484375, 0.9376220703125, 0.1912841796875, 3.9998779296875, 0.5676269531250, 1.5808105468750, 1.5808105468750, -2.2347412109375, 0.6032714843750, 2.2552490234375, -0.0637207031250, 0.4283447265625, -0.9677734375000, -1.7590332031250, 2.0998535156250, 1.9033203125000, 0.0000000000000, 3.9998779296875, 0.9399414062500, 2.2465820312500, 2.5598144531250, -0.1656494140625, -1.0272216796875, 1.7722167968750, -1.7003173828125, -1.7580566406250, -0.5687255859375, 0.7739257812500, 3.9998779296875, -0.3939208984375, 0.0000000000000, 1.8919677734375, -2.4351806640625, 3.6877441406250, -0.2912597656250, -0.8659667968750, -0.5626220703125, 1.9589843750000, 0.0000000000000, 0.3819580078125, -0.3946533203125, -0.8005371093750, 0.8919677734375, -1.6206054687500, 3.7687988281250, -0.5592041015625, -1.4569091796875, 1.4007568359375, -0.8544921875000, -2.2779541015625, 0.9327392578125, 0.4875488281250, 1.8948974609375, 0.6679687500000, -2.3682861328125, 0.5070800781250, -1.3099365234375, 1.5163574218750, -1.4266357421875, -0.7017822265625, 1.7147216796875, -1.7647705078125, 2.1682128906250, -2.1927490234375, -1.4979248046875, 0.0000000000000, -2.3051757812500, -0.3662109375000, 1.1585693359375, 0.0000000000000, 3.9998779296875, 0.8991699218750, -1.6088867187500, 0.0549316406250, -0.5979003906250, -0.7540283203125, 1.3320312500000, 0.9786376953125, 3.4498291015625, 1.8647460937500, -3.9998779296875, -2.2111816406250, 2.4465332031250, -3.8477783203125, -0.9221191406250, -1.4848632812500, -1.9359130859375, -0.2966308593750, 2.4248046875000, 0.3486328125000, 1.5632324218750, 0.7440185546875, 0.2053222656250, 1.1770019531250, -2.2736816406250, -3.9998779296875, -1.6674804687500, -1.8963623046875, -0.5135498046875, -0.1791992187500, 0.4941406250000, 2.0214843750000, -3.9998779296875, 2.6070556640625, 1.6909179687500, 0.0083007812500, -3.9998779296875, 1.1860351562500, -2.1837158203125, -2.3896484375000, 0.6318359375000, -0.1190185546875, -1.3500976562500, -1.6730957031250, -0.0091552734375, -1.5910644531250, -3.8927001953125, 0.8397216796875, -0.1632080078125, -0.9573974609375, 3.9998779296875, 0.4388427734375, 1.2935791015625, 1.0578613281250, -0.7943115234375, -0.8043212890625, -2.2277832031250, 0.0000000000000, -3.9998779296875, -1.0953369140625, -3.2041015625000, -0.4885253906250, 0.1645507812500, 3.9998779296875, 1.5435791015625, 2.2187500000000, -0.3553466796875, 2.3856201171875, 0.7326660156250, 1.7353515625000, 0.2449951171875, 2.3105468750000, 0.1665039062500, 2.1788330078125, 3.9998779296875, -3.9998779296875, 2.1075439453125, 2.0461425781250, 3.9207763671875, 0.0000000000000, -0.9422607421875, 1.6621093750000, 3.8496093750000, -0.0001220703125, -0.3735351562500, 0.0000000000000, -0.4176025390625, 0.0000000000000, -1.6326904296875, -1.8536376953125, -1.6655273437500, 2.2852783203125, 0.0000000000000, 3.9998779296875, -2.2744140625000, -0.5028076171875, 2.3748779296875, 1.8233642578125, -1.4531250000000, -0.6666259765625, 2.7110595703125, 1.3669433593750, -1.8743896484375, 2.0975341796875, 0.9101562500000, 1.2406005859375, -2.1080322265625, -0.0306396484375, -0.1151123046875, 2.3009033203125, -1.9210205078125, -0.8985595703125, -2.1715087890625, -2.3161621093750, -0.0217285156250, -1.9715576171875, 0.0009765625000, 2.4272460937500, 2.5942382812500, 2.5366210937500, 2.2685546875000, -1.6593017578125, -0.1807861328125, 2.1171875000000, -2.7243652343750, -3.9998779296875, -2.8676757812500, -0.1104736328125, 0.6199951171875, 0.6705322265625, 1.0159912109375, 0.4134521484375, -3.9844970703125, 0.0000000000000, 2.8341064453125, -1.0607910156250, -3.8947753906250, -0.6926269531250, 1.4687500000000, -2.5623779296875, -0.6484375000000, -2.2307128906250, -1.9384765625000, -0.2150878906250, -0.0889892578125, 1.4962158203125, -3.9969482421875, -3.6623535156250, 1.3789062500000, -1.7430419921875, 2.1350097656250, -0.9086914062500, 0.2578125000000, 2.0483398437500, 0.7248535156250, 0.4412841796875, 1.9937744140625, 0.7991943359375, -3.9998779296875, -0.7344970703125, 1.1142578125000, 0.0000000000000, 2.0102539062500, -3.5516357421875, 0.0000000000000, -1.4594726562500, -1.7269287109375, -1.1711425781250, 0.0000000000000, 1.8450927734375, -2.4562988281250, 2.0024414062500, 1.3066406250000, 1.3597412109375, 3.9998779296875, -1.8784179687500, -1.9771728515625, -1.2396240234375, -1.6434326171875, -2.3597412109375, 2.2657470703125, 0.0000000000000, 3.9998779296875, 0.6044921875000, 2.0668945312500, -2.4854736328125, 1.0523681640625, 0.0000000000000, -0.0297851562500, 1.9522705078125, -3.9998779296875, 1.6611328125000, -2.2119140625000, 0.7686767578125, -2.0202636718750, -0.6923828125000, -0.4041748046875, -0.5474853515625, 0.0000000000000, -0.1583251953125, 2.9102783203125, -0.5725097656250, 0.2795410156250, 2.2950439453125, 2.7795410156250, -2.5942382812500, 0.1751708984375, 1.1398925781250, 3.9998779296875, -0.8281250000000, -2.7822265625000, 0.2908935546875, 0.6204833984375, -2.2111816406250, 1.5675048828125, -0.6975097656250, -1.0078125000000, -1.8590087890625, -0.0517578125000, -1.2657470703125, -0.7479248046875, -0.1788330078125, 0.1654052734375, -1.9388427734375, -3.9987792968750, 3.1818847656250, 1.3436279296875, 2.2459716796875, 0.0000000000000, -0.4627685546875, 1.4694824218750, -0.2567138671875, 0.7534179687500, -0.1820068359375, 1.6478271484375, 2.7199707031250, -0.2623291015625, -2.2293701171875, 1.0625000000000, 2.0394287109375, -1.6309814453125, 0.1557617187500, 0.1243896484375, 0.0000000000000, -1.2690429687500, -2.1864013671875, 1.8039550781250, 0.0000000000000, 0.2563476562500, 2.2938232421875, -3.1524658203125, 1.6805419921875, 1.5858154296875, -2.5635986328125, 0.4742431640625, 0.8365478515625, 2.3879394531250, 0.7770996093750, 0.5560302734375, 0.6978759765625, -1.0693359375000, 0.3510742187500, -0.0800781250000, -2.4254150390625, -1.7786865234375, 0.7211914062500, -2.5777587890625, 1.9655761718750, -1.1877441406250, -0.4134521484375, -2.3387451171875, -0.2346191406250, -1.3448486328125, -2.0434570312500, -3.2652587890625, -1.9631347656250, 1.1118164062500, 2.2695312500000, 3.2186279296875, -1.1164550781250, 2.2695312500000, 2.1209716796875, -3.9998779296875, -3.8663330078125, -1.9645996093750, 2.5786132812500, -3.9998779296875, 2.5310058593750, -1.4885253906250, -1.6101074218750, 3.5992431640625, -1.9204101562500, -0.7178955078125, -2.4138183593750, 2.3962402343750, -1.9923095703125, 3.9998779296875, -1.8485107421875, 1.8632812500000, -0.1489257812500, -1.9866943359375, 2.3995361328125, -0.0847167968750, 0.7581787109375, -1.7299804687500, -0.3065185546875, -1.7956542968750, 0.7781982421875, -0.6341552734375, -2.3342285156250, -2.7915039062500, -1.0666503906250, 1.9302978515625, -0.2127685546875, -2.0816650390625, 0.2066650390625, -0.9450683593750, 1.7103271484375, 0.4625244140625, -1.0510253906250, -0.9807128906250, 2.0441894531250, 0.1962890625000, -2.2110595703125, 1.7239990234375, -3.9998779296875, 0.0372314453125, -1.1325683593750, -3.9998779296875, -1.5357666015625, -0.7229003906250, -0.2038574218750, 0.0000000000000, 3.6042480468750, 1.9873046875000, -1.0446777343750, 2.8227539062500, -1.1419677734375, -1.5681152343750, -0.6154785156250, 3.9366455078125, -0.8918457031250, 0.2318115234375, 3.4355468750000, -2.1018066406250, 0.0001220703125, -1.2493896484375, 1.5543212890625, -2.0352783203125, 0.0000000000000, -2.1856689453125, -0.0632324218750, -2.0998535156250, -1.3192138671875, 1.5969238281250, 0.4592285156250, 1.9884033203125, -1.1464843750000, 3.4490966796875, -0.0418701171875, 0.0000000000000, -0.2773437500000, -0.8958740234375, 3.5187988281250, 1.7695312500000, 1.2297363281250, -1.8417968750000, -0.6014404296875, 1.8374023437500, 0.8942871093750, -0.2399902343750, 1.0223388671875, 0.9754638671875, 2.2486572265625, 3.9998779296875, -2.6938476562500, 2.8529052734375, 1.9620361328125, 3.8125000000000, -0.2370605468750, 2.0201416015625, 0.8878173828125, -0.7097167968750, 0.0000000000000, -3.0302734375000, -0.8177490234375, 1.9163818359375, -0.7810058593750, -2.9061279296875, 1.3741455078125, -3.9998779296875, -2.0865478515625, 0.7058105468750, 3.0979003906250, -1.7449951171875, 0.8220214843750, 2.6433105468750, 3.9998779296875, 0.8079833984375, 1.9132080078125, -2.5247802734375, 1.1394042968750, 1.8238525390625, -1.9074707031250, 1.5877685546875, -1.3707275390625, 2.0051269531250, 0.9545898437500, 3.9998779296875, 2.6958007812500, 3.9078369140625, -2.5689697265625, -2.1811523437500, -2.1478271484375, -2.5273437500000, 0.0003662109375, 2.3671875000000, -0.2642822265625, 0.9616699218750, 1.5244140625000, -0.6582031250000, -1.2154541015625, -1.8524169921875, 1.8425292968750, 3.9998779296875, 1.4074707031250, 1.3552246093750, -1.1530761718750, 2.4075927734375, 1.8569335937500, 0.2310791015625, 0.7005615234375, 0.0739746093750, -3.9998779296875, 1.0039062500000, 2.6751708984375, -2.6420898437500, -0.4649658203125, 2.3037109375000, -0.3420410156250, 0.0233154296875, 0.6251220703125, 1.6375732421875, -2.4648437500000, -1.8924560546875, -0.4333496093750, 3.9998779296875, 0.0000000000000, -1.4400634765625, -2.1209716796875, 3.9998779296875, 1.9837646484375, -0.2916259765625, 1.7304687500000, 1.3314208984375, 0.9827880859375, 1.4482421875000, 2.7303466796875, -1.1995849609375, 1.1759033203125, 3.9998779296875, -2.1912841796875, 1.6657714843750, 0.0000000000000, 2.3380126953125, -0.0001220703125, 0.1896972656250, 0.0457763671875, -1.0773925781250, -1.3710937500000, -1.6761474609375, -0.9741210937500, 1.3168945312500, 2.3437500000000, -1.3582763671875, -0.4409179687500, -0.4475097656250, -2.3565673828125, 0.9028320312500, -1.3807373046875, 0.3013916015625, 0.4079589843750, -3.9998779296875, 3.9998779296875, 0.7984619140625, 2.6156005859375, 0.9060058593750, 0.4665527343750, -0.9487304687500, 0.4289550781250, 3.9998779296875, 1.4300537109375, -2.2818603515625, 3.6882324218750, 0.8431396484375, -2.2198486328125, 3.9998779296875, 1.6600341796875, -2.5996093750000, 2.5761718750000, -3.0842285156250, -0.8551025390625, -1.0560302734375, -2.3182373046875, 0.4333496093750, -0.3986816406250, -1.9547119140625, 0.0000000000000, 1.5524902343750, -0.6027832031250, 0.0789794921875, 0.0000000000000, 0.9364013671875, -0.4765625000000, 1.2951660156250, 1.5806884765625, 1.2082519531250, -1.2795410156250, 1.8690185546875, -0.6873779296875, -2.2969970703125, -0.9302978515625, 1.2583007812500, 2.5382080078125, -0.3636474609375, 0.3493652343750, 0.0000000000000, 1.8786621093750, -2.7445068359375, -1.8011474609375, 0.4707031250000, 1.0119628906250, -2.4644775390625, -3.3516845703125, 0.0871582031250, -2.5186767578125, -3.9998779296875, 0.0000000000000, -2.4377441406250, -0.5687255859375, 3.9998779296875, -2.1779785156250, 2.0657958984375, 0.5333251953125, 1.4488525390625, -1.5321044921875, -1.9885253906250, 3.1322021484375, 1.2331542968750, 0.0000000000000, 2.9660644531250, 0.8096923828125, -0.9370117187500, 0.1219482421875, 2.0135498046875, -0.6010742187500, -1.2145996093750, 1.9810791015625, -2.7911376953125, 1.1335449218750, -3.9998779296875, 0.1390380859375, -0.4799804687500, -3.9998779296875, 2.5079345703125, -2.6156005859375, 0.2137451171875, -1.9364013671875, -1.4790039062500, 0.9017333984375, -1.8742675781250, 1.2408447265625, 0.3325195312500, -0.7691650390625, -2.5858154296875, -3.9998779296875, 1.9572753906250, 1.8189697265625, -1.2005615234375, 2.3802490234375, 1.5922851562500, -0.0495605468750, -3.4222412109375, 0.2512207031250, 1.9632568359375, 0.5377197265625, -3.2803955078125, -1.0146484375000, -2.0350341796875, -1.6768798828125, -3.9998779296875, 1.5112304687500, 1.7919921875000, -3.9998779296875, 2.1485595703125, 0.6303710937500, -0.8388671875000, 3.9998779296875, 0.4031982421875, 0.9179687500000, 2.8087158203125, -2.2824707031250, 2.6810302734375, 1.8173828125000, -1.8140869140625, -0.2307128906250, 1.9226074218750, 0.2398681640625, 2.1885986328125, 0.1397705078125, 1.3041992187500, -0.4567871093750, 1.6705322265625, 2.6403808593750, 2.5562744140625, 1.2557373046875, -0.5491943359375, -2.2159423828125, -0.8872070312500, 2.6950683593750, 1.6469726562500, -2.5609130859375, -0.5742187500000, 2.6654052734375, 0.9877929687500, -3.2308349609375, 0.7593994140625, 0.4500732421875, 0.0000000000000, -0.7481689453125, -0.2480468750000, -0.1314697265625, 2.5264892578125, 2.0699462890625, 2.0297851562500, 1.5865478515625, -0.7094726562500, 1.2254638671875, -1.6456298828125, 2.6667480468750, -3.9998779296875, 0.0661621093750, 0.9091796875000, 1.9473876953125, 2.2869873046875, -0.2951660156250, -2.3260498046875, 3.3200683593750, 1.1716308593750, -0.6037597656250, 3.8452148437500, 0.4844970703125, 1.3079833984375, -0.1762695312500, 2.2642822265625, -0.7899169921875, 2.1352539062500, 0.1937255859375, -3.9998779296875, 1.0373535156250, -0.0001220703125, 0.1048583984375, 0.0000000000000, -0.8253173828125, 1.4781494140625, -1.9927978515625, -0.5415039062500, 1.0583496093750, 0.0000000000000, -0.6632080078125, 1.5288085937500, 0.1544189453125, 1.6110839843750, 1.0394287109375, -0.2777099609375, 1.3806152343750, -1.0772705078125, -1.4210205078125, 0.0000000000000, -2.2563476562500, -0.3847656250000, 0.0000000000000, 0.1402587890625, 1.4476318359375, 0.0000000000000, -1.0310058593750, 0.6469726562500, -1.5371093750000, 1.7552490234375, 0.7775878906250, -1.1495361328125, -0.1475830078125, 0.8905029296875, 3.2199707031250, 1.0952148437500, 1.8980712890625, -2.5356445312500, -3.5838623046875, -1.3222656250000, 1.5938720703125, 2.3931884765625, 1.3234863281250, -2.9916992187500, 2.3066406250000, -0.9550781250000, -1.7534179687500, -1.8201904296875, 0.0878906250000, -3.0772705078125, 0.0222167968750, -1.5449218750000, 2.5902099609375, 1.6470947265625, 0.0000000000000, -0.3480224609375, -0.8239746093750, 0.1645507812500, -1.4544677734375, 2.5167236328125, -1.2023925781250, -2.3336181640625, -0.1335449218750, 2.0927734375000, 2.4084472656250, 3.9998779296875, 3.8338623046875, -1.8630371093750, 0.7015380859375, -0.3901367187500, -2.1981201171875, 0.5052490234375, 2.2299804687500, 3.9998779296875, 2.4631347656250, 1.8339843750000, -2.9626464843750, -0.6077880859375, -2.3880615234375, 2.3811035156250, 1.5803222656250, -0.8648681640625, -2.3183593750000, -0.7235107421875, -3.9998779296875, -2.0775146484375, -0.6009521484375, 0.0000000000000, -3.2789306640625, -1.8198242187500, 1.9741210937500, -0.4990234375000, 1.1730957031250, 0.6971435546875, 0.3283691406250, 1.9644775390625, -2.7126464843750, 0.9959716796875, 1.6574707031250, 3.9998779296875, -0.8372802734375, -1.3400878906250, -1.1928710937500, 0.0961914062500, -3.1336669921875, 0.7270507812500, -1.9666748046875, 2.4636230468750, -0.8243408203125, 2.5009765625000, -1.8857421875000, 1.8872070312500, 0.3922119140625, -1.9100341796875, 2.3919677734375, 1.3450927734375, 3.9998779296875, -1.2558593750000, 2.2534179687500, -2.3433837890625, -0.1407470703125, 1.0123291015625, -1.2004394531250, -1.2563476562500, -3.7786865234375, -1.3978271484375, 1.7756347656250, 1.5467529296875, 0.3829345703125, -0.3355712890625, 0.5915527343750, 2.4001464843750, 2.3503417968750, 0.7171630859375, 0.3668212890625, -1.8757324218750, 2.6370849609375, -2.3374023437500, 0.5509033203125, 2.1542968750000, 1.4378662109375, 1.7779541015625, -1.7805175781250, -2.1818847656250, -2.0126953125000, 1.0296630859375, 1.1859130859375, -0.6826171875000, -0.0568847656250, 2.1196289062500, -0.5444335937500, -3.1707763671875, -2.4489746093750, -1.6422119140625, -3.9998779296875, -0.0001220703125, -1.6418457031250, -1.5692138671875, -0.7501220703125, -0.9053955078125, -1.9034423828125, 0.2379150390625, -0.4378662109375, 1.7773437500000, 2.0318603515625, 0.0000000000000, 0.0001220703125, -1.1672363281250, 1.2153320312500, -3.5954589843750, -2.0999755859375, -1.0480957031250, 1.2233886718750, 3.9084472656250, 3.6448974609375, -1.1887207031250, 2.3652343750000, 1.4169921875000, 2.0069580078125, 1.4732666015625, 1.1134033203125, -3.9998779296875, -1.2397460937500, 0.0000000000000, 3.9998779296875, 2.0393066406250, 1.5364990234375, 0.2005615234375, 0.0000000000000, 1.1246337890625, -0.3511962890625, 1.5458984375000, 0.0000000000000, -1.8743896484375, -1.0520019531250, 0.1942138671875, -0.4636230468750, 2.1252441406250, -1.6165771484375, 1.7241210937500, 1.0769042968750, 3.2114257812500, 2.0401611328125, -1.5654296875000, -1.9641113281250, -1.1055908203125, -1.9036865234375, 0.7598876953125, -1.1882324218750, 2.0112304687500, 0.0000000000000, -1.0611572265625, -0.7839355468750, 0.4194335937500, -0.0004882812500, 3.2418212890625, -3.9998779296875, 0.2305908203125, 0.7565917968750, 1.6228027343750, 2.1940917968750, -0.2117919921875, 1.0310058593750, -0.0841064453125, -3.9998779296875, -1.1054687500000, -2.0975341796875, 1.0695800781250, -2.3900146484375, 1.2104492187500, -0.2728271484375, 0.0000000000000, 1.2816162109375, 0.0000000000000, -3.9998779296875, 1.4482421875000, -0.8912353515625, 0.3161621093750, -0.9671630859375, 0.0784912109375, 1.3488769531250, 0.0000000000000, -1.3511962890625, 1.4659423828125, -1.1589355468750, -0.8814697265625, 0.3699951171875, 2.6865234375000, 1.7080078125000, -3.9998779296875, 1.1013183593750, 0.0000000000000, -0.8144531250000, -0.9355468750000, -2.1943359375000, -0.2535400390625, -2.3057861328125, -1.3107910156250, -1.3411865234375, 0.8730468750000, 1.3964843750000, 1.1424560546875, -1.7751464843750, 1.1512451171875, -1.1274414062500, -1.7016601562500, -2.1846923828125, 1.9113769531250, 1.7839355468750, -2.1859130859375, 0.8609619140625, -2.0061035156250, 2.5490722656250, 1.5421142578125, 1.8758544921875, 1.8458251953125, 2.7397460937500, -2.8865966796875, 0.7241210937500, 2.4968261718750, -1.1781005859375, -1.5483398437500, 1.8395996093750, -2.1448974609375, 0.6651611328125, 2.2379150390625, -1.2449951171875, 2.3437500000000, 0.1268310546875, 2.7659912109375, -2.4758300781250, -1.3198242187500, 0.2778320312500, 2.2581787109375, -1.9829101562500, 0.5469970703125, -1.0913085937500, 0.7567138671875, 2.4039306640625, -3.1018066406250, 0.1444091796875, 1.2473144531250, 0.7661132812500, -2.0795898437500, -2.4334716796875, 0.7137451171875, 2.4406738281250, -2.3616943359375, -1.0645751953125, 0.7069091796875, 1.0546875000000, 0.4782714843750, 1.1140136718750, -1.2490234375000, 0.0000000000000, 2.1928710937500, 0.0000000000000, -1.0728759765625, 0.0000000000000, 1.7055664062500, 2.2917480468750, -0.7200927734375, -0.4234619140625, 1.6917724609375, -1.8831787109375, 0.8679199218750, 0.0000000000000, -2.5733642578125, -2.3446044921875, 0.0739746093750, -0.5483398437500, 0.0000000000000, -1.7271728515625, -1.8129882812500, 3.7290039062500, -2.4224853515625, 1.4005126953125, -0.7766113281250, -0.4509277343750, -0.4423828125000, 1.6066894531250, 0.8643798828125, 2.2187500000000, 2.2784423828125, 1.6342773437500, 1.1055908203125, -2.3912353515625, -0.1232910156250, -0.7197265625000, 3.9998779296875, -1.3847656250000, -3.9998779296875, 2.4531250000000, -1.9405517578125, 3.9998779296875, 1.9661865234375, -0.5314941406250, 0.6585693359375, 0.8847656250000, -2.3704833984375, -2.3023681640625, -1.5655517578125, 2.2773437500000, -0.0023193359375, -2.1579589843750, 1.3468017578125, -3.2469482421875, 0.9822998046875, 0.5552978515625, -1.2557373046875, -2.3874511718750, -0.0444335937500, 1.9194335937500, -3.1654052734375, 1.6419677734375, -1.8974609375000, 2.6635742187500, -3.9998779296875, -0.4011230468750, -2.4033203125000, 2.0211181640625, 0.8505859375000, -1.7874755859375, 2.4827880859375, 1.7210693359375, 1.2102050781250, 0.6444091796875, 0.0000000000000, -1.4656982421875, 2.6998291015625, -1.7614746093750, -3.9998779296875, -2.1253662109375, -0.2624511718750, 0.9407958984375, -0.6137695312500, -2.1774902343750, -0.7132568359375, -2.1992187500000, 1.0710449218750, 1.6524658203125, -3.9998779296875, 2.7154541015625, 1.5725097656250, -3.4069824218750, 0.0000000000000, -1.5004882812500, 1.0150146484375, -1.4997558593750, -0.4772949218750, -0.6718750000000, 1.8834228515625, 0.3651123046875, -0.5710449218750, -0.4168701171875, 3.9998779296875, 3.9998779296875, 0.6267089843750, -1.8691406250000, 0.7756347656250, 0.3334960937500, -2.0684814453125, -1.8763427734375, 1.3994140625000, -3.0086669921875, -1.3254394531250, 0.0485839843750, 3.4018554687500, 1.9034423828125, 0.5058593750000, -1.7211914062500, -0.8416748046875, 2.1463623046875, -1.2364501953125, -3.4282226562500, 2.0394287109375, 2.7889404296875, 0.0001220703125, -2.3402099609375, 1.5579833984375, 0.6462402343750, -0.1364746093750, -2.0891113281250, 0.0727539062500, -2.1638183593750, -0.0343017578125, 0.0118408203125, 2.8657226562500, -0.6322021484375, 2.4869384765625, 1.1953125000000, -3.9998779296875, -1.0911865234375, -1.4549560546875, -1.9464111328125, 0.5406494140625, 0.2816162109375, 1.6036376953125, 2.8785400390625, 1.7635498046875, 0.3717041015625, -2.8200683593750, -2.4731445312500, 1.7656250000000, 1.3946533203125, 3.9998779296875, 3.9154052734375, -0.9840087890625, -0.4821777343750, -3.9998779296875, 0.8837890625000, -0.0198974609375, 2.4670410156250, 3.9998779296875, 3.9998779296875, -0.0379638671875, 2.0056152343750, -0.0518798828125, -0.1282958984375, -0.9185791015625, 1.3106689453125, 2.2088623046875, -2.4324951171875, 1.0762939453125, 2.9873046875000, 1.5305175781250, 0.4052734375000, 0.0000000000000, 3.0969238281250, 1.6754150390625, -0.1859130859375, 0.0000000000000, -1.2545166015625, 2.0227050781250, 1.1856689453125, -2.2827148437500, -2.2312011718750, 0.2514648437500, 2.4044189453125, 0.0000000000000, 1.8028564453125, -0.9875488281250, 0.0001220703125, 1.3232421875000, 2.0422363281250, 0.6538085937500, -1.1488037109375, -0.3281250000000, -2.1154785156250, 1.8546142578125, -1.2457275390625, 2.4241943359375, -1.3309326171875, 2.4439697265625, -0.4818115234375, -3.0032958984375, 3.9429931640625, 1.3623046875000, 0.4676513671875, 0.0000000000000, 1.2982177734375, 0.9710693359375, -2.3626708984375, 3.3760986328125, 1.8205566406250, -1.1972656250000, 0.4572753906250, 2.0211181640625, 1.2239990234375, -1.0295410156250, 0.8848876953125, 0.0000000000000, -2.2923583984375, 0.0000000000000, 2.8541259765625, -2.2935791015625, -0.9229736328125, -3.9998779296875, -1.9843750000000, 2.2550048828125, 2.0965576171875, -0.2989501953125, -0.0772705078125, -1.5124511718750, 1.2413330078125, 2.2341308593750, -1.3485107421875, 0.7764892578125, -1.3159179687500, -0.5933837890625, -2.4746093750000, 3.0854492187500, -0.0869140625000, 0.1866455078125, 1.8898925781250, -0.9997558593750, -1.7215576171875, 1.3996582031250, 2.5581054687500, -0.0654296875000, -1.1092529296875, 0.7821044921875, -2.4093017578125, 2.0299072265625, -2.6147460937500, -3.9998779296875, -1.8481445312500, 0.9798583984375, 0.2379150390625, -2.1306152343750, 1.7080078125000, 0.8026123046875, -1.6098632812500, -3.9998779296875, -2.6292724609375, 2.3367919921875, -2.5336914062500, -3.9998779296875, 2.1403808593750, 1.8475341796875, 2.3571777343750, -3.5858154296875, -2.7241210937500, 2.4285888671875, -0.4299316406250, -2.1899414062500, 0.9831542968750, -3.9998779296875, 0.0001220703125, 0.0484619140625, -0.7286376953125, -1.0686035156250, -1.7723388671875, -2.3061523437500, -2.4514160156250, -0.6379394531250, -2.1450195312500, -1.6165771484375, -1.4470214843750, -3.4591064453125, -0.6865234375000, 0.0000000000000, -1.9136962890625, 0.3419189453125, -1.7575683593750, 0.6892089843750, 1.3377685546875, 1.1888427734375, 0.5803222656250, -2.4197998046875, 0.0886230468750, -0.6009521484375, 2.2656250000000, -0.5017089843750, -1.8675537109375, -3.9998779296875, 2.5043945312500, 1.3647460937500, 1.5390625000000, -3.9998779296875, -2.1622314453125, -2.1340332031250, -1.7961425781250, -1.3792724609375, -0.0297851562500, -2.5841064453125, -0.1121826171875, -0.5333251953125, 0.9908447265625, 1.0208740234375, -1.5499267578125, -0.8854980468750, -1.0838623046875, 2.5527343750000, -3.9998779296875, 2.4449462890625, -2.3747558593750, 0.0113525390625, 0.0000000000000, -2.3383789062500, 2.1860351562500, 2.4653320312500, 2.5559082031250, 2.2254638671875, -1.9672851562500, 0.3125000000000, 0.3448486328125, 2.5994873046875, -2.1204833984375, -2.5957031250000, -1.7333984375000, 3.1307373046875, -2.2482910156250, 0.1345214843750, -1.6024169921875, -2.6760253906250, -0.6558837890625, 2.5903320312500, 2.6884765625000, 0.5422363281250, 2.0418701171875, -1.7523193359375, -2.6679687500000, 0.6732177734375, -2.4340820312500, 1.8483886718750, 3.9998779296875, -1.3559570312500, -0.4562988281250, -2.6455078125000, 2.4718017578125, 1.6414794921875, -0.0622558593750, 3.7124023437500, -3.9998779296875, -1.9913330078125, 2.3472900390625, 2.4285888671875, -1.4608154296875, 2.0650634765625, -0.6854248046875, -1.7847900390625, -2.2438964843750, -1.7235107421875, -1.4945068359375, 2.2390136718750, 1.5718994140625, 0.6123046875000, 2.7010498046875, -2.2770996093750, 1.8693847656250, 2.0163574218750, -1.5429687500000, -0.7757568359375, 0.4287109375000, -0.6008300781250, -2.2661132812500, -2.5462646484375, -1.0938720703125, 2.0114746093750, 1.3988037109375, -3.9998779296875, -2.1199951171875, -2.5698242187500, -0.4879150390625, -2.1450195312500, 2.6760253906250, 2.5356445312500, 0.1057128906250, -2.7368164062500, 0.2401123046875, -0.9526367187500, 2.2159423828125, -1.2487792968750, -2.4577636718750, 3.9998779296875, 0.5346679687500, 0.0361328125000, 1.2476806640625, -3.8591308593750, 2.2489013671875, 1.8166503906250, -1.8883056640625, 0.5063476562500, -3.8807373046875, 2.0207519531250, 1.2221679687500, 0.0000000000000, 1.5120849609375, 1.5904541015625, 1.2801513671875, -2.1187744140625, 2.6325683593750, 0.6237792968750, -3.6776123046875, -0.9630126953125, 0.0937500000000, -0.0001220703125, 1.0590820312500, -2.2437744140625, 1.1961669921875, -3.5163574218750, -0.8248291015625, -0.6910400390625, -0.8062744140625, -1.1317138671875, 2.6766357421875, -0.1628417968750, -0.0744628906250, -3.9998779296875, -1.9428710937500, 1.2287597656250, -0.7479248046875, -0.6127929687500, 1.9703369140625, 0.4240722656250, -0.3310546875000, 0.6052246093750, -1.5533447265625, 1.0834960937500, -2.4177246093750, 1.0715332031250, -1.1552734375000, -0.5664062500000, -1.5245361328125, -1.7523193359375, -2.8310546875000, -0.9462890625000, -1.9455566406250, -3.9998779296875, 0.1872558593750, -0.0859375000000, -0.1539306640625, -1.2885742187500, -1.0854492187500, 2.4368896484375, -2.0499267578125, -2.1707763671875, -1.3367919921875, 0.0788574218750, -0.3507080078125, -1.6093750000000, -0.4486083984375, 1.0991210937500, -1.6948242187500, -1.7810058593750, 1.1966552734375, 0.0000000000000, -0.8149414062500, 0.0931396484375, 1.3785400390625, 0.5572509765625, 1.7965087890625, 1.8137207031250, 1.0983886718750, 0.0002441406250, -0.6389160156250, -0.1782226562500, 1.3839111328125, -0.5426025390625, 2.0192871093750, -3.9998779296875, 1.2369384765625, -1.8155517578125, -0.2841796875000, 0.0001220703125, 2.2746582031250, -2.2697753906250, -1.6413574218750, -2.5195312500000, -1.6384277343750, 0.0000000000000, 0.1789550781250, 0.0610351562500, 0.4952392578125, -0.0001220703125, -3.9373779296875, 0.8697509765625, -2.1374511718750, 3.9998779296875, -1.0987548828125, -0.2686767578125, -1.9387207031250, -0.3992919921875, -2.4376220703125, 1.6171875000000, 0.3571777343750, -0.3511962890625, -2.1258544921875, -0.8243408203125, 0.0000000000000, 3.9998779296875, -0.3690185546875, -2.1425781250000, 0.5451660156250, 0.3146972656250, 1.9401855468750, -1.0565185546875, 1.2204589843750, 0.5976562500000, -1.6094970703125, 1.1824951171875, -2.0014648437500, -0.2443847656250, 0.9887695312500, 2.7639160156250, 0.1550292968750, 0.6524658203125, -2.7375488281250, 2.6617431640625, -1.6745605468750, 0.3046875000000, -0.0128173828125, -0.1762695312500, 3.7537841796875, 0.5155029296875, 0.0911865234375, -1.8168945312500, 0.6718750000000, 0.4916992187500, 1.0021972656250, 2.6494140625000, -0.2764892578125, -0.3292236328125, 2.3168945312500, -2.1268310546875, 3.7691650390625, -2.2440185546875, -2.4223632812500, 1.1220703125000, 0.7646484375000, 0.1892089843750, 2.2885742187500, 0.0000000000000, 2.5964355468750, -2.6402587890625, -2.3228759765625, 2.9284667968750, -2.2495117187500, -2.5740966796875, -2.0257568359375, 3.0943603515625, -1.5166015625000, -1.9162597656250, -0.2929687500000, 1.0021972656250, -1.8588867187500, 3.9998779296875, 0.0000000000000, 0.1474609375000, 1.8569335937500, 3.5858154296875, -1.3721923828125, -0.3305664062500, 0.0000000000000, -0.5916748046875, 0.0000000000000, 0.1214599609375, -1.1553955078125, -3.2187500000000, 0.0000000000000, -0.8186035156250, -0.5618896484375, 0.5158691406250, 1.9832763671875, 0.5457763671875, 1.8966064453125, 1.4322509765625, -0.1578369140625, -0.0281982421875, -0.8253173828125, -0.6588134765625, 0.9945068359375, 2.1903076171875, -0.5441894531250, -2.8413085937500, 1.2967529296875, -0.2208251953125, -2.3220214843750, -3.5903320312500, -1.6798095703125, 1.6459960937500, 1.8658447265625, -0.0001220703125, 1.3118896484375, -0.5213623046875, -1.4901123046875, 2.4727783203125, -1.6921386718750, 0.5733642578125, 0.0000000000000, 0.1374511718750, -0.1770019531250, -2.0406494140625, 0.0098876953125, 2.0820312500000, -0.1237792968750, 0.7103271484375, 3.3175048828125, 1.8000488281250, 2.1502685546875, 0.0000000000000, -2.2214355468750, 1.6896972656250, -0.6838378906250, -2.2451171875000, -0.2769775390625, 2.7263183593750, 0.3332519531250, 3.9998779296875, -0.9083251953125, -3.9998779296875, 0.0002441406250, 0.4251708984375, 2.3771972656250, 1.3076171875000, -0.5977783203125, -0.5316162109375, 0.0561523437500, -0.5860595703125, 2.0122070312500, 2.5955810546875, 0.1495361328125, -2.3356933593750, -2.2875976562500, 2.4901123046875, -1.2209472656250, -2.5211181640625, -0.4992675781250, 0.1060791015625, -0.2598876953125, -1.4816894531250, -1.6556396484375, 3.2655029296875, 1.8522949218750, -2.3184814453125, -1.3974609375000, -3.9998779296875, 0.9296875000000, -2.6872558593750, -0.3787841796875, 3.7479248046875, -0.6158447265625, -1.4027099609375, 1.0319824218750, -1.4180908203125, 2.1088867187500, 0.0000000000000, 2.9765625000000, 1.3342285156250, -1.3015136718750, -3.8348388671875, -2.0664062500000, -2.0684814453125, 2.0368652343750, 0.8956298828125, -1.2641601562500, -0.8189697265625, -1.6594238281250, -3.9998779296875, -0.9210205078125, 2.2535400390625, 0.0020751953125, 1.3823242187500, 3.1839599609375, -1.3100585937500, -0.5070800781250, -2.6738281250000, 0.6464843750000, 2.6000976562500, -1.2043457031250, -1.2414550781250, 2.4655761718750, -1.6562500000000, 1.0201416015625, -0.5614013671875, 1.0300292968750, 0.0754394531250, 0.7947998046875, -3.7139892578125, -1.0501708984375, -1.7393798828125, -0.2558593750000, 0.0097656250000, 2.7901611328125, 2.1706542968750, 0.5234375000000, 0.4822998046875, 1.4394531250000, 1.5875244140625, 2.7332763671875, -0.0290527343750, 2.4470214843750, 2.2282714843750, 0.8549804687500, 2.5139160156250, -2.2901611328125, -0.3770751953125, -2.1530761718750, -0.8732910156250, -2.1376953125000, 2.3901367187500, 2.2434082031250, 1.1376953125000, 1.7298583984375, 2.1348876953125, -0.3153076171875, 1.2475585937500, -0.5834960937500, -2.3438720703125, 2.0323486328125, -3.5943603515625, 2.4860839843750, 1.8454589843750, 3.2813720703125, 1.5440673828125, 2.5145263671875, 2.1718750000000, -2.1807861328125, 1.9608154296875, 1.6636962890625, 0.1479492187500, -0.1036376953125, 1.9584960937500, 0.7309570312500, 2.9155273437500, -1.7783203125000, 0.3897705078125, 1.9036865234375, -3.1018066406250, -1.2813720703125, -1.2847900390625, 0.5678710937500, -3.9998779296875, -2.4444580078125, -0.5017089843750, 0.3576660156250, -1.1625976562500, -2.0957031250000, 1.3885498046875, -0.2412109375000, -0.5736083984375, 1.2742919921875, -1.3509521484375, -1.2989501953125, 0.9071044921875, -2.0697021484375, -3.9998779296875, 2.1875000000000, -2.4614257812500, -1.7802734375000, -2.4833984375000, 1.4974365234375, 0.2896728515625, -1.8017578125000, -0.0490722656250, -1.7370605468750, -1.9741210937500, -0.2204589843750, 0.4912109375000, -1.9459228515625, 0.4691162109375, -0.6033935546875, 0.0000000000000, 1.4250488281250, -0.1843261718750, 1.5472412109375, -1.0776367187500, 1.9741210937500, 0.9329833984375, -0.0245361328125, 0.4769287109375, 0.5295410156250, 0.0000000000000, 0.2316894531250, -3.9998779296875, -1.6412353515625, -1.4533691406250, -0.6649169921875, 0.6358642578125, 0.0511474609375, 0.0000000000000, 0.1116943359375, 3.9998779296875, 0.8425292968750, 0.0000000000000, 1.0606689453125, 3.9998779296875, -1.0841064453125, -0.9936523437500, 0.0000000000000, 3.9998779296875, 1.3730468750000, 2.2170410156250, -2.4565429687500, -1.1374511718750, 0.5327148437500, 3.7022705078125, 0.5539550781250, 0.0000000000000, -1.4155273437500, 0.0000000000000, 2.3056640625000, 0.0217285156250, -2.4293212890625, 0.9948730468750, -1.1723632812500, 2.5083007812500, -1.9020996093750, -3.1445312500000, 0.0047607421875, 3.5728759765625, -2.1619873046875, -0.1567382812500, -3.9998779296875, -0.5640869140625, 0.0000000000000, -1.6295166015625, -1.5804443359375, -1.9719238281250, -1.9296875000000, -0.2390136718750, -2.6406250000000, -2.4467773437500, -0.0548095703125, 0.0000000000000, 0.0000000000000, 2.1313476562500, -1.0683593750000, 3.9998779296875, 1.7786865234375, -0.8201904296875, 2.6469726562500, 2.0402832031250, -3.2379150390625, 1.7352294921875, 1.7380371093750, 3.9998779296875, -1.4221191406250, 1.6882324218750, 1.8735351562500, -1.3526611328125, -2.7193603515625, -1.7382812500000, 3.9998779296875, 0.7879638671875, 0.5699462890625, -3.9998779296875, -0.0435791015625, 1.7469482421875, -0.7502441406250, -1.3704833984375, 1.2990722656250, -0.9718017578125, -1.4748535156250, -1.6912841796875, -0.8029785156250, -0.8637695312500, 1.0697021484375, 3.9998779296875, -1.1439208984375, -3.2592773437500, -2.6735839843750, 1.7265625000000, -1.3913574218750, -1.1273193359375, 1.5555419921875, -1.2727050781250, -1.8889160156250, 2.5650634765625, -1.4278564453125, 1.7966308593750, -0.3677978515625, -0.6446533203125, 1.3812255859375, -2.3618164062500, 3.2080078125000, 0.3806152343750, -0.3989257812500, 3.6372070312500, 1.2873535156250, 2.6853027343750, 1.1206054687500, 3.4918212890625, -3.0756835937500, -1.3576660156250, 2.3173828125000, -3.4141845703125, 1.2517089843750, 2.3927001953125, 2.3243408203125, -2.0498046875000, -0.9836425781250, -0.1081542968750, 3.8895263671875, 2.2492675781250, 0.2777099609375, 1.7398681640625, 0.8227539062500, 1.5162353515625, -1.8527832031250, -2.9993896484375, 2.6329345703125, 0.2719726562500, -2.0582275390625, 0.4299316406250, -2.0386962890625, -2.4417724609375, 1.7926025390625, -3.3109130859375, 0.3272705078125, 2.7811279296875, -0.7045898437500, 0.2762451171875, 2.6214599609375, 1.9545898437500, 1.2518310546875, -1.3144531250000, 1.5595703125000, -1.0593261718750, 0.1118164062500, 1.1320800781250, -2.5316162109375, -1.2221679687500, 0.4121093750000, 1.8409423828125, 3.6573486328125, -1.7087402343750, 1.0102539062500, 1.9622802734375, -0.0887451171875, -0.8697509765625, -0.4580078125000, 2.8596191406250, -3.7016601562500, 2.3763427734375, -0.0616455078125, -2.4211425781250, -2.2792968750000, -0.6690673828125, 1.8385009765625, -3.9998779296875, -2.2069091796875, 0.0729980468750, 0.9727783203125, 0.3580322265625, -2.8216552734375, 1.5715332031250, -1.9002685546875, -2.0938720703125, -2.6248779296875, 1.1228027343750, -1.8256835937500, -2.4741210937500, 2.2374267578125, 2.2723388671875, 2.6826171875000, -1.0047607421875, -1.7391357421875, -3.9998779296875, -1.0354003906250, 3.6092529296875, -0.4990234375000, 2.2446289062500, -3.8923339843750, 2.6840820312500, -1.8338623046875, -1.3182373046875, 0.0473632812500, 0.9591064453125, -1.7720947265625, 2.4615478515625, -1.3612060546875, 1.1473388671875, -0.1119384765625, 0.0000000000000, -0.4624023437500, -0.0992431640625, -0.1890869140625, 0.5559082031250, 0.3912353515625, 1.5739746093750, -1.8214111328125, 3.9998779296875, 0.4987792968750, -1.2613525390625, -2.5244140625000, -1.9750976562500, 1.4326171875000, 1.9798583984375, -2.3688964843750, 0.6396484375000, -1.3858642578125, 1.0871582031250, -3.9998779296875, -2.5549316406250, 2.1207275390625, -0.8802490234375, -0.8055419921875, 1.3616943359375, 2.1060791015625, -1.3585205078125, 2.8338623046875, -1.9569091796875, -1.3378906250000, -2.2077636718750, 1.7290039062500, 0.6552734375000, 2.7307128906250, 3.2274169921875, 0.3496093750000, -2.5684814453125, 0.4881591796875, 1.2867431640625, 3.2291259765625, 2.3581542968750, 0.4458007812500, -1.8354492187500, 1.8046875000000, -0.2882080078125, 0.1860351562500, 2.7170410156250, -2.1357421875000, 0.8762207031250, -1.1811523437500, -1.4405517578125, -1.5809326171875, -1.4923095703125, -0.0725097656250, -1.6081542968750, 2.7518310546875, -1.9565429687500, -0.9227294921875, 3.2000732421875, -1.4860839843750, 1.6571044921875, -2.3593750000000, -3.4964599609375, 0.2775878906250, 1.3740234375000, 1.3780517578125, 0.3101806640625, 1.5856933593750, -1.5913085937500, 2.6767578125000, -2.3297119140625, 0.2282714843750, 1.7215576171875, -3.1520996093750, -0.9243164062500, -1.5301513671875, 0.0000000000000, 0.5600585937500, -1.0855712890625, -0.9821777343750, -0.4541015625000, -1.6401367187500, -2.1481933593750, -0.9003906250000, -0.7021484375000, 1.8720703125000, 0.0441894531250, -0.6489257812500, 1.8909912109375, 3.5070800781250, -1.9750976562500, -1.0493164062500, 2.2525634765625, 1.7207031250000, 2.1130371093750, 2.0301513671875, 2.6217041015625, 0.8952636718750, 1.2982177734375, -0.8985595703125, 2.3286132812500, -0.6315917968750, 0.6973876953125, -1.4052734375000, 3.9998779296875, -0.6633300781250, -1.7326660156250, 2.8430175781250, 3.9998779296875, 2.8327636718750, 1.6915283203125, -2.1477050781250, -3.9998779296875, 2.6477050781250, -2.0974121093750, 1.1802978515625, 0.0000000000000, -2.1879882812500, 2.4664306640625, 2.9649658203125, -0.0554199218750, -0.9207763671875, -2.1590576171875, 3.9873046875000, 1.9802246093750, 2.4799804687500, -2.3616943359375, 2.5126953125000, 1.0516357421875, 1.4337158203125, -0.9512939453125, 1.0783691406250, -1.1611328125000, 1.3081054687500, 3.9998779296875, 0.1508789062500, -2.2086181640625, -2.1328125000000, -1.1157226562500, 3.9998779296875, -0.5821533203125, 1.6614990234375, -2.4204101562500, 1.4084472656250, 2.5452880859375, 0.1826171875000, 2.4498291015625, -2.9750976562500, 0.8901367187500, 2.2896728515625, -3.1662597656250, 3.9998779296875, 2.0487060546875, -1.6937255859375, 0.3430175781250, -0.7186279296875, -1.2208251953125, 2.1593017578125, 0.0000000000000, -3.9998779296875, -0.9086914062500, 0.5079345703125, 3.8236083984375, 2.6916503906250, -1.9959716796875, 0.3256835937500, -3.9998779296875, -1.5390625000000, 2.1406250000000, -1.9035644531250, -1.8527832031250, 0.8967285156250, -2.3540039062500, 0.1020507812500, 1.4962158203125, -1.0170898437500, 2.5382080078125, 0.4267578125000, 0.0000000000000, 1.2150878906250, -2.1206054687500, -1.6229248046875, 0.3052978515625, 0.1485595703125, -3.9998779296875, -0.1434326171875, -2.7937011718750, 1.3809814453125, 1.9528808593750, -3.9998779296875, -1.5925292968750, 0.2656250000000, -2.2620849609375, 1.7407226562500, 0.6156005859375, 1.7199707031250, -1.6142578125000, 1.8891601562500, 0.0000000000000, 1.6328125000000, -0.5413818359375, 3.9998779296875, -2.1903076171875, -1.8278808593750, 2.7622070312500, -2.2675781250000, -0.2799072265625, 2.2200927734375, -1.4053955078125, -3.3223876953125, -0.9084472656250, -0.6652832031250, 2.8093261718750, 1.8776855468750, 0.0000000000000, 1.2047119140625, 0.0000000000000, 2.3779296875000, 0.5466308593750, 3.9998779296875, 0.0001220703125, 0.7636718750000, -1.6108398437500, 0.2515869140625, -1.1049804687500, 0.0000000000000, -3.4886474609375, -1.6849365234375, 1.0264892578125, 1.6649169921875, -2.5810546875000, -0.0747070312500, -2.5415039062500, 1.5356445312500, 3.9998779296875, 1.1669921875000, -0.0001220703125, 2.3734130859375, -0.5656738281250, -3.9998779296875, 0.2879638671875, 0.2797851562500, -2.0185546875000, -1.8310546875000, 2.2253417968750, -1.0189208984375, -2.1813964843750, 1.2331542968750, 2.2912597656250, -2.5274658203125, 3.9998779296875, 3.0886230468750, -0.8106689453125, 0.4904785156250, -0.1510009765625, 1.8024902343750, -1.0859375000000, 0.5053710937500, 0.5672607421875, -3.4450683593750, 2.3389892578125, 1.7344970703125, -2.7342529296875, -2.3558349609375, 2.3411865234375, 0.5167236328125, 0.1092529296875, -0.2261962890625, -1.6455078125000, 3.9998779296875, 1.4285888671875, 1.9041748046875, 0.0000000000000, 3.3598632812500, 1.3892822265625, -1.0955810546875, 0.0000000000000, -1.6431884765625, -2.0277099609375, 0.7059326171875, -1.8336181640625, -0.1553955078125, -1.6218261718750, -1.1551513671875, -0.0249023437500, -2.3984375000000, -0.4475097656250, 0.7802734375000, 0.1005859375000, 0.4635009765625, 1.2762451171875, -0.4754638671875, -2.3951416015625, 1.5821533203125, -1.3730468750000, 2.4830322265625, 1.7816162109375, -0.6837158203125, 2.2192382812500, 2.4619140625000, -2.5805664062500, -3.9998779296875, -0.4335937500000, 2.6765136718750, -2.8563232421875, -0.9166259765625, -2.1420898437500, 0.2456054687500, 3.9998779296875, 1.8707275390625, 1.0939941406250, -1.7375488281250, 1.4311523437500, -0.1016845703125, 2.1630859375000, 1.3001708984375, 3.9998779296875, -1.3006591796875, 2.3070068359375, -3.9998779296875, 0.3179931640625, -0.9044189453125, 0.5327148437500, 0.0000000000000, 0.3734130859375, 0.6329345703125, 3.4138183593750, -1.2972412109375, -0.6116943359375, 0.0241699218750, 1.9361572265625, 1.5220947265625, 0.5292968750000, 2.3525390625000, -1.6904296875000, -2.3920898437500, -3.9998779296875, -0.7166748046875, 2.5897216796875, -1.5217285156250, -1.6186523437500, -1.8291015625000, 2.7812500000000, 0.0992431640625, -2.2226562500000, -1.4349365234375, -1.0933837890625, -2.0887451171875, 0.0219726562500, 0.4050292968750, 2.2130126953125, -0.8426513671875, 0.5357666015625, -2.4813232421875, 2.5976562500000, 2.1253662109375, -0.7687988281250, 2.2503662109375, 0.0000000000000, -3.0802001953125, -2.0731201171875, 2.3546142578125, -1.1239013671875, -1.3143310546875, 2.1181640625000, 1.4195556640625, -3.9998779296875, -0.0435791015625, 0.2463378906250, -3.9998779296875, 1.4468994140625, -0.6187744140625, 0.0000000000000, 3.9998779296875, 1.6300048828125, 1.5423583984375, -3.9998779296875, 0.0654296875000, 2.0950927734375, -0.3137207031250, 2.0723876953125, -1.0261230468750, 1.2663574218750, 1.9608154296875, 0.2346191406250, -2.3322753906250, 2.1794433593750, 2.4050292968750, 0.6091308593750, 1.8824462890625, 0.4117431640625, -0.3013916015625, -1.4154052734375, -2.0036621093750, -2.5661621093750, -0.2708740234375, 1.5206298828125, 2.6567382812500, 1.7139892578125, -2.1107177734375, 3.9998779296875, 0.0000000000000, -2.0397949218750, 0.4963378906250, 0.1456298828125, 0.5705566406250, -0.7067871093750, 0.2542724609375, 3.2138671875000, 0.0000000000000, 2.1317138671875, 1.9785156250000, 3.9998779296875, -0.2877197265625, 2.0172119140625, 0.4266357421875, 1.3352050781250, -1.6320800781250, -2.0864257812500, 0.2332763671875, -1.7158203125000, 1.5821533203125, -3.4583740234375, -0.5344238281250, 2.0402832031250, 1.1734619140625, -2.1468505859375, 0.1716308593750, -0.1715087890625, 0.0000000000000, 0.4255371093750, -1.2066650390625, -2.3509521484375, -1.5925292968750, -3.9998779296875, -0.4169921875000, 3.9998779296875, -1.5037841796875, 0.2740478515625, 0.2171630859375, -0.1204833984375, 1.1723632812500, -0.9924316406250, 0.8588867187500, -1.5168457031250, 0.8684082031250, 0.0000000000000, 1.4799804687500, -0.9195556640625, 0.0000000000000, 0.1024169921875, 3.9998779296875, -0.0002441406250, 0.4278564453125, -0.6250000000000, -2.3150634765625, 0.0000000000000, 0.0000000000000, -1.8839111328125, -3.9998779296875, -0.1047363281250, -0.1918945312500, 1.1031494140625, -0.3778076171875, -1.6101074218750, -1.7187500000000, 3.0170898437500, 1.9663085937500, 1.6474609375000, 0.5024414062500, -1.7965087890625, -1.0908203125000, -3.9998779296875, 0.0000000000000, -1.6973876953125, 0.0000000000000, -3.9998779296875, 1.1973876953125, 1.3321533203125, 2.4129638671875, 2.5822753906250, 1.5266113281250, -0.0598144531250, -0.3841552734375, 2.2019042968750, 2.3131103515625, -2.4915771484375, 0.8911132812500, 1.9954833984375, -3.3197021484375, 0.3936767578125, -1.7961425781250, 0.7259521484375, 1.0433349609375, -2.5910644531250, 1.2923583984375, 0.6142578125000, -0.5767822265625, 1.4108886718750, -2.6870117187500, -2.9978027343750, -3.9106445312500, 0.5391845703125, 0.1491699218750, 0.3847656250000, 1.0206298828125, -1.2546386718750, 2.3604736328125, 3.6793212890625, 2.6351318359375, -0.9980468750000, -0.2561035156250, 2.5944824218750, -0.2125244140625, 0.0144042968750, -2.3205566406250, 0.0000000000000, 0.2153320312500, 1.8032226562500, 1.2064208984375, 2.5482177734375, 1.0426025390625, 0.3682861328125, -1.1304931640625, -0.2163085937500, 1.9677734375000, -1.6239013671875, -0.8420410156250, 0.5616455078125, 0.3825683593750, -1.5579833984375, -2.2882080078125, 0.2880859375000, -2.8715820312500, -0.8555908203125, 1.6710205078125, 2.1226806640625, -1.3176269531250, -1.6127929687500, 0.0001220703125, 0.0531005859375, 1.7373046875000, -2.0765380859375, -1.8118896484375, 0.0119628906250, -1.0551757812500, -0.1070556640625, -1.7210693359375, -1.5303955078125, 1.6688232421875, -3.9190673828125, 0.0667724609375, 2.3627929687500, 0.5749511718750, -1.0489501953125, -1.7545166015625, -2.3715820312500, 1.5093994140625, 0.0000000000000, 0.7292480468750, -0.5009765625000, -1.8729248046875, 3.9998779296875, 1.8967285156250, 1.3775634765625, -1.9343261718750, 1.2185058593750, 0.1552734375000, -0.3575439453125, -0.0944824218750, -0.2106933593750, 2.0877685546875, -3.8466796875000, 0.8518066406250, 0.4849853515625, 0.7175292968750, -3.9998779296875, 0.0000000000000, -2.3350830078125, 0.0000000000000, 0.0769042968750, 0.8868408203125, -0.7821044921875, 0.1468505859375, -1.0501708984375, -0.4459228515625, 0.0000000000000, 1.7121582031250, -0.6961669921875, -3.9998779296875, 1.8581542968750, 0.9028320312500, 1.2546386718750, -1.1563720703125, 0.4093017578125, 1.3737792968750, 1.2624511718750, 2.3315429687500, -2.2836914062500, 1.6435546875000, 2.9326171875000, -3.9998779296875, 0.7225341796875, 1.2552490234375, 0.7196044921875, 0.0000000000000, 2.3775634765625, 0.2017822265625, -3.9998779296875, -3.9998779296875, -0.5098876953125, 2.1000976562500, 0.2449951171875, 0.0000000000000, -0.2955322265625, -0.3797607421875, 3.9998779296875, 1.0108642578125, 1.2778320312500, -1.7938232421875, 2.3557128906250, 0.8726806640625, 1.4255371093750, -2.9327392578125, 2.4838867187500, -2.3994140625000, -1.5850830078125, -0.7309570312500, 0.7271728515625, 0.7845458984375, 0.9509277343750, -2.3546142578125, 1.9809570312500, 2.5838623046875, -2.3139648437500, -0.8399658203125, -3.9998779296875, -0.1500244140625, -2.7694091796875, 0.7932128906250, -2.7541503906250, 2.2071533203125, -1.2043457031250, -1.8585205078125, 1.6019287109375, 0.6312255859375, -0.7211914062500, -2.1848144531250, -1.1942138671875, -0.6983642578125, -1.8471679687500, 1.6745605468750, -2.3801269531250, -0.1987304687500, 2.0749511718750, 1.5187988281250, -0.3120117187500, -0.4313964843750, -3.9998779296875, -0.5866699218750, 2.5479736328125, 2.4726562500000, -2.3244628906250, -2.4140625000000, 1.5344238281250, -2.5699462890625, 0.0000000000000, 1.3507080078125, -1.2083740234375, 1.6789550781250, -2.4086914062500, 1.0756835937500, -3.9998779296875, 3.9998779296875, -1.8793945312500, -1.1463623046875, 1.4335937500000, -0.4193115234375, 0.0000000000000, 2.1180419921875, -0.8372802734375, 0.8486328125000, -0.2246093750000, -2.1171875000000, -2.0103759765625, 1.8872070312500, 1.8156738281250, 2.1396484375000, 0.0000000000000, -0.8900146484375, 0.0000000000000, -1.6580810546875, 0.0000000000000, 1.4176025390625, 2.0063476562500, -1.8598632812500, 0.3647460937500, -0.8588867187500, 2.1214599609375, -1.3129882812500, -1.5850830078125, 1.0705566406250, -1.9622802734375, -0.9622802734375, -1.5563964843750, -0.3294677734375, 1.5302734375000, 0.0000000000000, -2.2905273437500, 3.3554687500000, 2.0258789062500, -0.8699951171875, 0.0000000000000, 0.9689941406250, 0.0000000000000, -0.6668701171875, 3.9998779296875, 1.0683593750000, 1.5661621093750, -3.5849609375000, 1.6674804687500, 0.4517822265625, 1.2652587890625, 3.6212158203125, -2.2724609375000, 0.7852783203125, -0.0001220703125, 0.0522460937500, 0.7087402343750, -0.0523681640625, -0.2908935546875, -1.7316894531250, 1.4731445312500, -2.6007080078125, 3.9998779296875, 1.7340087890625, -2.1032714843750, -0.5970458984375, 2.2735595703125, 0.5609130859375, -0.3482666015625, 0.0004882812500, -1.8364257812500, -2.2475585937500, -0.9797363281250, -0.0476074218750, 1.7465820312500, 1.7476806640625, 1.7194824218750, 1.6247558593750, -3.9998779296875, -3.9998779296875, -1.2203369140625, -0.5382080078125, -0.8436279296875, 0.3703613281250, 0.0224609375000, 2.6118164062500, -3.9998779296875, 1.9936523437500, -0.4012451171875, -2.3940429687500, -2.1297607421875, 2.4465332031250, 1.4516601562500, 2.0999755859375, -0.7622070312500, 1.7934570312500, -2.2092285156250, 1.1582031250000, 1.9315185546875, 0.9638671875000, 1.7142333984375, -0.3526611328125, -0.3542480468750, 0.7932128906250, -3.9998779296875, -2.3627929687500, 1.1094970703125, 1.5145263671875, 1.4476318359375, -1.3968505859375, -2.6700439453125, 0.7086181640625, 2.4106445312500, -1.2276611328125, -0.3670654296875, 2.0744628906250, 2.3432617187500, 0.1463623046875, -1.4514160156250, -2.4500732421875, 2.1304931640625, -2.2103271484375, -2.1751708984375, 2.0606689453125, -0.4522705078125, 1.7982177734375, 1.3819580078125, 0.1257324218750, -2.0869140625000, -3.0075683593750, 0.5461425781250, 1.9162597656250, 0.0000000000000, 1.6439208984375, 2.7868652343750, -2.2160644531250, 0.8216552734375, 1.9089355468750, 1.9610595703125, -0.2897949218750, -3.9998779296875, 0.4279785156250, 0.9792480468750, 0.0982666015625, -3.5693359375000, 2.2204589843750, 0.2059326171875, 3.5301513671875, -0.1002197265625, 1.7219238281250, 2.9187011718750, -3.1301269531250, -2.2403564453125, 0.4014892578125, 0.0000000000000, -0.6197509765625, -0.8706054687500, 0.3762207031250, 1.4001464843750, 0.0000000000000, 0.2152099609375, 0.0000000000000, -1.4941406250000, -0.6202392578125, 3.3710937500000, -0.7525634765625, 0.0000000000000, 2.5190429687500, -2.4224853515625, -2.3823242187500, 0.0000000000000, 0.8168945312500, -2.3911132812500, 0.0000000000000, -0.7810058593750, 0.0000000000000, 0.3773193359375, -2.1226806640625, 3.8347167968750, 0.3488769531250, -2.0577392578125, -0.5579833984375, 1.2698974609375, -0.3479003906250, 0.3873291015625, 0.0000000000000, 1.6990966796875, -0.6401367187500, 2.4321289062500, -2.0897216796875, -2.4357910156250, -0.0839843750000, 1.4948730468750, 0.1326904296875, 2.7883300781250, 1.7718505859375, -1.8282470703125, 3.8984375000000, 2.2749023437500, -2.4074707031250, -0.6060791015625, -3.5958251953125, -0.7216796875000, 0.0000000000000, -3.7960205078125, -2.4434814453125, 0.2667236328125, 0.4185791015625, -0.1323242187500, 2.7803955078125, 2.4427490234375, 0.3785400390625, -2.7052001953125, 2.4672851562500, 1.0573730468750, 1.5405273437500, -0.8643798828125, 0.8891601562500, -0.8388671875000, 2.1738281250000, -0.9324951171875, 0.0670166015625, -0.2531738281250, -1.5313720703125, -1.1940917968750, -0.1343994140625, 1.3826904296875, 0.1510009765625, -0.4453125000000, -3.9998779296875, 0.4040527343750, 2.4078369140625, -0.5242919921875, 1.3438720703125, 2.3306884765625, -1.1016845703125, 2.0683593750000, 0.0008544921875, -2.4843750000000, -2.5679931640625, 2.3886718750000, 0.2568359375000, -2.6303710937500, -0.2589111328125, 3.9998779296875, 1.0690917968750, -0.3221435546875, -3.9998779296875, -0.3424072265625, -1.6872558593750, 0.8167724609375, -2.3162841796875, 2.3620605468750, -0.6241455078125, -3.9998779296875, -0.4034423828125, 2.1224365234375, 2.5705566406250, 0.0000000000000, -1.7517089843750, -0.4318847656250, 0.7476806640625, -3.9998779296875, 1.9147949218750, -3.9902343750000, -0.7553710937500, 2.3969726562500, -0.1827392578125, -0.8476562500000, 2.4316406250000, 0.0000000000000, 0.3031005859375, 0.9633789062500, -0.3656005859375, -1.6970214843750, 0.3858642578125, 0.0000000000000, -0.8785400390625, 3.8282470703125, -0.6407470703125, 0.1090087890625, 0.9088134765625, 2.9545898437500, 2.3316650390625, -0.1805419921875, -1.0278320312500, 0.0000000000000, -3.9998779296875, 0.0000000000000, 1.5844726562500, 1.9730224609375, 2.1252441406250, 2.2437744140625, 2.2261962890625, -1.3937988281250, 1.0415039062500, -2.3765869140625, 2.3665771484375, -2.3391113281250, -1.2838134765625, 0.0000000000000, -2.7481689453125, 0.3708496093750, 0.6630859375000, 0.7382812500000, 1.4744873046875, 1.7596435546875, 0.1823730468750, 2.5792236328125, -1.9880371093750, -0.0842285156250, 0.9573974609375, -3.0516357421875, 0.9548339843750, -1.2091064453125, 1.5268554687500, -2.1992187500000, -3.9998779296875, -0.8739013671875, -0.7551269531250, 0.0672607421875, -1.4768066406250, 0.3604736328125, 1.4392089843750, 2.5538330078125, -1.0183105468750, -2.0870361328125, -2.2463378906250, 0.0000000000000, 0.7111816406250, 0.1903076171875, 0.1378173828125, -1.4794921875000, -1.1428222656250, -2.3724365234375, -0.9832763671875, 2.7028808593750, -3.9998779296875, -0.3740234375000, 2.5556640625000, 3.4422607421875, -2.1157226562500, -0.5064697265625, 2.1292724609375, 0.0000000000000, -2.3498535156250, 1.8569335937500, -1.3353271484375, -0.2385253906250, 1.0532226562500, 0.0000000000000, 0.3608398437500, 2.4810791015625, -2.3613281250000, 0.0000000000000, 0.0000000000000, 0.3111572265625, 0.0000000000000, 1.9750976562500, 0.0000000000000, -0.8281250000000, -0.2097167968750, -3.9998779296875, 0.7877197265625, 0.0000000000000, 0.1380615234375, -2.0720214843750, -0.0001220703125, 0.2075195312500, 0.1295166015625, -0.4912109375000, -0.9431152343750, 1.3865966796875, -0.2841796875000, 1.4725341796875, 1.0078125000000, 1.5231933593750, 0.0000000000000, -3.9998779296875, -1.5607910156250, 0.7265625000000, -0.6870117187500, 2.3829345703125, -0.8739013671875, -1.5687255859375, 1.9335937500000, 0.0832519531250, -0.6839599609375, 2.2742919921875, 1.8837890625000, 3.4390869140625, 2.2148437500000, 2.4177246093750, 2.0648193359375, 3.0092773437500, 1.9621582031250, 0.7254638671875, 3.3009033203125, 2.3105468750000, -1.6531982421875, -2.3638916015625, 3.5233154296875, 1.6175537109375, 0.8210449218750, -0.6313476562500, 0.9759521484375, -0.5156250000000, -2.8762207031250, 2.8493652343750, 1.2681884765625, -1.1944580078125, 0.7215576171875, -2.5742187500000, -1.2607421875000, -0.1767578125000, -2.2241210937500, -2.5765380859375, -1.0926513671875, 1.9777832031250, -1.7265625000000, -0.5571289062500, 1.2642822265625, 0.7183837890625, 0.3551025390625, -2.5820312500000, 0.9511718750000, -0.6093750000000, 0.4467773437500, -0.0578613281250, -2.4049072265625, -2.1959228515625, -0.2673339843750, 2.6315917968750, -1.6230468750000, 2.9086914062500, 0.5678710937500, 3.8604736328125, 0.9829101562500, -2.4140625000000, 2.1977539062500, -1.3684082031250, 2.4031982421875, 1.6810302734375, 2.4346923828125, 0.0000000000000, -0.0769042968750, 2.7714843750000, -3.6669921875000, 0.6733398437500, -0.9464111328125, -1.9693603515625, 3.3631591796875, -1.6522216796875, -2.4263916015625, -3.9998779296875, -0.5648193359375, -0.8249511718750, 2.6181640625000, -1.6929931640625, 2.7210693359375, 0.5865478515625, -1.5743408203125, 3.9998779296875, 2.7419433593750, 3.9998779296875, 2.6022949218750, 0.8802490234375, -1.0714111328125, -2.2281494140625, -1.4344482421875, 1.7125244140625, 1.8798828125000, 0.9560546875000, 1.7226562500000, 1.8736572265625, 1.5025634765625, -2.6142578125000, -2.0672607421875, -2.6525878906250, -2.7451171875000, -0.9038085937500, -0.3145751953125, -0.4829101562500, -0.9265136718750, 1.0463867187500, -1.5119628906250, 3.4548339843750, 1.9895019531250, -0.5339355468750, 1.7717285156250, 0.3843994140625, -0.0180664062500, 0.3995361328125, 2.4605712890625, -3.9998779296875, -0.8128662109375, -0.6207275390625, 0.0000000000000, 0.2701416015625, -2.0898437500000, -3.1389160156250, 3.9998779296875, 0.7027587890625, 0.8302001953125, -2.9372558593750, 0.9022216796875, -1.0220947265625, -0.2272949218750, 0.5257568359375, -1.5012207031250, 0.6755371093750, 0.2286376953125, -2.6044921875000, 2.1452636718750, 0.1898193359375, 1.0682373046875, -2.6345214843750, 0.0000000000000, -1.2310791015625, 2.0502929687500, 1.4935302734375, 1.7585449218750, 0.8160400390625, -1.8735351562500, 1.2929687500000, -2.5242919921875, 0.3079833984375, 2.0192871093750, 0.0000000000000, 1.3183593750000, 2.0660400390625, 2.6921386718750, 2.0262451171875, -1.3011474609375, 2.5124511718750, 2.7250976562500, -2.9812011718750, 1.1628417968750, -0.0750732421875, 0.2513427734375, 1.9678955078125, -2.3544921875000, 0.0292968750000, -0.3128662109375, 0.0000000000000, -1.4403076171875, 0.9581298828125, 1.8836669921875, -1.2731933593750, -0.1694335937500, 3.7043457031250, -3.2106933593750, 1.9113769531250, 1.5155029296875, 2.2591552734375, 2.0721435546875, 2.5485839843750, 0.0721435546875, -1.9434814453125, 0.0000000000000, 1.2803955078125, 1.6398925781250, -2.7875976562500, -2.2932128906250, 3.0411376953125, 1.9018554687500, 0.6927490234375, -0.5739746093750, -1.0313720703125, -2.2731933593750, 0.4576416015625, -0.4532470703125, -0.5877685546875, -2.5968017578125, 0.0000000000000, -2.4168701171875, -2.1866455078125, -0.2845458984375, -3.5517578125000, -0.9647216796875, 0.6506347656250, -1.4583740234375, -0.7103271484375, -1.6447753906250, -0.9875488281250, -1.1418457031250, 0.0000000000000, -3.9998779296875, 1.9184570312500, 1.0592041015625, -1.6466064453125, -0.5275878906250, 0.4724121093750, 0.6582031250000, 1.4172363281250, 0.8941650390625, -0.3052978515625, -3.2646484375000, 1.3868408203125, 1.6193847656250, 0.0000000000000, 3.6108398437500, -1.8769531250000, -0.5191650390625, -3.7312011718750, 2.6181640625000, 0.4884033203125, -2.2775878906250, 2.0506591796875, -0.6309814453125, -1.4749755859375, -0.7313232421875, 1.3468017578125, -2.0688476562500, 3.9998779296875, 0.2177734375000, -1.7124023437500, -0.0874023437500, -0.7061767578125, 1.8435058593750, -1.4670410156250, 1.1525878906250, 1.8933105468750, -0.2526855468750, 1.2497558593750, 2.0764160156250, -0.0690917968750, -1.3430175781250, -1.5091552734375, -3.4293212890625, -0.2906494140625, -0.5567626953125, 2.4528808593750, -0.5137939453125, 1.8726806640625, 2.7530517578125, 0.2248535156250, 0.5676269531250, 0.6195068359375, -0.8288574218750, 3.4302978515625, 0.2120361328125, -1.9566650390625, 1.5002441406250, 2.5021972656250, 2.0551757812500, -0.2569580078125, 0.0000000000000, 0.2320556640625, 2.6662597656250, 1.3718261718750, -2.1549072265625, 1.1480712890625, 1.8361816406250, -2.2019042968750, -2.2861328125000, 1.8931884765625, -0.7738037109375, -2.2907714843750, 1.2030029296875, 2.6160888671875, -0.1689453125000, -3.0217285156250, 2.4020996093750, -3.2945556640625, 0.7860107421875, 1.4364013671875, 0.0000000000000, 0.1739501953125, -1.2717285156250, 0.4982910156250, 1.4112548828125, -0.5991210937500, -0.0380859375000, -0.9727783203125, 1.1361083984375, 1.8928222656250, 1.6784667968750, 3.7624511718750, -2.9575195312500, 1.1424560546875, -1.9738769531250, 1.0628662109375, -0.0059814453125, -0.6578369140625, -0.3450927734375, 3.7064208984375, -0.7957763671875, 2.4362792968750, 1.5482177734375, -1.3125000000000, 2.1437988281250, 2.2352294921875, -1.0585937500000, -3.4852294921875, 1.8697509765625, 2.5130615234375, 1.3615722656250, -1.1463623046875, 1.1116943359375, -3.0197753906250, 0.0670166015625, 2.5225830078125, 1.7059326171875, -3.8928222656250, 0.7728271484375, -2.0406494140625, 0.5627441406250, -0.2491455078125, 1.3020019531250, -2.2253417968750, 0.7722167968750, 3.9998779296875, 2.2639160156250, 2.4085693359375, -0.4339599609375, 0.0000000000000, -3.0031738281250, -0.6688232421875, 2.3341064453125, 1.0865478515625, -2.1396484375000, -0.8464355468750, -1.6553955078125, 1.1724853515625, 0.2648925781250, -1.4436035156250, 2.2677001953125, -0.2283935546875, 2.2371826171875, -0.6104736328125, 0.8133544921875, -1.6030273437500, 1.7333984375000, 0.9064941406250, 0.0000000000000, 0.8371582031250, -3.9230957031250, -1.4268798828125, 2.0405273437500, 0.1776123046875, -2.0571289062500, -1.2308349609375, -1.3541259765625, 0.1176757812500, 0.6466064453125, 1.0086669921875, 3.7000732421875, -0.2395019531250, 1.5239257812500, -0.0001220703125, 1.3806152343750, 1.9852294921875, 0.0000000000000, 3.9998779296875, 1.2504882812500, 2.4057617187500, 1.3031005859375, -2.3348388671875, -0.7652587890625, -1.5726318359375, 0.5981445312500, 0.0000000000000, 0.7114257812500, 0.0000000000000, 0.4360351562500, 0.0000000000000, 3.4053955078125, 1.7784423828125, 0.6907958984375, 1.9698486328125, -0.7250976562500, 2.0701904296875, -0.5126953125000, 2.1611328125000, 1.2414550781250, -0.0070800781250, 0.0000000000000, 0.0001220703125, -3.1064453125000, 2.3642578125000, 0.0000000000000, -3.9998779296875, 0.4746093750000, 1.4195556640625, -0.2604980468750, 0.0000000000000, 2.5722656250000, 1.9647216796875, 0.8952636718750, -3.0653076171875, 0.0000000000000, 0.0000000000000, -2.2886962890625, -0.3548583984375, 2.3485107421875, -1.2097167968750, 3.9998779296875, -2.1970214843750, -0.4433593750000, -3.9998779296875, -0.6602783203125, -0.7906494140625, 0.2122802734375, 1.4764404296875, 2.4205322265625, -0.4234619140625, 1.3916015625000, 0.1750488281250, -2.3551025390625, -2.1199951171875, -1.8216552734375, 1.1973876953125, 0.1824951171875, -2.4876708984375, -1.1198730468750, 1.2766113281250, -3.3809814453125, 0.0792236328125, 0.0611572265625, -1.5744628906250, 2.2110595703125, -1.8295898437500, 0.3330078125000, 0.1361083984375, -0.3060302734375, 0.4736328125000, 0.8464355468750, 2.7327880859375, 3.9998779296875, 1.9294433593750, 1.7310791015625, -0.0001220703125, 0.2979736328125, 2.6337890625000, 1.4160156250000, 0.0000000000000, 3.9998779296875, -0.8649902343750, 1.9473876953125, -0.3255615234375, -2.7960205078125, 1.6411132812500, -1.3757324218750, -0.8658447265625, 0.2243652343750, 0.4842529296875, -3.9998779296875, 2.5028076171875, 0.3377685546875, -2.8063964843750, 2.5449218750000, 2.5610351562500, 0.9268798828125, -3.2677001953125, -0.9195556640625, -2.5504150390625, -2.4714355468750, -2.6668701171875, 0.6668701171875, -0.4971923828125, 1.0028076171875, 0.7321777343750, 0.8797607421875, -3.9998779296875, 0.4207763671875, 2.1746826171875, 3.3879394531250, 2.4375000000000, 2.3891601562500, -0.4288330078125, 2.8482666015625, 0.4595947265625, -1.5845947265625, 2.5100097656250, -2.4365234375000, 2.4020996093750, 1.4468994140625, -0.4406738281250, -2.6975097656250, -1.8052978515625, 1.0500488281250, 1.8607177734375, -2.4877929687500, 0.7933349609375, 0.7962646484375, 2.9122314453125, -1.3312988281250, -2.4696044921875, 1.5135498046875, 3.9998779296875, -0.3449707031250, 2.0256347656250, -0.7926025390625, -1.6243896484375, 0.2580566406250, 1.9019775390625, 3.9998779296875, -0.6480712890625, -2.4315185546875, 0.0000000000000, -2.3327636718750, -2.1921386718750, 0.8800048828125, -3.7058105468750, -0.3182373046875, 2.3133544921875, -1.9304199218750, 0.2180175781250, 1.1407470703125, 2.8431396484375, -2.0051269531250, 3.7637939453125, 2.0474853515625, -1.2562255859375, -0.6922607421875, 2.0427246093750, -3.9638671875000, 0.0241699218750, -1.8322753906250, 1.8227539062500, 1.7313232421875, 2.3024902343750, 2.4018554687500, 2.1345214843750, 1.2987060546875, -0.8850097656250, 0.7885742187500, -1.3105468750000, 1.5667724609375, 0.9433593750000, -1.8977050781250, -0.0001220703125, 0.1149902343750, 2.4084472656250, 1.9575195312500, 2.2722167968750, -3.9998779296875, -0.3599853515625, 0.8217773437500, -3.6016845703125, -1.4833984375000, 1.9656982421875, -0.2910156250000, -3.9998779296875, 2.3543701171875, -0.2143554687500, 0.0000000000000, -2.2713623046875, 0.3022460937500, -2.3157958984375, 3.9998779296875, 0.5803222656250, 1.4185791015625, -3.6057128906250, 1.3001708984375, 1.4067382812500, 0.1883544921875, -0.1157226562500, -1.0513916015625, 2.5765380859375, -0.5677490234375, 3.9998779296875, -1.6442871093750, -1.4313964843750, -2.4785156250000, -2.1983642578125, -1.3466796875000, 1.3728027343750, -1.8507080078125, 2.2426757812500, -2.0366210937500, -2.2824707031250, -2.2354736328125, -1.4614257812500, 0.9150390625000, -0.1705322265625, -1.4891357421875, -3.9998779296875, -3.9998779296875, -1.8312988281250, 0.9270019531250, 3.0141601562500, -1.2298583984375, 2.8547363281250, 0.0140380859375, 3.9998779296875, 3.9998779296875, 0.6114501953125, -0.7877197265625, 3.9998779296875, 2.4207763671875, -1.7802734375000, -0.1054687500000, -1.9423828125000, 2.4819335937500, 0.7930908203125, -1.3889160156250, 2.9058837890625, -0.8997802734375, 0.0000000000000, -0.7823486328125, -0.8972167968750, -0.3032226562500, 3.5584716796875, 2.0667724609375, 1.7391357421875, -2.2342529296875, -0.5655517578125, 0.7867431640625, 2.5034179687500, -1.4279785156250, 3.9998779296875, 0.4953613281250, 0.7514648437500, 0.4385986328125, -2.1593017578125, 2.8293457031250, 0.2005615234375, 2.5366210937500, -1.8533935546875, -1.2163085937500, -0.0135498046875, 0.7834472656250, 0.1741943359375, 1.9768066406250, 0.8680419921875, 1.1284179687500, 3.7565917968750, -3.9998779296875, -1.4257812500000, -1.3701171875000, 3.9129638671875, 0.2105712890625, 2.2646484375000, -2.5313720703125, 3.9998779296875, 3.9998779296875, -0.4996337890625, 2.2249755859375, -3.9998779296875, 2.1900634765625, 1.5809326171875, -1.4973144531250, 0.0000000000000, 0.8817138671875, 0.8194580078125, -3.9998779296875, -0.3581542968750, -0.3833007812500, 0.0000000000000, -3.8515625000000, 2.1533203125000, -0.2637939453125, 1.8289794921875, 0.1352539062500, -2.3366699218750, 1.6557617187500, -2.4536132812500, -0.0948486328125, 1.5897216796875, 0.5765380859375, 0.0000000000000, 0.1538085937500, -3.9998779296875, -0.8731689453125, -2.0471191406250, -3.9998779296875, -1.7630615234375, 1.4897460937500, -2.0688476562500, 0.7493896484375, -1.8837890625000, 0.1688232421875, -1.7326660156250, -2.0130615234375, 1.0883789062500, -0.1041259765625, 0.0001220703125, 2.3192138671875, -0.4580078125000, -0.3153076171875, -1.1986083984375, 0.6806640625000, -2.0732421875000, -1.7205810546875, 0.4567871093750, 1.6645507812500, 1.8778076171875, -1.9776611328125, -0.1359863281250, 2.3828125000000, 2.0726318359375, 1.3626708984375, -1.5893554687500, -1.9197998046875, -0.2263183593750, -1.2752685546875, 0.0000000000000, -0.0003662109375, 3.9998779296875, 2.4569091796875, 1.7656250000000, -0.0996093750000, 0.0000000000000, 2.1660156250000, 2.6712646484375, -1.1866455078125, 1.1781005859375, -2.1118164062500, 1.6693115234375, -1.5914306640625, 3.5570068359375, 2.0289306640625, -3.3867187500000, 0.1838378906250, 2.6165771484375, 0.8969726562500, -1.2990722656250, -1.7764892578125, 2.5076904296875, 1.0024414062500, 1.6026611328125, 1.3142089843750, -1.9162597656250, 1.6953125000000, -0.8352050781250, 0.9445800781250, -3.9998779296875, 0.8479003906250, 1.0548095703125, -0.0267333984375, 1.3643798828125, 2.6993408203125, 2.4989013671875, -0.0648193359375, -3.2467041015625, 2.3255615234375, -2.1740722656250, -1.1049804687500, 3.9998779296875, 1.6403808593750, -0.9794921875000, -0.8604736328125, 2.8818359375000, 1.0985107421875, -2.6275634765625, 3.9998779296875, 1.0699462890625, 2.0118408203125, -1.3459472656250, -2.0819091796875, 2.3337402343750, -2.1694335937500, -0.7150878906250, 2.1258544921875, 1.4716796875000, 0.0603027343750, -1.1667480468750, 1.8576660156250, -0.4085693359375, -1.6010742187500, 3.2694091796875, -1.2023925781250, -2.7972412109375, 1.2889404296875, 2.6464843750000, 0.0001220703125, 0.6929931640625, 1.4263916015625, 0.3433837890625, 2.4135742187500, 2.8137207031250, -1.6562500000000, 0.6224365234375, 0.4495849609375, 0.6701660156250, 2.3863525390625, 2.1076660156250, 1.5203857421875, -0.2756347656250, -2.7695312500000, -0.0001220703125, -1.7685546875000, 0.7049560546875, 1.2014160156250, 2.2788085937500, 0.0000000000000, -2.3342285156250, 0.5228271484375, -2.3608398437500, 1.7431640625000, -1.7509765625000, 2.6540527343750, -1.0394287109375, -1.1396484375000, -2.6636962890625, 1.4769287109375, 1.4013671875000, 2.7705078125000, 0.8792724609375, 0.0000000000000, -1.5933837890625, -1.5958251953125, -0.0001220703125, -1.3310546875000, 2.1597900390625, 2.3378906250000, 2.2230224609375, 2.6280517578125, -0.2554931640625, 1.8043212890625, -2.4375000000000, 0.5423583984375, -0.2954101562500, 1.0895996093750, -2.4709472656250, -1.2559814453125, -0.8511962890625, 1.3371582031250, 0.4100341796875, 1.7850341796875, -0.2132568359375, 2.1181640625000, 0.8411865234375, 2.3033447265625, 1.3260498046875, 2.2680664062500, 0.0001220703125, -3.9998779296875, 2.4222412109375, 0.8581542968750, -3.9998779296875, 2.1240234375000, -0.9488525390625, -0.8822021484375, -3.9998779296875, -1.2739257812500, 0.3397216796875, 0.2291259765625, -2.7951660156250, 2.6536865234375, 0.5207519531250, 2.3674316406250, 1.7215576171875, -0.5950927734375, 1.5567626953125, 0.4760742187500, -0.4348144531250, 1.9626464843750, -0.9188232421875, -1.5439453125000, -0.1906738281250, -0.8710937500000, 0.4887695312500, 0.6289062500000, 0.5034179687500, 0.5776367187500, 2.8208007812500, -0.0506591796875, -2.6368408203125, -2.2725830078125, -1.3020019531250, 1.5451660156250, -3.7487792968750, 1.1614990234375, 0.5776367187500, -3.9998779296875, -2.5528564453125, -0.2491455078125, 1.1567382812500, -1.6640625000000, 0.8171386718750, -0.2667236328125, -2.6707763671875, -1.9887695312500, 1.0217285156250, 1.5549316406250, -3.5516357421875, -1.1075439453125, -2.2048339843750, 2.5455322265625, 1.1368408203125, -0.3437500000000, -0.6998291015625, 2.5057373046875, 1.1995849609375, 3.9998779296875, -1.3461914062500, -1.1534423828125, 2.1894531250000, 0.4273681640625, 1.7873535156250, -1.2457275390625, -1.6708984375000, -2.6125488281250, -0.9266357421875, -0.2728271484375, 1.8367919921875, -1.1015625000000, 3.6574707031250, 1.5748291015625, 1.1511230468750, 1.2199707031250, -0.0001220703125, 1.3867187500000, -2.2238769531250, -0.7408447265625, 1.2479248046875, -0.4185791015625, -0.8776855468750, 0.0000000000000, 2.3718261718750, -2.1942138671875, -3.8758544921875, -1.9603271484375, 1.3961181640625, -0.0849609375000, 0.0000000000000, 1.1469726562500, 0.0000000000000, -0.5642089843750, 0.1020507812500, 1.7010498046875, -0.2980957031250, 1.6771240234375, -2.0521240234375, 0.0878906250000, -3.9998779296875, -0.7558593750000, 1.8729248046875, 1.6704101562500, -3.7363281250000, -2.2897949218750, 0.4929199218750, 0.2735595703125, 3.8898925781250, -3.9998779296875, -1.6119384765625, 0.0000000000000, 0.0000000000000, 1.7430419921875, 1.9566650390625, -0.0832519531250, -2.7862548828125, 1.8967285156250, -1.0001220703125, 0.0000000000000, -0.1463623046875, -0.4691162109375, -0.5734863281250, 0.0000000000000, 1.8432617187500, -1.1593017578125, -1.1951904296875, 1.5557861328125, 1.0159912109375, 0.9301757812500, -1.2950439453125, 1.8266601562500, -2.2935791015625, 1.1066894531250, 2.6148681640625, -0.2250976562500, -2.6866455078125, 2.5723876953125, 0.9332275390625, 0.0000000000000, 1.9688720703125, 1.3228759765625, -2.5924072265625, -1.4865722656250, 2.5363769531250, 1.0357666015625, 1.6470947265625, 1.4218750000000, -0.3291015625000, 1.9495849609375, 1.2220458984375, -0.0976562500000, -1.9650878906250, -1.3101806640625, -3.9621582031250, -1.1807861328125, 2.0765380859375, -1.0695800781250, 0.5343017578125, 1.5090332031250, 0.9777832031250, -0.4523925781250, 0.5607910156250, -1.6154785156250, -1.5006103515625, 2.7187500000000, 2.0446777343750, -2.4754638671875, 1.3243408203125, -1.9503173828125, 1.5445556640625, -0.5002441406250, -3.9998779296875, 3.7835693359375, 2.5289306640625, 2.4117431640625, 3.1290283203125, 0.0000000000000, 1.4848632812500, 0.0000000000000, 0.5787353515625, 2.3438720703125, -0.9230957031250, 0.0461425781250, 1.2193603515625, -1.7095947265625, 3.9998779296875, 0.3284912109375, -2.4041748046875, -0.1074218750000, -0.8924560546875, 0.3930664062500, -0.7978515625000, 0.4533691406250, -2.3745117187500, -2.1431884765625, 2.3247070312500, -0.5971679687500, 0.0000000000000, -0.3619384765625, -0.0001220703125, -0.7979736328125, -1.7032470703125, 0.0601806640625, 3.9998779296875, 1.7500000000000, 1.8383789062500, -1.7606201171875, 3.4925537109375, 2.5532226562500, 0.8874511718750, -0.3925781250000, -3.9998779296875, 1.5058593750000, 0.0000000000000, -0.6046142578125, 0.0000000000000, 1.0344238281250, 2.1678466796875, 0.0000000000000, 1.0731201171875, -1.0239257812500, -3.9206542968750, 2.3601074218750, 0.7930908203125, 0.0000000000000, -3.4062500000000, 2.0738525390625, 2.6859130859375, -2.5723876953125, -2.4017333984375, 2.0148925781250, 1.4741210937500, -0.7238769531250, -3.9998779296875, -2.3455810546875, 2.0806884765625, 0.0599365234375, -2.0296630859375, 0.0000000000000, 1.8684082031250, 0.5595703125000, 1.3376464843750, 2.7277832031250, 1.6778564453125, -1.6551513671875, -1.9262695312500, -0.3504638671875, 1.6534423828125, 2.6600341796875, -3.3078613281250, 3.9998779296875, -0.6528320312500, -0.7603759765625, -1.8684082031250, -1.3620605468750, -1.1038818359375, -1.9467773437500, 0.0000000000000, -3.9998779296875, 0.2182617187500, 0.5289306640625, 0.5144042968750, -0.1547851562500, -2.2229003906250, 1.3662109375000, -3.4073486328125, 0.4794921875000, -1.8977050781250, 0.3035888671875, -1.0258789062500, -1.3394775390625, 0.0104980468750, -3.6367187500000, 2.5277099609375, -1.9947509765625, 0.0000000000000, -1.6903076171875, -1.8839111328125, 1.8883056640625, -2.2353515625000, 0.9385986328125, 1.9033203125000, -0.9338378906250, -1.8944091796875, 1.3695068359375, -0.4874267578125, 1.2893066406250, -1.7780761718750, -2.5981445312500, -1.0279541015625, 1.8184814453125, 0.8032226562500, -0.7246093750000, 1.9052734375000, 2.5827636718750, -2.3978271484375, -2.0507812500000, 2.5584716796875, 2.0935058593750, -3.1619873046875, 3.6512451171875, -0.8294677734375, 1.3286132812500, -2.8659667968750, -0.1636962890625, 1.5375976562500, -1.6580810546875, -2.5399169921875, -2.6577148437500, 1.3522949218750, 1.5161132812500, -1.9782714843750, 0.7807617187500, 2.1379394531250, -0.7606201171875, -3.9998779296875, -2.4479980468750, 1.7905273437500, -3.9998779296875, -0.5111083984375, 2.1987304687500, 3.9998779296875, -3.9998779296875, -2.1474609375000, 0.9167480468750, -3.9998779296875, -1.1567382812500, 1.7703857421875, 0.8001708984375, -1.4094238281250, -1.4216308593750, 0.0000000000000, 1.7425537109375, -2.1285400390625, 1.5871582031250, -2.5712890625000, -1.5057373046875, -2.3382568359375, 3.9998779296875, 0.4562988281250, 0.1043701171875, -0.1712646484375, 1.9949951171875, 0.0935058593750, 1.9057617187500, -1.6861572265625, 0.8715820312500, 0.0000000000000, 0.8105468750000, 0.0000000000000, -0.0001220703125, 1.5167236328125, 1.3267822265625, 3.4814453125000, 1.0793457031250, 0.0000000000000, 0.0000000000000, 0.0000000000000, 3.9998779296875, 0.1351318359375, -1.0510253906250, -2.2009277343750, 0.3001708984375, 2.1823730468750, -0.8046875000000, 0.4788818359375, 0.9654541015625, 0.9248046875000, 0.0523681640625, -0.5306396484375, 1.4204101562500, -2.9449462890625, -3.9998779296875, 1.0610351562500, 1.6448974609375, -3.9998779296875, 1.3717041015625, 1.9965820312500, 1.8450927734375, -2.5322265625000, -1.9692382812500, -1.8626708984375, -2.8955078125000, 0.8432617187500, -0.4755859375000, -3.9998779296875, 2.8593750000000, 0.3116455078125, -2.9545898437500, 1.4401855468750, -1.9669189453125, -1.3320312500000, 2.2302246093750, -1.2392578125000, -0.4306640625000, 1.5751953125000, 0.3529052734375, -1.9453125000000, 0.6016845703125, -2.3258056640625, 0.3605957031250, 0.2785644531250, 1.7524414062500, 3.9998779296875, 1.5628662109375, 1.7528076171875, 2.1585693359375, 3.2178955078125, 3.4659423828125, 1.2547607421875, -2.1677246093750, 3.9998779296875, -2.0611572265625, -2.9271240234375, 0.0000000000000, 2.3957519531250, -2.4378662109375, 2.3540039062500, 3.9998779296875, -2.3292236328125, 2.7866210937500, 3.9998779296875, -1.2545166015625, -0.1020507812500, -0.2449951171875, -1.9666748046875, -2.0523681640625, -1.2564697265625, 0.5035400390625, 1.0841064453125, -0.7452392578125, -1.7554931640625, 1.4971923828125, 3.7646484375000, 1.4294433593750, -3.6903076171875, 0.0000000000000, -0.4240722656250, -3.7818603515625, 0.0000000000000, -1.6032714843750, -1.4490966796875, -2.4096679687500, 1.4362792968750, 1.5126953125000, 0.0000000000000, 2.0638427734375, -1.7921142578125, 1.8420410156250, -3.9998779296875, -3.4560546875000, 2.0460205078125, -1.0174560546875, 0.0739746093750, 0.5380859375000, 1.2567138671875, -1.7547607421875, 3.5863037109375, -2.3863525390625, 0.1040039062500, 1.8680419921875, -0.7727050781250, -1.6961669921875, 0.7239990234375, -0.6359863281250, 1.7548828125000, -0.2023925781250, -0.7479248046875, -1.2982177734375, -1.9215087890625, 1.2873535156250, -0.0001220703125, 0.0000000000000, 0.0000000000000, -1.4726562500000, 0.2547607421875, -0.7561035156250, 2.5958251953125, 1.9327392578125, 1.8115234375000, -0.2161865234375, 0.1401367187500, 2.1134033203125, -3.9998779296875, 0.9399414062500, 3.5717773437500, 0.5649414062500, 0.3492431640625, -3.2786865234375, -1.7612304687500, -0.5198974609375, -1.6594238281250, -2.0683593750000, 1.8956298828125, -1.7875976562500, -2.4722900390625, -2.2520751953125, -2.6354980468750, 1.0928955078125, 3.9998779296875, -2.8424072265625, 1.6025390625000, -1.4947509765625, 0.0000000000000, -0.9790039062500, 2.0592041015625, 0.2135009765625, 1.7447509765625, 0.3145751953125, 1.6881103515625, -2.4676513671875, 2.1944580078125, 1.3076171875000, 2.2716064453125, 1.7429199218750, 1.8962402343750, -0.4483642578125, 1.2684326171875, -1.7252197265625, 1.7170410156250, 0.4783935546875, -0.4858398437500, -3.5910644531250, 0.9381103515625, -0.3342285156250, 0.0000000000000, 2.5998535156250, 0.7360839843750, 0.8562011718750, -2.3045654296875, 0.2132568359375, -1.0899658203125, 1.7972412109375, 1.2454833984375, -1.9680175781250, 0.1700439453125, 0.9826660156250, 2.4302978515625, 0.8898925781250, 2.2265625000000, -1.9218750000000, -1.7144775390625, 1.7227783203125, -1.3237304687500, 2.2908935546875, -1.1744384765625, 2.7136230468750, 0.9683837890625, 2.6677246093750, -0.3732910156250, -1.1636962890625, -2.2171630859375, 2.6098632812500, -3.3037109375000, -0.6964111328125, 2.2617187500000, -0.0495605468750, -1.1049804687500, -3.9998779296875, -1.6237792968750, 2.6262207031250, 3.2053222656250, 0.2250976562500, 1.5621337890625, -0.4522705078125, 0.0000000000000, 0.0981445312500, -2.6773681640625, -0.6610107421875, 0.9361572265625, -0.5010986328125, 1.0394287109375, -3.9091796875000, -1.2149658203125, 2.0111083984375, -0.4443359375000, 1.0202636718750, 1.4483642578125, -0.4205322265625, -1.7014160156250, 2.0793457031250, -1.7459716796875, 1.8110351562500, 0.1524658203125, 1.9700927734375, 0.0000000000000, 1.9514160156250, -0.7344970703125, -3.9998779296875, 0.9396972656250, 0.0585937500000, -1.4521484375000, -0.9694824218750, 0.8699951171875, 1.7669677734375, 0.2379150390625, -1.2216796875000, -1.9298095703125, -2.2716064453125, -3.3389892578125, 0.7739257812500, 1.1356201171875, 0.0006103515625, 0.1859130859375, 0.6883544921875, -0.3660888671875, -0.8873291015625, -1.9735107421875, -3.9998779296875, 1.3775634765625, -0.6668701171875, -0.1246337890625, -2.2171630859375, -0.8276367187500, -0.6992187500000, 0.8814697265625, 1.7957763671875, 2.1396484375000, 3.0670166015625, -0.8590087890625, -1.4892578125000, 3.9998779296875, 0.4868164062500, 0.6560058593750, -1.2601318359375, 0.8557128906250, -0.8891601562500, 0.2562255859375, -1.0079345703125, -2.3723144531250, -1.4570312500000, 1.1629638671875, 2.0803222656250, 0.7545166015625, 1.9133300781250, -2.6009521484375, -1.8615722656250, 0.9808349609375, -3.9998779296875, 0.0000000000000, 1.4226074218750, 0.3356933593750, 1.4552001953125, 1.9145507812500, 0.2147216796875, 0.1954345703125, 2.1347656250000, 1.2651367187500, 0.0000000000000, 0.4593505859375, 0.8842773437500, -0.8602294921875, 1.5379638671875, 2.1597900390625, 2.3453369140625, 2.2663574218750, -0.1451416015625, 3.5750732421875, 3.4799804687500, 2.3165283203125, 0.0000000000000, 0.0000000000000, 0.4078369140625, -0.7648925781250, -1.4077148437500, 2.5239257812500, -0.3908691406250, 1.3218994140625, 2.8818359375000, -0.3031005859375, -0.4270019531250, 2.9488525390625, -3.2459716796875, -1.3525390625000, -1.2609863281250, -2.3931884765625, 1.2338867187500, 1.6966552734375, 0.4819335937500, -1.7021484375000, 1.6123046875000, 1.3143310546875, 1.6480712890625, 0.7077636718750, -1.4027099609375, -2.3807373046875, -0.3022460937500, 1.2608642578125, -2.3178710937500, -0.6464843750000, 0.1607666015625, 2.2137451171875, -1.0192871093750, 1.9354248046875, 1.6276855468750, 1.7838134765625, 2.0101318359375, 1.9766845703125, 0.2885742187500, 0.0001220703125, -0.3444824218750, -1.5784912109375, 1.2541503906250, -3.9998779296875, -1.0952148437500, 0.0025634765625, 0.9254150390625, -3.9998779296875, -2.7470703125000, 2.4395751953125, 0.9007568359375, -2.1362304687500, -0.2822265625000, -1.5119628906250, 0.0120849609375, -3.2443847656250, 1.3504638671875, 1.3774414062500, -2.0670166015625, 1.7591552734375, 0.5357666015625, 3.5639648437500, 2.1359863281250, 2.0869140625000, -0.5971679687500};
#endif

#endif
