//Numpy array shape [2, 200]
//Min -0.203762471676
//Max 0.250108450651
//Number of zeros 0

#ifndef W2_H_
#define W2_H_

#ifndef __SYNTHESIS__
Dense_weight_t w2[400];
#else
Dense_weight_t w2[400] = {-0.093358, -0.165499, 0.162632, 0.201473, -0.150067, 0.151440, -0.082126, -0.003113, -0.064485, 0.000121, -0.118745, 0.050475, 0.115906, -0.153866, 0.148667, 0.029732, 0.046649, -0.121992, 0.095844, 0.138229, 0.239052, -0.026132, -0.136523, 0.158715, -0.162863, -0.070533, 0.221886, 0.094364, 0.084635, -0.004192, 0.221445, 0.012610, 0.010196, 0.148380, -0.096977, 0.063996, -0.054747, -0.077677, -0.005133, -0.115810, -0.129561, -0.096381, 0.115105, 0.124581, 0.090046, 0.142392, 0.199408, 0.166649, 0.217454, 0.131676, 0.248106, 0.040702, -0.138566, -0.160599, -0.089672, -0.114104, 0.164175, -0.063421, 0.214447, 0.112658, 0.015014, -0.096571, 0.181425, 0.012911, -0.029769, -0.062960, -0.046807, -0.073461, -0.139714, -0.139752, -0.052398, 0.113894, 0.062629, -0.142171, 0.099297, 0.076459, 0.184844, 0.178322, -0.094833, -0.127530, 0.117761, 0.044511, -0.170812, 0.163495, -0.157727, -0.032709, 0.001880, 0.126095, 0.219749, 0.073427, -0.092221, -0.087351, 0.168335, -0.030433, 0.035428, 0.094735, 0.138691, -0.078223, 0.213017, -0.024122, -0.020964, -0.064382, -0.118586, 0.058047, 0.006108, -0.088934, 0.150037, -0.031937, -0.037339, -0.098824, 0.150445, 0.106426, 0.152188, -0.041854, -0.163069, -0.071857, 0.173146, -0.054112, -0.114349, 0.037587, -0.094779, 0.027771, 0.235794, -0.067723, -0.059346, -0.154438, 0.098345, 0.173009, -0.080605, 0.070371, -0.022335, 0.129911, -0.036883, -0.163815, 0.167746, 0.054747, -0.152003, -0.096880, 0.210081, 0.065005, -0.131375, 0.090516, -0.067464, -0.012101, 0.159087, -0.037472, -0.172214, 0.140339, 0.235738, -0.092165, -0.143365, -0.013891, -0.124179, 0.117778, -0.074775, -0.062639, -0.081121, -0.108207, 0.134189, 0.004467, 0.214927, 0.015485, -0.086826, -0.011944, 0.215199, 0.156725, 0.207480, 0.064438, -0.013654, -0.036762, -0.121022, 0.068249, 0.055692, 0.064274, 0.238895, 0.086930, -0.153604, 0.112054, 0.016668, 0.110710, -0.126954, -0.095658, -0.101728, -0.033993, 0.047254, -0.117236, -0.162055, 0.112120, 0.073619, -0.103430, -0.145136, 0.099942, -0.061546, -0.104142, 0.126806, 0.213235, 0.061374, 0.066676, -0.105670, 0.036914, 0.151795, -0.104766, -0.072386, 0.140326, 0.093308, 0.067352, -0.134734, 0.073632, -0.039953, -0.044731, 0.086885, 0.096589, -0.057902, -0.166435, -0.093608, -0.079944, -0.095963, 0.009094, 0.027167, -0.107288, -0.095827, 0.026322, -0.075892, -0.053757, 0.180646, -0.043090, 0.034642, 0.104414, 0.191878, -0.050707, -0.009055, -0.137002, -0.126026, 0.040456, 0.095428, -0.127143, -0.167304, 0.110264, -0.012849, 0.095419, -0.074023, -0.167641, -0.137967, -0.103451, -0.203762, 0.167273, 0.204767, 0.213137, 0.103707, 0.224893, 0.163702, 0.048591, 0.005618, 0.179348, 0.089248, 0.136243, 0.116224, -0.041796, -0.070398, -0.144585, 0.218986, -0.047641, 0.133572, 0.071003, 0.160359, 0.035240, -0.029927, 0.082984, 0.139947, 0.036638, -0.158686, 0.126206, 0.033854, 0.091626, 0.181882, 0.233291, 0.227895, -0.056746, -0.061532, -0.117111, -0.133615, 0.072922, -0.013584, -0.168470, -0.108104, -0.014994, 0.126819, 0.164804, 0.176310, 0.167457, 0.117699, 0.002370, -0.117810, 0.002050, 0.033238, -0.090772, -0.131145, -0.034879, 0.217674, 0.018124, 0.008811, 0.078559, -0.065803, -0.158948, 0.106977, 0.026549, -0.171062, -0.058036, -0.096359, 0.079798, -0.121930, -0.023155, 0.228482, 0.089946, -0.163336, 0.152607, 0.128513, 0.193498, 0.048040, -0.125382, 0.173388, 0.141854, 0.023003, -0.127230, 0.080319, 0.100629, 0.163052, 0.147931, -0.139460, -0.119737, -0.050699, -0.096825, -0.071836, -0.024270, -0.145838, 0.140881, -0.065634, -0.099889, 0.250108, -0.045360, -0.107730, -0.047115, -0.089613, -0.157588, 0.066269, -0.105946, 0.199614, 0.132583, -0.153792, 0.085748, 0.203667, -0.076503, -0.101985, 0.031320, -0.188723, 0.149755, 0.017608, 0.055176, 0.174260, 0.049426, 0.125605, 0.076435, -0.076556, 0.010775, 0.094880, 0.021813, 0.160701, 0.188678, -0.094850, 0.016338, 0.194497, 0.079179, 0.204408, 0.057928, 0.005764, -0.087761, 0.017943, 0.049997, 0.102788, 0.143315, 0.001006, 0.162671, 0.136354, 0.239732, -0.069359, -0.050078, 0.112941, -0.132011, 0.223912, 0.168888, -0.166933, -0.077352, 0.203329, 0.059429, 0.234368, -0.030617, -0.160348, 0.117697, -0.081092, 0.065689};
#endif

#endif
