//Numpy array shape [200, 100]
//Min -0.253745168447
//Max 0.262321412563
//Number of zeros 0

#ifndef W4_H_
#define W4_H_

#ifndef __SYNTHESIS__
Dense_weight_t w4[20000];
#else
Dense_weight_t w4[20000] = {0.113013, 0.055542, -0.081836, 0.042337, -0.137398, -0.032967, 0.046265, 0.110173, 0.025919, -0.034929, 0.140067, 0.032196, 0.053590, -0.134417, -0.129118, -0.040373, -0.139773, -0.054957, 0.075298, 0.004770, 0.009703, 0.005493, -0.096976, -0.124878, -0.091187, 0.095501, 0.032764, -0.099652, 0.028082, -0.098143, 0.111493, 0.081982, 0.088319, 0.070527, -0.114856, 0.098373, 0.005321, -0.055726, 0.044427, -0.073572, -0.074840, -0.027945, -0.038814, -0.113738, -0.053915, -0.085882, -0.020880, -0.138990, -0.127975, 0.116434, -0.035470, -0.034111, -0.043538, 0.006852, 0.123477, -0.040011, 0.094665, -0.001500, -0.067409, 0.034772, -0.029374, 0.000017, 0.083278, -0.011460, 0.065564, 0.044374, -0.020184, -0.062832, 0.113768, 0.102767, 0.122220, -0.097795, 0.067711, 0.088297, -0.057040, 0.074634, -0.003466, -0.039824, -0.133693, -0.104982, -0.070540, -0.080039, -0.139133, 0.120402, -0.083228, -0.003560, -0.067472, -0.131329, -0.110524, -0.000603, 0.032998, -0.025196, -0.008239, 0.056989, -0.122851, -0.134289, -0.117615, 0.052878, -0.127710, -0.044409, 0.001672, -0.026801, 0.065246, 0.050141, 0.119890, -0.015977, 0.102776, -0.051462, 0.048218, 0.106109, 0.138609, -0.094956, -0.104968, -0.094756, -0.023245, -0.059721, 0.057068, -0.055810, -0.057502, -0.076569, -0.107276, -0.059310, -0.077553, -0.105044, -0.060773, -0.131205, -0.054852, -0.076079, -0.130378, 0.006108, 0.016568, -0.081046, 0.096738, 0.127887, 0.068965, -0.132332, -0.116881, -0.103670, -0.113548, 0.000137, 0.057801, -0.001476, 0.114810, 0.068940, -0.007392, 0.119313, -0.097339, -0.055300, 0.108282, -0.026891, 0.002645, 0.044685, 0.119250, -0.113322, -0.037332, -0.137929, 0.063099, 0.023207, -0.097267, -0.084606, -0.074416, -0.120407, -0.012245, 0.097151, 0.022789, -0.084063, 0.004912, 0.001693, 0.028820, -0.054740, -0.139796, -0.128867, -0.080131, 0.063201, 0.120908, 0.098167, -0.015402, 0.032140, 0.049778, 0.063425, -0.037578, -0.087459, -0.033463, -0.127843, -0.088616, -0.132681, 0.010925, -0.136955, 0.033023, 0.064363, 0.114336, -0.061470, -0.020610, -0.124867, -0.020118, 0.063918, -0.066795, 0.108747, -0.005740, -0.099845, -0.047794, 0.005896, -0.076855, -0.099394, 0.024023, 0.098231, 0.126836, 0.093205, -0.043303, 0.031254, 0.110504, -0.078805, 0.029233, -0.138599, 0.099722, 0.133959, 0.043090, 0.113674, 0.079524, 0.133401, 0.090788, -0.051209, -0.096933, 0.115500, 0.052943, -0.060982, -0.086985, 0.013392, -0.120207, 0.056925, 0.080541, -0.088937, 0.032271, 0.020498, 0.041736, -0.018379, -0.094696, 0.098959, 0.113095, -0.016796, -0.024550, 0.110306, -0.121200, -0.122018, 0.127312, -0.110495, -0.125016, -0.055058, 0.033891, 0.074142, -0.040804, -0.016761, 0.043276, 0.048645, -0.036827, -0.011195, -0.037444, -0.060844, -0.117303, 0.037823, 0.006777, 0.047781, -0.010441, 0.054161, -0.029497, -0.082389, -0.018372, 0.064312, -0.047831, -0.001556, -0.134083, -0.039109, -0.142622, 0.090956, -0.143608, -0.104570, 0.084426, 0.130493, 0.107558, -0.088259, 0.009483, -0.020438, 0.089966, -0.036792, -0.005347, 0.095260, -0.080645, 0.034660, -0.091738, -0.081189, 0.032063, 0.053429, -0.141906, -0.110969, -0.100991, 0.058098, 0.089822, -0.029464, 0.132167, -0.056617, 0.043997, 0.114457, 0.085972, 0.005723, -0.015612, -0.034228, -0.087964, 0.120773, 0.117133, 0.124821, -0.092477, 0.037288, -0.050906, 0.114534, -0.006419, 0.087121, -0.070752, -0.040713, 0.042560, -0.107857, 0.025894, 0.098280, -0.064193, 0.001633, -0.112767, -0.064798, -0.073996, 0.005236, 0.020306, 0.120097, 0.097924, 0.047323, 0.135814, -0.036695, 0.002786, 0.086375, 0.096862, -0.026245, -0.140441, 0.118381, 0.015146, 0.087939, -0.114038, 0.078748, -0.002427, -0.043025, 0.036240, 0.104438, 0.014510, -0.120009, -0.004024, -0.031351, 0.108553, 0.119246, -0.138954, -0.050045, -0.111609, -0.067787, 0.003138, -0.119130, -0.114267, 0.020689, 0.133269, 0.088778, 0.031711, -0.114024, 0.067603, -0.042822, 0.031180, 0.096847, 0.001105, -0.033278, -0.023935, -0.076791, 0.087586, -0.080194, 0.102386, 0.122243, -0.090425, 0.035685, 0.072290, -0.006975, 0.030742, 0.038534, -0.117385, 0.020635, -0.040386, 0.113356, -0.105061, -0.046026, -0.078000, -0.141936, 0.022177, 0.049587, -0.059521, 0.020422, 0.066870, 0.115100, 0.070581, -0.098509, -0.106381, -0.094677, 0.189941, 0.008294, 0.139437, 0.079593, -0.014658, -0.099869, 0.043406, -0.027677, 0.062814, 0.115779, 0.114695, 0.018213, 0.083024, -0.149226, 0.131611, 0.041031, 0.129939, -0.140943, 0.017125, -0.121736, -0.045047, -0.018051, 0.026715, -0.001006, -0.092488, -0.054332, -0.056379, -0.172426, 0.064144, -0.143053, 0.127851, 0.126823, 0.033609, 0.072497, -0.132924, -0.121489, -0.104077, -0.076751, -0.119063, -0.029849, -0.112207, 0.033531, -0.161707, -0.103669, -0.104360, 0.090233, -0.109619, -0.043035, 0.008169, 0.210731, 0.069301, -0.037053, -0.026779, -0.154692, -0.080927, -0.075918, 0.121602, 0.095209, -0.025938, 0.064064, -0.008147, 0.003170, 0.095654, -0.055013, 0.140351, -0.032868, 0.107710, -0.192954, 0.058931, 0.099159, 0.143240, 0.072278, -0.106690, -0.105545, 0.105866, 0.130715, 0.103033, -0.176255, -0.215950, -0.042659, 0.065158, -0.052026, 0.042671, 0.077621, -0.115522, -0.063818, 0.172716, -0.101058, -0.066433, -0.038112, 0.190639, 0.124823, 0.039973, 0.138421, 0.045067, 0.136580, 0.045526, 0.007966, 0.043223, 0.071038, -0.135272, 0.162762, -0.055392, -0.166964, 0.125776, 0.070509, 0.144097, 0.029491, 0.179551, 0.133336, 0.024707, 0.006477, 0.068612, -0.078609, 0.125227, -0.073802, 0.200347, 0.029471, 0.011335, -0.120334, 0.019534, 0.105766, -0.108727, -0.162257, -0.069692, -0.019568, -0.053818, 0.083361, -0.139594, 0.022514, 0.026438, 0.027925, -0.140267, 0.060320, 0.129221, 0.090780, -0.105013, 0.025598, 0.189521, -0.036941, 0.024835, 0.028151, 0.073876, 0.098352, 0.059295, 0.144369, -0.058481, -0.073110, 0.097305, -0.111246, -0.189361, -0.009836, 0.179422, 0.077945, -0.054590, 0.155895, 0.132627, 0.214692, -0.021222, -0.114983, -0.118582, -0.088613, -0.025490, -0.004809, -0.059657, 0.080979, -0.123399, 0.120709, 0.048397, -0.128608, 0.102512, -0.064333, 0.085212, 0.146079, 0.080649, 0.181543, -0.043645, -0.049911, 0.057537, 0.117209, 0.035774, -0.163293, 0.064584, -0.079388, -0.048283, -0.087386, 0.166957, -0.066380, 0.151118, -0.061042, 0.103515, -0.001229, 0.021974, -0.077139, -0.132108, -0.105118, 0.119346, 0.023279, 0.003698, -0.065439, 0.204099, 0.009678, 0.093557, 0.233542, 0.084819, -0.030824, 0.042452, -0.012742, 0.083857, 0.017419, 0.073710, 0.145370, 0.180117, -0.020359, -0.070290, 0.068418, 0.089136, -0.086482, 0.091965, -0.046860, 0.072767, 0.082295, 0.132427, -0.100088, -0.120718, -0.021004, -0.027233, 0.112402, -0.015968, -0.089193, -0.017671, -0.091273, 0.047161, 0.009379, 0.140686, -0.016858, 0.105052, 0.034399, -0.066715, 0.179886, -0.003783, -0.041964, 0.101821, 0.067701, -0.004958, -0.038426, 0.028630, 0.174756, -0.128577, 0.046849, 0.158917, -0.008358, 0.093524, 0.109809, -0.040329, 0.004931, 0.116005, -0.002346, 0.059434, -0.041268, -0.081984, 0.093823, 0.088024, 0.180375, -0.102190, 0.067148, -0.039464, -0.133328, -0.050219, 0.114285, 0.192479, -0.061512, -0.050498, 0.089664, 0.150048, -0.076180, 0.079262, 0.111239, 0.012749, 0.016731, -0.000812, -0.113568, -0.138054, 0.156264, 0.071628, 0.149524, 0.036937, 0.140938, -0.126220, 0.101957, 0.156687, 0.073251, -0.009176, 0.096425, 0.045221, 0.155093, 0.047939, 0.067686, -0.019314, 0.045499, -0.088372, 0.036699, 0.113545, -0.008031, -0.083176, -0.112565, 0.079823, -0.035904, 0.176487, 0.045735, -0.040754, 0.078904, -0.010358, -0.135685, -0.014906, 0.208588, 0.210111, -0.018846, 0.035721, 0.124762, 0.189950, 0.111984, 0.164046, 0.113068, 0.006153, 0.055731, -0.034710, 0.136759, 0.063149, -0.068970, 0.117996, 0.006002, 0.042439, 0.133381, 0.116534, 0.185275, 0.089636, 0.000585, -0.027291, -0.087638, -0.098119, -0.100425, 0.028468, 0.091862, -0.039989, 0.090846, 0.058274, -0.123437, 0.068174, -0.067141, -0.094167, -0.012850, -0.067434, 0.071495, 0.115714, 0.065443, 0.111868, 0.091483, 0.000131, 0.001033, 0.113579, 0.127915, -0.040783, -0.132837, 0.121797, -0.016491, 0.072005, -0.041059, 0.079515, 0.024707, -0.009913, 0.171442, 0.021030, 0.134342, -0.019766, 0.131343, -0.040212, -0.061600, -0.085420, 0.152342, -0.086590, 0.046234, 0.179870, 0.074637, 0.065477, 0.110938, 0.191191, 0.017487, -0.018705, 0.075539, 0.131770, 0.205938, 0.145610, -0.075685, -0.091843, 0.050823, 0.206366, 0.164683, 0.094034, 0.052658, -0.089066, 0.111802, 0.094013, -0.049166, 0.017523, 0.067267, -0.083117, 0.004405, -0.019852, -0.089423, -0.122043, 0.122422, 0.026112, 0.081345, -0.056614, 0.082564, 0.070124, 0.073897, 0.072530, 0.158982, 0.175096, -0.105105, -0.049473, -0.040796, 0.057687, 0.131664, 0.096260, 0.132199, 0.117742, -0.017019, 0.036079, -0.056311, 0.029097, -0.118911, -0.079746, 0.207815, -0.040415, -0.037293, 0.011855, -0.153728, 0.096879, 0.091518, 0.168618, 0.050132, 0.041628, -0.009879, 0.043091, 0.090262, -0.094265, -0.116049, -0.066371, -0.008379, -0.014370, -0.062884, -0.074684, 0.058790, 0.103304, 0.032542, 0.025760, 0.142293, -0.053760, 0.041683, 0.021945, -0.044717, -0.007423, 0.022171, 0.015906, 0.151457, -0.078213, -0.073522, 0.125116, -0.107750, 0.003004, -0.051536, -0.182318, 0.072391, 0.096568, 0.184567, 0.116985, 0.114702, 0.135561, 0.152819, -0.040300, -0.102062, 0.179843, 0.011200, -0.003730, -0.105299, 0.124019, 0.075955, -0.092337, -0.088026, -0.014731, 0.029949, -0.106138, -0.002131, -0.015937, -0.148064, -0.078241, 0.076277, 0.061170, -0.163930, -0.051239, -0.038563, 0.124865, 0.002876, -0.186382, -0.096657, -0.226928, -0.087427, 0.005348, 0.059422, 0.029402, -0.008308, -0.005509, -0.047551, -0.008705, 0.104597, -0.069815, -0.045778, -0.139939, 0.144616, 0.128132, -0.067733, -0.041136, 0.006096, 0.153745, 0.112941, 0.128488, 0.069570, -0.025146, 0.008788, 0.134365, 0.003994, 0.076021, -0.080021, 0.107410, -0.023215, -0.190015, -0.003991, 0.096745, 0.083116, 0.090103, 0.037168, 0.108259, -0.081652, 0.020157, 0.016354, -0.133405, -0.065727, 0.157568, -0.012044, 0.064114, 0.019293, 0.043312, -0.027075, 0.107690, -0.179680, 0.098808, -0.027828, 0.121339, -0.073855, 0.014626, 0.137028, -0.063109, -0.074794, -0.066009, -0.027061, -0.077995, 0.132609, -0.130246, 0.101385, 0.058929, 0.076605, -0.031628, -0.004811, -0.026573, 0.203129, 0.040101, -0.088415, 0.070449, 0.137320, -0.010774, -0.060558, -0.062426, -0.055187, 0.052290, -0.002516, 0.043300, 0.140558, -0.136706, 0.039225, 0.156278, -0.006684, 0.140866, 0.082768, -0.091381, 0.065588, -0.120075, -0.026398, 0.057761, 0.045799, 0.087995, -0.135568, -0.059948, -0.115026, 0.113149, -0.069903, 0.014513, 0.050934, 0.009075, -0.037565, 0.016037, -0.115439, -0.118898, -0.110124, -0.125372, 0.080604, 0.068289, -0.143013, 0.009684, 0.120413, 0.126782, 0.090697, -0.038418, 0.062602, 0.114439, -0.042088, 0.004489, 0.083176, -0.036038, 0.096934, -0.050197, 0.079401, 0.135515, -0.110132, 0.048921, -0.059522, -0.116543, -0.014678, 0.116015, -0.083793, -0.025547, -0.124728, 0.018379, -0.117943, -0.028569, -0.007867, -0.030111, 0.031139, -0.023795, -0.036608, 0.095408, 0.115295, -0.011365, 0.097428, -0.080916, 0.049045, 0.035851, -0.152976, -0.014773, -0.047831, 0.051670, -0.029791, -0.138325, 0.098983, -0.069922, 0.103034, 0.053002, 0.104019, -0.138548, 0.126389, 0.115576, 0.095992, -0.094510, -0.006165, -0.052158, 0.030839, 0.074678, 0.019263, 0.067636, -0.033332, -0.116373, -0.109408, 0.067754, -0.027426, -0.038724, 0.059578, -0.054968, -0.093007, 0.073209, 0.027408, -0.106259, 0.116792, 0.033421, -0.006885, -0.073980, 0.104469, 0.079539, 0.097780, -0.022820, -0.112620, -0.104273, 0.087800, -0.007413, 0.093315, -0.030034, -0.043769, 0.104719, -0.021977, -0.004898, 0.051182, 0.015963, -0.025270, 0.116916, 0.048252, -0.073095, -0.043865, -0.054545, -0.125527, -0.103626, 0.013512, 0.111805, -0.027463, 0.010593, 0.114559, -0.087597, 0.060116, -0.024268, 0.079848, -0.127531, -0.016362, -0.050122, 0.125155, -0.001821, 0.079106, 0.127478, 0.024470, 0.027747, -0.107820, 0.033643, -0.121471, -0.134189, -0.068896, 0.099102, -0.039196, -0.036638, 0.042352, -0.094371, 0.127761, -0.105337, -0.089104, 0.037722, 0.048102, 0.039633, 0.021505, 0.091344, 0.106968, -0.064353, -0.106856, 0.050232, 0.033855, 0.080082, -0.005940, -0.124829, 0.032405, 0.027575, -0.132566, 0.111091, -0.057304, -0.109117, 0.024260, -0.107864, -0.016210, -0.119627, 0.111422, -0.093036, -0.080212, -0.045232, -0.085622, 0.072017, 0.000579, -0.148955, 0.017791, 0.046244, -0.091418, -0.066861, -0.087105, -0.134451, -0.018138, -0.138393, -0.107572, -0.062005, -0.011560, -0.074667, -0.028699, 0.014552, -0.069627, 0.050048, 0.059863, -0.075893, 0.105199, 0.038857, 0.045094, 0.128347, -0.067207, 0.076767, -0.012426, -0.081767, 0.094563, 0.050266, -0.097806, 0.113739, 0.093620, -0.069481, 0.006745, 0.116276, -0.065595, 0.120934, 0.081524, -0.084503, -0.106972, -0.094488, 0.118407, 0.084936, -0.016876, -0.099644, 0.081392, 0.125759, -0.053450, -0.009018, -0.046962, 0.118226, 0.118899, 0.135531, -0.065902, 0.120153, 0.062602, 0.018963, -0.089331, 0.080083, 0.038164, 0.039586, 0.027581, -0.105564, -0.039263, -0.121752, -0.103847, -0.028046, -0.045239, -0.131893, 0.020831, 0.014212, -0.045006, -0.011771, 0.105956, 0.085305, 0.111810, -0.007376, -0.054079, 0.095894, 0.050354, -0.045207, -0.093142, -0.100722, -0.126350, 0.020284, 0.118415, 0.139320, -0.037235, -0.092071, -0.018924, 0.117958, -0.107416, 0.031872, -0.041266, 0.118121, 0.052660, 0.013305, 0.053119, 0.020782, 0.019369, 0.105884, 0.075827, -0.045549, -0.019827, 0.083364, -0.001695, 0.084913, -0.110780, -0.015768, -0.094537, 0.006104, -0.071721, 0.018404, 0.059933, -0.133902, -0.080748, -0.140707, -0.125830, -0.070071, -0.128103, -0.091597, 0.083097, 0.035507, 0.075649, 0.095747, -0.044870, -0.029869, -0.064863, 0.034155, 0.135917, -0.073201, -0.125626, 0.023806, 0.053042, -0.015228, -0.052363, -0.120722, 0.045621, -0.132943, 0.066413, 0.111248, -0.067596, -0.036767, 0.047497, -0.120296, -0.125593, -0.138874, -0.024173, -0.069102, -0.126327, 0.118007, 0.055567, 0.084411, 0.017518, -0.044530, 0.096601, -0.136391, 0.111860, -0.024325, -0.006520, 0.044290, 0.041996, 0.003152, -0.059926, 0.000226, -0.066316, 0.106850, -0.058747, 0.002527, 0.067481, 0.038718, 0.066971, 0.046640, -0.065578, -0.069110, -0.099481, -0.047795, -0.062324, 0.055969, -0.124882, -0.094335, 0.038555, 0.013065, 0.122654, 0.118328, 0.041020, 0.045371, 0.030065, 0.124496, -0.015303, 0.071317, 0.107727, -0.129127, -0.101723, -0.040608, 0.008368, -0.099864, 0.138422, 0.104628, 0.042760, -0.001241, -0.094449, -0.008720, -0.134761, -0.123601, 0.053036, -0.127962, 0.006961, 0.029484, -0.047728, 0.129915, 0.058274, -0.117152, 0.033888, 0.117487, -0.108828, -0.011585, 0.150509, -0.070107, -0.073724, -0.122029, -0.101300, 0.074259, 0.087224, -0.139989, -0.003910, 0.175200, -0.061821, 0.039373, 0.051231, -0.049248, 0.121264, -0.011503, -0.186602, 0.006446, 0.023443, 0.132342, -0.071149, 0.160306, 0.160587, 0.054563, 0.077203, -0.023857, -0.102317, 0.075508, -0.046859, -0.126845, -0.028499, 0.047349, -0.120299, -0.138180, -0.107659, -0.048684, 0.211131, -0.011193, 0.024843, 0.238708, -0.043806, 0.124228, -0.089075, 0.153457, -0.076161, 0.151493, 0.026095, 0.111675, 0.008484, -0.123527, -0.088650, -0.090477, -0.060062, 0.050829, 0.076921, 0.158069, -0.048841, 0.030075, -0.220957, -0.167100, -0.050980, -0.115759, 0.048586, -0.050313, -0.058732, -0.120264, -0.064241, 0.078365, 0.209820, -0.160532, 0.070329, 0.156749, -0.183147, -0.076143, -0.140494, 0.082970, 0.081048, -0.046112, 0.008915, 0.075405, -0.071552, 0.143988, 0.089907, 0.046633, -0.145101, 0.016455, 0.182287, -0.151669, -0.096980, -0.003315, -0.120426, 0.035488, -0.217109, -0.031042, -0.033281, 0.071631, 0.011615, 0.133189, -0.137164, 0.142950, 0.059610, 0.060643, -0.115463, -0.031315, 0.060949, 0.098524, 0.003916, -0.188855, 0.026967, -0.011939, 0.111401, 0.013402, 0.050697, 0.146609, -0.110864, -0.035575, 0.117640, -0.117551, -0.051186, -0.088041, -0.136746, -0.069928, 0.122238, 0.090901, -0.024279, 0.038402, 0.121215, 0.095949, 0.003454, 0.166140, 0.123833, 0.099012, 0.035716, 0.045173, -0.043334, -0.040572, 0.091179, 0.142463, -0.007344, -0.000288, 0.006854, -0.011983, 0.160695, -0.027325, 0.200763, -0.090344, -0.054664, -0.040573, 0.188301, -0.018389, 0.090391, 0.182492, 0.120070, -0.157013, -0.140974, 0.114816, -0.194009, -0.094759, -0.110089, -0.035676, 0.160603, 0.008349, -0.072929, -0.040867, -0.120574, -0.081187, -0.104103, -0.131196, -0.062673, 0.047236, 0.032474, -0.041340, 0.175238, -0.159488, 0.083784, -0.064942, -0.166817, -0.053871, 0.001640, 0.059651, 0.008060, 0.204968, 0.032242, -0.092769, -0.020892, 0.022522, -0.124156, 0.096900, 0.113108, 0.072082, 0.177338, 0.088694, 0.089675, 0.174836, -0.081085, 0.124539, 0.099886, 0.035369, 0.085831, 0.133538, -0.014704, 0.067524, 0.108705, -0.055435, 0.017220, 0.191672, -0.144589, -0.011264, 0.104731, -0.153399, 0.183804, -0.122815, -0.052349, 0.026853, -0.211787, 0.054786, 0.139586, -0.061702, 0.019387, -0.019673, 0.070068, -0.167059, 0.098696, -0.001152, -0.187105, -0.025535, -0.103464, 0.109110, -0.106585, -0.028370, -0.001775, 0.043275, -0.053040, -0.101207, 0.114378, -0.098139, -0.204901, 0.074675, 0.013947, -0.128233, 0.087816, -0.029624, 0.020253, -0.154950, -0.137814, 0.062515, -0.121823, -0.112720, -0.060855, -0.079068, 0.030039, 0.022951, -0.040730, -0.060646, -0.001454, -0.098974, 0.103349, 0.014834, 0.025423, 0.138057, 0.068865, -0.045479, -0.046835, 0.104291, 0.100908, -0.019334, 0.074017, 0.044615, -0.022808, -0.031065, -0.069310, -0.095678, 0.007176, 0.006520, -0.013773, 0.052445, -0.018722, 0.053197, -0.228128, -0.038652, -0.094823, -0.155638, -0.208930, -0.018018, 0.131730, -0.067322, -0.050235, 0.048515, 0.109607, -0.067915, -0.062341, 0.010334, 0.040097, -0.114591, 0.032552, -0.084447, 0.084643, 0.113931, 0.126854, 0.117667, -0.081620, -0.036887, 0.149951, 0.045017, -0.014807, -0.132328, -0.082973, 0.121509, 0.189393, 0.093924, -0.036274, -0.124412, -0.031797, -0.155569, 0.070740, 0.129794, -0.057737, -0.037721, 0.138853, 0.028169, 0.070018, 0.089233, 0.011904, -0.006621, -0.108459, 0.151448, 0.070137, 0.041699, 0.032202, -0.164697, -0.183993, -0.101662, 0.010968, -0.124837, 0.098185, 0.056358, -0.114562, -0.056054, -0.010323, 0.206001, -0.126885, -0.071248, 0.026164, 0.080424, -0.144909, 0.041538, -0.061547, -0.104705, -0.008316, 0.013609, -0.116503, -0.106131, -0.093117, -0.026459, 0.104781, -0.050980, 0.000962, -0.040116, 0.097341, -0.104650, 0.071498, -0.096498, -0.032047, 0.074526, -0.010914, 0.116066, -0.073608, -0.109558, 0.060199, -0.059696, 0.093346, -0.033800, 0.093555, 0.164766, 0.001589, 0.210045, 0.192061, 0.037772, -0.047884, -0.215176, 0.002100, -0.240004, -0.039101, 0.117208, 0.033164, -0.054464, 0.009371, -0.004889, -0.051821, -0.005173, 0.106761, 0.103674, 0.162454, -0.093332, -0.042306, -0.157602, -0.057313, -0.043479, 0.034438, 0.077618, -0.083645, -0.156062, -0.083041, 0.028007, 0.008610, 0.065521, 0.178877, -0.118901, 0.094707, -0.005943, -0.093339, -0.101952, 0.161355, -0.137407, -0.051394, -0.018415, -0.059162, 0.086711, 0.027656, -0.078116, 0.040462, -0.049101, 0.107445, 0.148715, -0.036430, -0.109505, -0.000492, -0.016498, 0.136068, -0.097676, 0.173190, -0.138487, 0.132240, -0.035114, 0.076843, -0.091761, 0.118509, 0.091832, 0.035632, -0.026344, 0.021598, 0.101054, 0.105543, 0.056373, -0.002477, 0.022979, 0.004285, 0.041058, 0.122811, -0.134406, -0.015830, -0.143355, 0.004067, 0.003407, -0.085548, -0.101568, -0.002986, -0.073500, -0.178355, -0.114306, -0.093282, -0.032010, 0.119507, 0.006336, 0.124938, 0.071500, 0.023850, 0.033779, 0.067930, -0.137286, -0.092531, -0.053046, 0.009106, 0.141367, -0.082207, 0.088286, 0.016176, 0.023434, 0.044532, 0.092984, 0.041703, -0.014659, 0.043657, 0.049633, 0.071031, 0.122585, -0.027743, -0.076401, -0.050417, 0.126595, -0.093725, -0.096524, -0.043430, 0.148374, -0.063739, 0.039257, -0.113538, -0.134958, -0.133222, 0.032421, 0.055274, 0.109737, -0.087444, -0.070790, 0.012031, -0.052738, -0.076452, -0.133733, 0.004057, -0.006190, 0.054663, 0.116511, 0.005579, -0.042437, -0.015656, -0.077196, 0.078351, -0.112893, 0.098003, 0.010499, 0.041235, -0.108163, 0.021334, -0.090697, 0.130816, -0.094765, -0.075570, 0.042471, -0.059498, -0.025599, -0.028789, 0.064330, -0.045440, 0.102029, 0.001069, 0.105856, -0.012634, 0.075843, 0.128953, 0.011292, -0.030514, 0.004223, 0.099615, -0.098157, 0.182285, 0.087496, -0.170821, 0.023672, 0.132108, 0.043838, -0.039229, 0.214912, -0.015850, 0.101019, -0.092072, 0.065498, 0.042348, 0.082419, 0.066825, 0.055459, -0.000100, -0.091123, -0.010485, 0.075051, 0.082636, -0.092984, -0.017787, 0.009633, -0.116647, -0.011297, 0.138423, -0.171264, 0.146509, -0.178359, -0.067710, -0.157064, -0.099814, -0.019536, 0.111059, 0.116113, -0.108571, -0.048831, 0.119073, -0.226191, 0.125923, 0.145858, -0.033553, 0.118992, 0.119772, 0.037121, 0.028092, -0.033430, -0.157762, 0.027658, 0.018418, -0.042167, 0.063595, -0.148842, -0.110035, 0.140734, 0.121171, -0.080763, 0.022232, 0.021137, 0.101854, -0.116412, -0.108885, -0.067262, -0.109700, -0.132403, -0.007791, -0.034828, 0.072079, 0.052665, 0.079546, -0.013395, -0.107350, 0.057265, -0.077323, 0.026897, -0.030278, -0.139662, -0.087636, 0.112041, 0.089189, 0.100651, -0.010173, 0.097833, 0.018922, 0.048117, -0.130253, 0.026947, 0.028348, -0.112768, 0.000867, 0.062015, 0.066107, 0.016460, 0.052430, 0.057207, -0.082854, 0.068969, -0.045106, 0.111367, 0.120270, 0.131548, 0.000015, 0.126708, -0.030742, -0.076183, 0.089571, 0.055813, 0.050950, -0.110779, -0.086027, -0.128165, 0.050420, -0.107567, 0.128964, 0.000126, -0.144995, 0.029959, 0.077752, 0.003549, -0.001450, -0.054567, -0.141809, -0.046410, 0.126143, 0.070843, 0.050306, -0.088784, -0.083828, -0.140324, 0.032266, 0.027997, 0.014244, 0.111399, -0.042463, 0.109816, -0.119759, 0.104527, -0.037129, -0.100566, -0.042680, -0.021080, -0.048742, -0.097773, -0.145437, -0.127648, -0.044761, 0.087475, -0.100202, -0.134790, 0.026430, 0.130034, -0.115262, -0.035058, -0.124505, 0.031627, 0.114400, 0.054384, -0.083211, -0.058106, 0.133370, 0.025529, -0.054334, -0.108221, -0.107592, 0.055837, -0.069541, -0.100306, -0.029113, 0.028783, -0.087724, 0.100725, 0.076424, -0.093827, -0.137090, -0.037447, 0.065734, 0.069999, -0.038306, -0.067093, 0.096935, 0.063076, 0.043056, -0.024903, 0.094468, 0.091501, 0.127208, -0.105895, 0.034030, -0.139322, 0.070403, 0.036393, 0.085609, -0.110513, -0.035124, 0.008795, 0.104896, -0.000978, 0.039917, 0.079073, 0.056446, 0.126607, -0.060184, -0.085027, -0.117631, -0.004142, 0.072360, 0.052111, -0.007196, -0.061828, 0.001802, 0.025658, 0.102819, -0.141704, 0.039921, 0.085295, -0.017901, -0.015011, 0.023964, 0.000724, 0.040566, -0.114393, 0.002359, 0.003564, 0.015159, -0.046735, -0.105382, -0.039414, 0.090576, -0.052491, 0.070034, 0.126656, 0.033408, -0.139198, -0.133086, -0.089420, -0.016287, -0.005829, 0.106095, 0.106472, 0.048340, 0.082609, 0.116234, -0.026471, 0.015176, -0.130745, -0.092402, -0.047243, 0.043224, -0.080209, 0.048946, 0.066075, -0.089004, -0.020771, 0.029461, -0.070744, 0.169277, -0.064636, -0.078752, -0.016087, -0.002663, -0.043511, 0.041684, 0.089126, -0.037129, 0.055019, 0.075414, 0.032450, 0.102854, 0.007315, 0.064391, -0.115935, -0.134428, -0.067548, -0.003527, 0.081909, 0.079941, 0.208393, 0.000081, 0.107489, 0.001175, 0.123513, 0.018527, 0.022736, 0.034970, -0.091045, 0.224051, 0.021576, 0.018746, 0.109852, 0.043269, -0.029535, 0.094922, 0.160005, 0.031473, 0.183025, -0.074016, 0.025027, -0.122383, 0.153437, 0.009379, 0.096444, 0.085512, 0.048029, 0.053483, 0.112934, -0.076372, 0.019939, 0.002917, 0.067472, -0.064506, 0.178008, -0.069270, 0.116953, -0.049847, -0.039865, -0.057552, -0.113773, 0.143680, -0.030835, 0.029687, -0.136398, 0.044942, 0.111938, 0.123576, -0.197108, -0.116822, 0.078613, -0.105452, 0.047862, -0.064191, -0.185989, 0.115886, 0.107376, 0.198090, 0.157332, -0.091246, -0.057778, -0.039409, -0.073576, -0.211446, 0.124964, 0.123587, -0.017376, -0.077193, -0.040865, 0.032024, -0.031934, -0.063960, -0.026796, 0.026925, -0.099059, 0.129239, 0.104079, -0.144035, 0.054834, 0.091418, 0.210506, -0.147796, 0.134890, 0.116197, 0.114296, 0.093100, -0.002967, 0.063905, -0.213256, -0.045464, -0.000753, 0.023896, 0.052682, 0.088028, -0.102788, -0.105823, -0.207527, -0.007288, -0.109676, -0.045291, -0.164514, 0.114440, 0.125110, -0.000637, 0.100556, 0.141895, -0.039931, 0.124966, -0.001569, 0.236095, 0.107395, 0.061777, 0.223138, -0.071556, 0.133249, 0.163380, -0.059663, 0.118068, -0.162723, 0.103419, -0.125361, 0.196771, -0.009448, 0.051635, -0.024851, 0.021289, 0.053828, 0.204760, -0.048010, 0.040677, 0.022368, -0.049318, -0.052086, -0.077045, -0.006058, -0.002313, -0.032929, -0.031423, 0.145927, 0.037984, -0.077679, -0.077333, -0.027537, -0.045227, -0.053636, -0.122721, -0.067923, 0.120849, 0.055269, 0.137442, 0.120152, 0.200829, -0.032634, 0.108182, -0.022126, -0.177411, -0.097764, -0.056735, 0.152927, -0.070664, 0.020920, 0.026792, -0.240639, 0.049896, -0.023549, 0.030728, 0.126439, -0.006855, -0.097750, 0.149880, 0.102464, -0.086373, 0.032556, -0.127905, 0.171356, 0.103025, -0.044743, -0.199547, 0.001399, -0.069630, 0.082490, 0.108272, 0.064237, -0.043905, -0.137363, -0.120677, -0.010616, -0.013927, -0.010697, -0.060858, -0.096408, 0.056592, -0.077730, -0.138150, 0.049098, -0.077518, -0.051779, -0.086312, 0.087557, -0.099159, -0.037785, -0.057149, 0.111646, 0.094880, 0.032217, -0.108805, 0.103893, 0.082421, 0.085225, -0.037665, -0.140231, -0.103781, -0.093014, 0.000897, 0.000913, -0.080851, 0.061317, -0.076500, 0.066876, 0.089523, 0.129341, -0.104737, 0.058759, -0.014025, -0.116855, 0.103647, 0.036209, -0.115320, 0.061124, 0.111159, -0.019683, -0.121902, 0.114205, 0.082096, 0.045110, 0.078810, 0.081962, -0.123762, -0.132942, 0.018799, -0.009234, 0.004992, 0.042407, -0.118577, -0.093047, 0.014580, -0.072037, -0.012185, 0.137796, -0.120479, -0.109431, -0.057743, 0.112584, 0.016684, 0.075206, -0.057752, -0.066350, -0.126869, -0.136376, 0.086252, -0.063519, 0.079945, 0.034903, 0.001572, -0.095016, -0.046958, -0.075949, 0.089366, -0.067975, -0.059805, -0.068613, -0.001563, -0.086646, -0.112711, 0.106198, -0.090699, -0.091747, -0.122706, -0.075796, -0.002656, -0.016760, -0.139345, 0.034970, 0.012431, -0.010291, 0.039622, -0.009171, -0.075159, -0.087338, 0.127018, -0.135352, 0.131336, -0.079351, 0.133003, 0.120247, 0.077132, -0.099222, -0.111260, 0.091051, -0.009663, -0.006056, 0.025844, -0.038384, 0.120650, -0.042184, -0.138915, -0.005662, -0.122151, 0.094843, -0.014396, 0.070795, -0.005674, -0.017351, 0.050700, -0.058754, -0.077868, 0.138106, -0.022343, -0.014803, -0.065069, 0.033920, -0.081501, -0.079814, 0.033388, -0.116833, 0.021464, 0.080190, -0.060157, 0.096147, -0.050594, 0.031503, -0.070830, 0.054836, 0.028324, -0.093545, 0.137054, -0.070449, 0.123292, -0.037869, 0.010154, 0.010233, -0.075550, 0.085377, -0.035044, 0.136982, 0.141011, 0.062044, -0.060717, -0.073916, 0.047368, 0.024298, -0.075157, 0.085899, -0.069382, 0.037693, -0.055267, -0.141191, 0.096332, -0.111271, -0.031642, 0.074549, -0.072077, 0.018573, 0.024460, -0.056786, -0.135457, 0.020589, 0.009241, 0.135248, -0.026898, 0.122736, 0.119913, -0.097059, 0.063863, 0.060392, -0.061682, 0.013152, -0.127265, -0.015459, -0.069923, 0.054144, 0.021652, -0.028574, 0.055618, 0.116773, -0.035500, -0.039639, -0.049780, -0.013291, -0.076662, 0.138069, -0.122195, -0.080534, 0.040141, -0.102909, -0.055062, -0.120376, -0.041266, 0.009931, 0.053321, -0.094437, 0.082321, -0.010290, -0.049355, 0.140946, -0.133961, 0.074666, -0.064533, -0.097291, 0.090268, 0.005844, -0.097737, -0.060267, 0.051898, -0.100768, 0.085679, -0.087398, 0.091400, -0.137135, -0.089623, -0.103429, 0.101820, -0.072008, -0.042038, -0.075722, -0.021904, 0.071980, -0.092485, 0.121247, 0.007966, -0.036238, -0.120488, -0.022396, -0.119530, -0.041270, 0.109032, -0.032390, 0.019756, 0.090456, 0.088045, -0.035134, 0.034601, -0.020122, 0.067625, 0.031259, 0.037249, 0.085180, -0.016638, 0.119550, -0.025239, 0.106344, 0.088522, -0.118013, 0.005065, -0.053006, -0.113910, 0.064113, 0.099128, 0.066589, 0.061624, -0.098891, 0.053472, -0.036567, -0.024386, 0.071327, -0.102754, 0.059299, 0.091609, -0.072379, -0.135677, -0.032359, 0.129740, -0.063462, -0.019850, -0.040711, 0.104120, -0.099089, 0.124220, -0.053631, 0.140211, 0.023411, -0.024168, 0.120064, -0.113771, -0.066107, -0.130412, 0.083936, 0.012998, 0.050071, -0.064631, -0.138733, -0.002223, -0.081252, -0.047485, 0.007128, -0.027086, -0.138434, -0.006662, 0.125690, 0.079703, -0.078727, 0.038351, 0.002247, 0.060656, -0.022706, 0.074566, -0.064977, -0.000346, 0.064155, -0.072238, -0.120900, -0.117336, 0.101726, -0.040230, -0.107317, -0.138126, 0.011484, 0.006599, 0.079248, -0.021196, 0.075769, 0.127903, -0.102771, -0.079157, 0.039586, -0.015874, -0.076105, -0.107129, 0.016476, 0.048431, -0.106222, -0.008721, 0.015018, -0.032909, -0.129399, -0.141285, -0.075628, 0.108633, 0.038727, 0.025317, 0.106224, 0.015690, -0.127299, 0.042868, -0.061127, 0.064877, 0.051937, 0.109775, -0.071476, -0.130675, 0.065872, -0.069214, 0.022171, 0.001264, 0.081497, -0.113941, 0.061006, -0.033330, -0.110607, -0.127054, -0.062391, 0.004680, -0.138069, 0.092811, 0.096468, -0.043339, -0.056716, -0.031956, -0.125977, 0.061238, 0.102661, -0.116309, 0.132283, 0.091929, -0.062912, 0.006897, 0.049813, 0.012398, -0.040008, 0.146518, -0.030291, -0.106153, 0.053436, -0.182618, 0.072368, -0.047025, -0.027838, 0.074063, 0.063975, 0.056323, -0.050620, -0.074084, 0.082810, 0.095884, -0.050825, -0.006573, 0.022163, -0.000387, -0.052686, 0.022030, 0.017731, -0.019469, 0.005732, 0.135962, 0.004963, 0.011825, -0.118858, -0.035032, -0.104029, 0.195441, 0.030684, 0.030282, -0.108791, 0.142976, 0.036216, 0.190676, -0.021925, 0.102513, -0.042402, -0.132974, 0.103900, -0.056072, 0.036720, 0.072883, -0.022701, 0.111563, -0.070143, -0.019803, -0.074314, 0.018239, -0.174036, -0.022487, 0.018607, 0.128905, 0.031500, 0.071339, 0.001825, 0.003653, -0.033651, 0.105188, 0.095866, -0.076516, -0.100690, 0.071458, 0.044705, -0.033126, -0.132985, 0.037739, 0.015818, 0.038661, 0.115217, -0.078604, -0.139452, -0.055679, -0.132417, -0.038487, 0.079182, -0.001618, 0.197747, -0.019740, 0.013761, -0.056566, -0.108074, 0.052225, 0.152589, 0.104713, -0.044540, -0.053368, -0.065766, -0.003473, -0.059999, -0.145969, 0.020561, -0.185414, -0.024077, -0.025572, -0.053761, 0.010916, 0.007597, 0.102258, 0.187626, 0.051041, -0.077399, 0.078440, -0.100565, 0.098290, -0.152392, 0.011565, -0.099012, -0.015473, 0.099354, -0.073290, 0.086262, 0.055468, -0.167247, -0.184175, -0.110190, -0.031087, 0.070199, -0.117619, -0.147369, -0.012179, 0.012845, 0.020260, -0.013049, 0.077319, 0.006601, -0.114468, -0.038062, 0.137146, 0.208125, 0.082221, 0.029102, -0.112418, -0.017334, -0.132666, -0.063975, 0.021373, 0.000241, 0.043913, 0.000848, -0.084922, 0.050878, 0.011587, -0.047647, 0.022337, 0.035937, -0.032650, -0.029503, -0.097266, 0.205917, 0.108242, 0.025679, 0.088625, 0.157653, 0.087286, 0.018041, 0.020312, 0.100352, -0.031280, 0.167299, 0.045496, -0.065628, -0.063171, -0.038632, 0.058729, -0.009348, 0.056127, -0.081711, -0.124434, -0.110280, 0.160036, -0.140640, -0.076268, -0.056072, -0.123089, -0.081264, 0.196283, 0.171811, -0.075017, 0.131282, 0.109016, -0.154730, 0.058050, 0.104442, 0.040432, 0.112657, 0.081190, -0.101055, 0.091237, -0.007059, 0.053047, 0.096997, -0.105415, 0.139853, 0.010337, -0.076766, 0.094698, -0.015684, -0.091393, 0.100534, 0.140643, 0.041262, 0.161242, 0.132802, -0.172150, 0.125397, -0.046332, -0.161161, 0.057803, 0.040651, 0.046590, 0.022879, -0.143194, -0.020732, -0.006552, 0.083742, -0.016317, 0.108702, 0.022101, -0.043550, 0.053027, 0.097340, -0.122672, 0.113876, 0.079299, -0.037376, -0.176149, -0.079820, -0.154198, -0.129924, 0.099324, -0.130247, -0.040671, 0.117120, -0.204476, -0.024364, 0.008187, -0.139954, 0.105610, 0.123501, 0.100606, 0.013291, -0.074944, -0.071783, 0.025940, 0.004851, -0.155237, -0.043933, 0.220188, -0.029454, 0.091237, 0.061281, -0.176719, -0.045342, 0.123166, 0.007021, 0.169361, 0.066245, -0.093774, 0.020351, 0.027911, 0.064887, 0.043294, -0.109701, -0.054367, -0.047225, -0.121293, 0.031308, 0.044672, 0.104544, 0.068077, 0.009267, -0.036109, 0.119227, -0.005530, 0.026945, 0.012714, -0.008770, -0.136345, -0.071858, -0.098642, 0.098186, -0.035517, -0.196563, -0.073785, -0.013917, 0.001544, 0.019372, -0.047527, 0.189867, -0.024090, -0.160147, 0.149386, -0.072089, 0.125397, 0.107901, 0.217070, 0.009600, -0.024658, 0.017110, -0.008078, 0.103315, -0.072841, 0.086699, 0.016169, 0.126091, -0.013007, 0.125564, 0.087467, 0.091246, -0.028361, -0.115669, 0.134141, 0.222761, 0.118159, 0.139502, 0.063508, -0.044764, -0.034928, 0.178488, 0.106585, 0.150180, -0.043430, 0.130522, -0.043610, 0.011734, -0.001027, 0.050523, -0.140245, -0.116279, 0.154886, 0.048090, 0.096860, -0.081501, -0.045902, -0.123450, -0.124353, 0.213470, 0.026394, -0.070010, 0.069272, -0.154397, -0.149193, -0.013078, 0.002939, 0.034001, -0.203848, -0.017954, 0.059636, -0.072597, 0.030755, 0.153820, 0.019654, -0.131518, -0.023387, 0.107420, 0.078409, -0.004400, -0.044437, 0.102818, 0.012706, -0.092205, -0.118663, -0.133274, 0.188812, 0.053881, 0.074654, -0.087749, -0.016882, 0.163281, -0.009454, 0.118256, -0.166791, 0.239443, 0.017471, -0.068070, -0.021020, 0.013568, 0.085957, -0.115186, -0.072242, 0.119327, 0.064237, 0.074080, 0.008034, -0.061360, -0.077035, 0.027808, 0.053128, 0.114324, 0.138973, -0.178006, -0.131260, 0.016496, -0.131352, 0.142680, -0.075692, 0.004202, -0.021203, -0.049695, 0.121626, -0.021185, -0.115537, 0.019333, 0.174249, -0.068077, 0.145071, 0.082515, 0.082770, 0.031478, 0.139124, 0.085668, 0.224990, 0.091850, -0.202145, -0.093911, 0.095066, -0.085375, 0.177544, 0.022321, 0.145832, 0.092488, 0.144191, -0.024031, -0.014589, 0.064275, -0.030012, 0.037692, 0.062573, 0.007694, -0.129489, 0.003669, -0.091557, 0.122035, 0.206577, 0.146157, 0.022847, 0.004638, 0.020869, 0.087193, -0.068274, 0.080462, -0.089884, 0.039730, 0.125204, -0.005302, 0.183835, 0.087275, -0.126976, 0.010618, 0.011589, -0.009870, 0.128772, -0.023122, 0.137265, 0.022171, -0.069305, -0.058681, 0.077728, 0.079793, 0.094358, 0.067041, 0.041130, 0.084705, -0.050173, 0.083335, 0.214288, 0.008240, 0.112902, -0.027582, 0.007719, 0.127829, 0.083656, -0.070263, -0.124343, 0.130109, 0.220787, 0.204756, 0.079037, 0.147116, 0.045651, 0.039897, -0.117673, -0.009476, -0.030258, 0.056313, 0.176243, 0.050937, -0.113484, -0.055332, -0.000689, 0.199769, -0.083242, 0.022453, 0.142993, 0.186956, -0.062219, -0.036174, 0.134240, 0.098796, -0.099976, 0.008803, 0.223887, 0.011947, 0.029676, -0.015571, 0.027828, -0.142090, -0.061052, 0.114867, 0.120026, 0.024854, -0.048965, -0.175215, 0.056923, -0.111933, 0.164772, 0.012723, -0.129736, -0.078858, 0.113177, -0.000774, 0.169052, -0.021958, 0.042561, 0.036847, 0.108386, -0.000581, 0.149474, 0.213203, -0.000160, 0.139614, 0.059121, 0.144905, 0.050988, 0.063170, -0.118581, -0.172464, -0.128600, -0.134256, 0.063884, 0.050886, 0.006147, -0.093410, 0.081864, -0.074356, 0.205502, 0.077969, 0.112100, -0.001087, 0.109817, -0.113113, 0.027650, -0.025846, -0.088957, -0.063528, 0.133014, -0.032300, 0.137101, 0.075578, 0.081846, 0.023949, 0.105112, 0.131337, -0.146103, 0.039911, 0.140330, -0.052798, -0.063438, 0.068153, 0.201628, -0.188069, 0.048110, -0.213808, 0.019428, 0.048599, 0.135140, 0.184346, 0.013173, 0.149973, 0.007729, -0.153097, -0.037333, 0.077142, 0.074133, 0.094414, 0.128927, 0.122937, 0.202184, -0.005241, -0.077133, -0.024808, -0.120859, 0.210799, 0.227385, -0.059861, -0.142074, 0.099863, -0.055016, 0.190272, 0.127995, -0.087639, -0.024209, -0.009468, -0.080169, 0.226353, -0.075121, -0.105446, 0.111532, 0.029738, 0.092950, 0.084740, -0.141145, -0.100453, 0.206602, -0.045444, -0.019488, 0.050819, 0.014722, -0.111979, -0.152992, -0.076543, 0.043321, 0.124559, -0.076604, 0.147435, -0.185692, 0.113491, -0.013605, 0.110208, -0.086771, 0.064532, -0.062933, -0.135309, -0.179224, 0.043162, -0.072643, -0.119818, 0.062008, 0.055095, 0.113609, 0.018284, -0.088315, 0.003500, -0.103743, -0.126231, -0.052694, -0.088775, -0.008311, 0.108262, 0.048920, 0.012501, -0.067261, 0.030848, -0.003836, -0.059833, 0.067452, -0.025050, -0.181939, 0.047517, 0.080096, 0.108221, -0.006391, -0.112645, -0.006845, 0.113529, 0.006867, 0.144978, -0.113695, -0.027219, 0.119425, 0.136770, -0.040462, 0.039171, -0.063018, -0.089084, 0.018903, -0.192670, 0.103716, -0.013577, -0.182150, -0.066737, 0.044688, -0.003273, -0.011117, 0.201166, 0.114628, 0.032568, -0.058588, 0.052861, 0.139540, -0.173345, 0.074216, -0.105365, 0.120799, 0.024040, 0.194976, 0.154795, -0.025246, -0.146308, 0.231818, 0.014306, -0.020844, -0.019924, 0.050016, 0.254939, 0.166346, 0.166131, -0.087501, -0.089400, -0.024092, -0.079688, 0.075795, -0.012368, -0.057346, 0.042828, 0.007166, 0.104806, -0.024102, 0.123493, 0.075185, 0.157782, 0.051839, 0.062576, 0.089947, -0.009813, -0.078340, -0.221581, 0.011824, -0.076993, 0.051439, -0.117981, 0.097777, -0.094892, -0.004226, -0.115044, 0.083576, 0.021103, 0.037963, -0.034412, -0.045759, -0.093042, -0.061497, 0.089010, 0.155988, -0.097568, -0.054146, 0.023435, -0.126467, -0.201648, -0.054965, 0.000833, -0.125684, -0.013506, 0.127562, -0.106264, 0.012566, 0.040544, -0.092977, 0.039297, -0.037514, -0.027864, -0.096676, -0.140293, 0.154670, 0.123946, 0.087361, -0.118312, 0.073749, 0.082935, 0.031657, -0.039291, 0.072886, 0.009031, 0.193299, -0.096270, -0.162530, 0.036526, 0.246004, -0.004949, -0.118002, 0.081300, -0.105812, 0.008491, 0.099826, 0.082158, 0.056861, 0.094100, -0.041029, -0.064997, -0.083349, 0.063796, 0.136159, -0.164826, -0.126013, 0.199947, -0.012200, 0.100123, -0.093993, 0.062919, -0.029148, 0.091117, 0.103266, 0.043082, -0.089143, -0.054832, -0.095727, -0.086137, -0.080396, -0.071952, 0.097162, 0.117033, -0.117971, -0.098584, -0.051422, 0.104277, -0.134547, -0.094992, -0.136977, 0.078442, 0.074961, 0.057732, 0.124779, -0.115110, 0.124200, 0.044703, -0.106441, 0.124613, 0.065059, -0.002365, -0.000774, 0.097034, -0.078784, 0.035631, -0.143629, -0.108500, -0.080982, -0.131043, -0.037861, 0.139266, -0.140350, -0.114016, -0.089952, -0.035690, 0.114198, 0.113185, 0.102617, -0.011020, -0.009170, -0.016672, 0.121939, -0.129804, 0.008295, 0.074763, 0.070032, -0.016073, -0.134960, -0.091115, 0.066502, 0.111305, -0.068198, -0.088665, -0.070558, 0.070573, 0.037921, -0.006719, 0.129055, 0.075707, -0.040966, -0.054927, 0.050961, 0.026632, -0.038289, 0.079907, -0.115307, -0.130446, 0.024659, -0.094166, -0.119833, -0.132988, 0.069669, 0.076805, 0.135859, -0.141167, -0.108476, -0.029359, 0.040542, -0.068498, 0.129053, -0.015005, -0.063175, -0.130396, 0.141230, 0.113915, -0.017634, -0.104251, 0.066745, -0.089602, 0.052927, 0.027363, 0.043970, -0.003698, -0.140454, -0.045015, -0.120519, -0.019148, -0.017543, 0.074835, 0.070474, 0.086755, -0.045062, 0.026932, -0.065494, -0.039915, 0.119316, -0.101516, -0.044262, 0.038955, -0.119114, -0.141596, 0.119076, 0.064951, -0.068623, -0.018793, 0.119618, 0.082593, 0.101560, 0.114444, 0.102516, -0.000044, 0.015907, -0.106350, 0.034715, -0.064292, -0.085206, -0.050851, 0.060200, -0.004087, 0.065716, 0.064032, -0.036155, -0.081702, -0.057306, -0.101087, 0.037941, -0.019699, 0.107410, -0.112568, 0.013936, -0.064801, -0.068031, -0.033115, -0.090755, 0.122699, 0.128989, -0.081632, 0.068403, -0.084294, -0.122537, -0.044810, -0.150370, -0.046906, -0.137943, -0.076605, 0.057811, 0.035988, 0.093001, -0.100445, -0.053821, -0.130901, -0.120459, 0.134667, 0.044340, -0.140952, 0.079325, 0.077476, -0.058980, 0.114920, 0.083533, -0.041760, 0.062077, 0.084441, 0.072616, 0.053785, -0.024786, -0.094704, -0.136672, -0.131921, 0.103606, -0.023374, 0.089660, -0.108388, -0.027833, -0.112486, 0.117764, -0.107479, 0.015420, -0.080037, -0.004883, -0.022980, -0.011449, 0.079147, 0.182601, 0.126930, -0.225122, -0.013360, 0.024008, 0.046227, 0.116443, -0.011989, -0.038156, -0.018800, -0.098089, -0.039961, 0.158446, 0.072564, -0.119516, -0.134625, -0.104671, 0.018107, -0.135699, 0.027769, -0.018641, -0.067517, 0.130031, 0.085008, -0.100230, 0.063072, -0.027131, -0.086817, -0.013100, -0.130623, 0.112598, -0.127972, 0.012851, 0.122954, 0.004467, -0.243140, 0.035931, 0.087658, -0.107742, -0.211360, -0.045361, -0.132085, -0.100905, 0.086059, -0.137833, -0.136911, -0.022649, 0.064883, -0.006989, 0.080422, 0.027847, -0.134394, 0.029711, -0.026824, 0.208260, 0.009341, -0.065855, 0.054865, -0.061034, 0.180942, 0.015271, 0.094962, -0.010866, -0.092279, -0.063271, -0.024817, 0.133729, -0.076405, 0.160166, -0.028767, 0.023828, 0.097268, 0.080426, 0.072619, -0.097677, -0.125209, 0.102408, -0.115671, -0.215966, 0.006132, 0.181214, -0.068544, 0.077276, -0.050213, 0.113500, -0.114397, 0.072230, 0.190370, 0.152290, 0.000197, -0.043624, -0.073978, 0.071970, -0.020400, 0.124456, -0.048949, -0.001009, 0.032290, 0.194967, 0.040629, 0.049131, 0.080581, 0.140940, 0.133324, 0.081482, 0.208729, 0.097799, -0.141628, -0.077835, 0.088295, -0.014330, 0.262321, 0.100948, -0.043578, 0.081292, -0.087252, -0.134748, 0.048152, -0.057067, 0.153730, -0.072602, 0.146443, 0.083951, -0.153192, 0.049424, -0.064945, -0.033143, -0.203830, 0.114251, 0.004217, 0.186818, 0.091282, -0.000154, 0.079844, -0.002061, 0.001017, -0.048195, -0.048842, -0.051050, 0.063143, -0.134419, -0.039986, -0.043855, 0.056545, -0.113190, -0.075410, -0.045094, -0.126187, 0.011826, 0.202970, 0.104639, -0.076907, 0.019650, 0.021064, 0.042780, -0.176069, -0.111424, 0.070281, -0.024522, 0.060977, 0.115596, -0.070198, -0.031673, 0.114450, 0.145590, 0.023581, 0.016761, 0.068984, -0.054844, 0.044643, -0.009677, 0.033875, 0.146718, 0.102864, 0.060668, -0.059859, 0.197041, 0.021948, 0.075523, 0.066991, -0.086757, 0.030246, -0.030537, -0.084606, -0.121235, 0.137545, -0.008247, -0.108198, 0.055033, -0.184533, -0.015822, -0.045275, -0.137598, 0.140310, 0.071071, -0.032773, 0.180514, 0.081187, 0.091560, 0.114573, -0.124078, 0.086688, 0.179185, -0.118422, -0.055073, -0.021319, -0.057629, -0.018303, 0.085226, 0.176784, 0.034940, -0.009482, -0.051978, 0.137687, 0.061879, -0.058919, 0.105922, 0.189422, 0.114694, 0.107729, 0.037750, -0.035068, -0.002241, 0.113178, -0.058920, -0.119846, 0.121554, 0.060694, -0.078214, 0.114526, -0.044010, 0.078524, 0.210738, 0.026468, -0.111816, 0.111511, -0.056988, 0.140546, 0.128073, 0.161383, -0.040484, 0.199685, 0.153515, 0.085715, 0.067224, -0.060973, -0.238007, 0.023130, 0.182185, -0.137684, 0.082474, 0.172134, -0.044427, -0.007045, -0.179638, -0.027801, 0.165887, -0.083030, -0.058236, -0.008441, -0.113912, 0.016811, 0.172823, 0.115442, -0.013799, -0.112028, 0.028964, -0.046014, -0.066252, 0.053210, -0.130594, -0.163226, 0.078357, -0.098553, 0.099566, 0.074666, 0.058205, 0.060298, 0.096551, 0.062438, -0.088887, -0.038369, 0.103474, -0.031914, -0.049369, 0.010957, -0.127384, -0.046765, 0.015508, 0.131333, 0.000394, 0.026582, -0.032754, 0.069710, -0.139173, -0.068187, -0.133322, 0.239418, -0.061644, 0.117025, 0.031087, 0.102600, -0.044174, -0.136133, 0.053835, -0.002680, 0.056718, 0.025394, 0.129416, -0.026499, -0.002171, -0.143397, -0.032960, -0.208465, 0.123447, -0.072519, -0.095882, -0.105431, 0.186190, 0.160287, 0.020403, -0.077139, 0.007744, 0.006551, -0.110965, 0.163186, 0.196071, 0.094267, 0.106793, -0.003129, -0.111819, -0.092730, 0.131213, 0.008775, -0.084745, -0.236126, 0.118137, 0.007770, -0.026674, -0.014926, 0.190456, -0.134286, -0.046377, 0.082458, 0.112999, -0.077775, 0.096528, 0.030663, -0.076886, -0.104292, -0.133460, 0.051569, -0.204708, 0.175227, -0.021897, 0.216159, -0.089882, 0.018696, 0.078045, -0.077423, 0.050219, 0.013852, 0.061250, -0.037994, 0.168593, -0.087395, 0.060388, 0.014711, 0.206492, -0.026842, 0.207143, -0.101950, -0.181185, 0.045739, 0.025594, 0.051884, -0.101390, 0.202923, 0.050741, -0.050037, 0.032136, 0.159008, -0.060759, -0.001458, -0.015366, -0.055067, -0.060387, 0.043034, 0.125186, -0.007108, -0.002796, 0.232350, 0.034099, -0.006155, -0.049820, 0.102805, 0.172465, 0.123890, -0.023323, -0.076740, -0.048420, 0.007577, 0.110986, 0.074595, 0.024024, 0.229008, 0.124083, 0.092346, 0.022105, 0.078770, 0.176740, 0.085316, 0.096209, -0.001476, -0.085756, -0.111360, 0.106049, 0.103600, 0.132484, 0.022532, 0.069353, 0.034674, -0.067664, 0.079788, 0.163034, 0.055640, 0.115013, -0.130804, 0.058411, -0.043513, -0.077777, 0.013482, -0.001330, 0.092072, -0.077711, 0.084877, 0.101117, 0.110240, -0.053864, 0.213306, -0.064233, 0.120205, 0.177977, 0.097320, 0.127339, -0.039291, -0.041068, 0.177212, 0.228213, -0.022354, 0.110819, 0.011032, -0.036670, -0.041573, -0.111669, 0.121541, 0.183493, 0.031835, 0.026947, -0.022250, -0.080716, -0.060416, 0.116218, -0.116646, -0.035744, 0.118905, 0.071201, -0.029514, -0.121434, 0.133130, 0.045266, 0.073680, 0.089526, 0.056749, 0.110965, 0.115604, 0.024975, 0.198675, -0.000044, 0.050511, 0.014570, 0.182575, -0.046320, 0.089507, 0.025052, 0.015903, 0.126018, 0.066937, 0.046693, 0.171738, 0.114040, 0.079973, 0.186791, 0.063230, 0.099998, 0.013638, 0.071083, 0.202508, 0.020489, 0.079606, 0.224243, 0.078470, 0.085629, -0.072758, 0.077595, -0.032843, -0.071203, 0.218114, -0.037125, 0.149205, -0.073375, -0.102029, 0.049369, 0.127275, 0.020161, -0.074959, 0.034933, 0.050666, 0.101393, 0.134903, 0.090209, 0.178621, -0.043397, 0.167451, 0.133202, 0.114591, 0.166456, 0.020481, 0.185107, 0.093863, 0.026616, -0.072746, 0.196144, 0.179229, -0.086952, 0.047546, 0.024677, -0.118959, 0.082657, 0.162683, 0.052222, -0.026010, 0.014238, 0.024700, 0.089968, 0.156881, 0.006761, 0.227752, 0.140689, 0.007898, -0.116059, 0.100090, -0.024727, 0.202655, 0.076107, -0.049172, -0.004219, 0.206141, 0.107860, 0.119041, -0.135616, -0.089913, -0.013143, 0.054546, -0.031307, 0.097517, -0.102393, -0.082078, -0.033677, 0.050705, 0.167939, 0.046230, -0.006549, 0.053198, 0.143565, 0.176365, 0.012042, 0.240710, -0.052671, -0.001849, 0.087420, 0.004556, -0.014788, 0.002840, 0.049693, -0.081230, 0.203169, 0.103092, 0.006201, 0.205411, -0.022751, 0.224128, 0.133165, -0.131759, 0.013717, -0.111392, -0.133893, 0.046650, 0.062923, 0.009309, 0.072964, 0.100648, 0.089936, 0.016991, 0.070865, -0.029346, -0.123174, -0.136008, -0.022725, -0.011724, 0.083709, -0.015184, 0.045957, -0.015834, -0.103459, 0.102328, 0.058999, 0.032494, -0.001515, -0.136367, -0.091306, -0.121065, 0.040234, 0.089650, 0.073561, -0.044416, -0.018072, -0.105817, 0.047147, 0.119150, 0.120910, -0.024708, 0.008599, -0.049481, -0.010986, -0.132983, 0.077130, -0.044696, -0.107446, 0.044892, -0.117881, -0.108068, 0.139623, 0.079793, -0.009693, -0.006169, -0.032070, -0.023279, -0.038538, -0.043604, 0.050169, -0.135851, -0.126549, 0.070924, -0.119574, -0.051051, -0.053082, 0.091797, -0.041055, 0.069073, -0.114673, 0.139287, -0.065230, -0.078310, 0.033736, 0.049237, 0.073635, 0.026073, 0.115898, -0.121293, 0.124052, 0.030205, -0.094614, 0.128544, 0.072035, 0.085333, 0.026590, 0.120499, 0.058338, -0.050608, -0.022222, -0.033798, 0.009578, 0.026047, -0.121660, -0.010453, 0.034696, -0.058809, -0.086277, -0.089072, 0.133957, 0.120515, -0.067803, 0.025141, -0.031554, -0.029026, -0.117194, -0.079145, 0.035721, -0.118458, 0.054315, -0.025646, -0.005130, 0.043487, -0.106933, 0.057868, 0.016319, 0.135525, -0.089679, -0.036838, -0.095846, -0.121813, -0.116623, -0.078981, -0.084167, -0.033907, -0.123273, 0.084176, 0.073629, -0.138902, -0.139166, -0.113486, -0.120870, -0.097352, -0.086397, 0.043702, -0.078989, 0.057783, -0.101910, 0.099656, 0.048213, 0.112628, -0.034483, 0.021404, -0.034590, -0.069174, 0.006602, -0.024510, 0.124789, -0.087931, -0.126127, -0.066189, 0.112927, -0.036935, 0.028352, 0.119604, -0.006431, -0.065109, 0.063552, -0.102198, 0.033318, -0.098960, -0.068408, 0.029971, -0.104554, -0.086122, -0.060650, 0.082803, 0.077849, -0.100928, -0.077041, 0.097877, -0.007809, 0.096542, 0.076258, 0.020271, 0.100095, -0.050060, -0.016646, 0.013085, 0.020168, -0.031657, 0.002647, -0.002518, 0.028577, -0.101678, 0.059709, -0.129388, -0.085617, -0.013351, -0.136304, 0.021777, 0.122401, -0.116450, 0.076517, 0.118758, -0.134525, -0.132835, 0.055659, 0.006041, -0.033500, -0.041629, -0.009049, 0.049863, -0.033321, -0.096546, -0.067908, -0.005445, -0.037097, 0.012371, 0.020958, 0.016036, -0.161396, -0.013252, -0.060631, 0.006548, 0.099721, 0.105460, 0.027371, -0.101820, -0.021789, 0.132409, -0.011715, 0.101578, -0.055750, -0.096700, 0.075295, 0.021350, -0.146764, 0.003524, -0.087840, -0.001502, -0.009928, -0.065901, -0.183730, -0.047228, -0.148353, 0.039473, -0.008525, 0.089154, -0.085264, 0.078509, -0.151546, 0.039621, 0.021351, -0.014863, 0.053050, 0.104180, 0.003826, -0.193990, 0.080141, -0.096041, 0.071517, -0.124115, 0.004458, 0.083897, -0.041716, 0.124850, -0.055699, 0.098585, -0.048502, -0.078762, -0.098373, 0.013818, 0.173982, 0.152216, 0.018546, 0.052922, 0.035111, 0.172127, -0.047354, 0.136084, 0.113919, 0.075680, -0.104519, 0.153601, -0.046792, -0.023684, 0.172940, 0.065240, 0.050843, -0.018542, -0.087242, 0.030393, -0.186487, -0.158708, -0.070328, -0.065088, -0.146559, 0.042006, 0.021045, 0.039913, 0.114719, 0.067876, 0.045275, 0.081343, 0.113560, 0.187137, 0.033449, -0.090419, 0.132580, -0.065572, 0.022893, -0.067137, 0.160842, -0.003364, 0.127483, -0.147458, 0.025852, -0.141132, -0.065644, -0.080678, 0.129619, 0.117747, 0.190347, 0.110708, 0.103228, 0.037693, 0.068951, -0.066000, 0.128324, -0.040094, 0.173276, 0.171802, -0.064817, 0.024569, 0.035278, -0.040194, 0.066531, 0.004371, 0.031766, -0.029435, 0.104146, 0.013013, 0.047230, -0.103421, -0.107994, 0.000339, -0.057265, -0.030584, 0.143236, 0.117107, -0.007054, 0.023786, 0.037419, 0.143344, -0.094311, 0.083968, 0.002453, 0.014916, -0.046151, 0.100860, 0.149463, -0.060836, 0.039200, 0.137548, -0.007617, -0.229135, -0.018696, -0.070805, 0.127320, -0.102606, -0.069535, -0.082597, 0.151041, -0.000734, -0.008258, -0.066300, -0.048712, -0.017871, 0.138798, 0.132246, 0.149334, -0.052169, -0.105650, -0.065741, -0.101182, -0.016467, -0.076309, 0.164068, -0.076018, -0.023315, 0.188782, -0.093452, -0.077602, -0.110231, 0.145352, -0.110715, 0.005198, 0.035177, 0.047711, 0.119214, 0.016622, 0.094200, 0.057486, 0.026969, 0.005906, 0.114073, -0.031252, -0.038964, 0.003280, -0.180965, -0.083472, 0.184607, -0.102283, -0.088957, -0.085302, 0.088293, 0.007712, 0.026354, -0.066819, 0.089684, 0.067314, -0.002767, -0.006471, 0.008282, -0.056704, 0.019195, -0.123049, 0.124836, 0.012360, 0.042988, -0.139363, -0.085093, 0.106798, -0.077862, -0.057313, 0.054027, 0.056818, -0.132343, 0.042568, -0.105999, -0.124102, 0.088952, -0.112924, -0.059655, 0.029601, -0.131953, -0.107747, -0.033414, 0.118768, 0.047717, 0.093934, -0.067058, 0.130489, 0.062728, -0.072282, -0.052354, -0.101688, -0.033556, -0.032133, 0.091376, 0.132055, -0.059618, 0.008816, -0.028074, -0.079334, -0.098296, 0.005063, 0.086964, -0.098963, -0.090916, -0.065405, 0.033826, -0.047726, -0.027660, 0.051816, 0.061923, -0.067775, 0.078033, -0.049754, 0.081437, -0.069124, -0.017782, -0.052058, 0.068236, 0.139352, 0.111557, 0.096008, 0.065708, -0.039664, 0.060003, -0.091670, -0.120390, -0.125571, 0.064591, 0.076161, -0.145339, -0.015464, 0.012908, 0.053544, -0.013967, -0.105917, -0.024844, 0.037376, 0.104587, -0.085593, 0.090151, -0.133131, -0.053117, 0.122831, -0.033622, -0.071557, 0.100177, -0.119308, 0.095134, -0.082607, 0.045347, -0.062660, 0.033340, 0.053858, -0.072241, 0.082599, 0.036545, 0.051521, 0.029290, 0.117168, 0.091359, -0.129595, -0.136080, 0.084761, -0.011657, 0.086398, 0.016775, 0.077175, 0.096451, -0.026238, 0.061213, -0.140762, 0.100770, 0.087918, -0.104415, -0.037497, 0.121220, -0.132155, -0.081710, 0.093434, 0.127932, 0.092745, -0.057712, 0.092478, -0.142288, 0.130228, 0.096098, -0.100744, 0.029779, -0.130470, 0.054242, 0.133538, 0.076883, 0.030073, -0.043802, -0.124339, -0.022675, -0.142304, -0.077886, -0.069086, 0.091164, 0.080677, 0.054361, 0.051851, 0.007536, 0.081929, -0.060028, 0.122464, -0.100955, 0.131056, -0.060525, -0.018343, -0.128287, -0.009185, 0.057839, -0.037942, 0.054478, 0.124926, 0.050353, 0.078591, 0.134483, -0.047193, -0.065904, -0.109268, 0.017194, -0.023843, 0.004652, 0.034363, -0.095082, 0.042729, -0.090175, 0.098437, -0.061030, 0.127790, -0.002333, -0.042016, -0.096249, -0.086860, -0.082084, -0.112475, -0.023928, 0.016301, 0.111952, -0.137312, -0.036004, 0.059000, -0.070341, -0.099787, 0.120886, 0.058408, -0.102400, 0.091594, 0.001207, 0.099205, 0.022972, -0.011992, 0.037467, -0.040198, 0.105937, 0.015933, 0.021220, 0.115419, 0.016122, -0.001440, 0.110097, -0.120914, 0.010493, 0.094394, 0.139005, 0.019876, 0.075214, -0.059138, 0.089335, 0.048102, -0.114597, 0.086759, -0.080977, -0.143264, -0.147943, 0.005311, -0.004899, 0.010601, -0.036190, 0.060448, -0.086280, 0.059778, -0.058676, 0.109435, -0.068184, -0.124649, -0.050267, 0.088909, -0.089351, -0.059340, -0.086260, 0.035369, 0.105319, 0.079817, -0.084234, 0.047363, 0.016336, -0.123104, 0.026944, 0.071008, -0.022536, 0.095389, -0.075699, 0.126675, 0.099110, 0.046534, -0.108246, -0.131746, -0.123496, -0.049636, -0.061608, -0.017035, 0.025529, 0.000327, 0.058134, -0.113872, -0.071624, 0.045809, -0.147493, 0.013857, 0.096523, -0.016273, 0.019814, 0.045068, -0.124660, -0.094587, -0.009508, 0.108948, 0.126898, -0.059174, -0.116827, -0.094351, 0.135937, -0.012644, 0.085730, -0.121605, -0.016681, -0.125828, -0.016802, -0.024006, -0.077133, -0.046056, -0.120518, -0.056303, 0.033990, -0.018736, 0.011894, 0.119633, -0.014119, -0.057034, -0.077261, 0.109093, 0.019614, -0.085542, -0.108221, 0.081503, 0.018199, 0.130493, -0.032413, 0.114387, 0.110071, 0.045013, 0.048754, -0.078863, -0.120615, -0.086815, 0.120935, 0.052004, 0.075085, 0.110561, -0.111319, -0.139927, -0.139809, 0.134197, 0.013512, 0.018238, 0.092685, -0.126496, -0.066333, 0.091855, -0.098575, 0.001506, 0.100359, -0.076986, 0.050618, -0.043694, -0.141213, 0.125924, -0.121458, 0.012096, -0.050995, 0.096464, 0.001938, 0.108671, 0.070779, -0.093327, -0.122144, -0.012349, -0.047302, -0.077087, -0.148019, -0.091077, -0.024683, -0.037694, -0.027595, -0.074089, -0.114208, -0.101578, 0.008890, -0.132099, -0.077670, -0.080298, 0.071866, 0.050230, -0.002532, 0.111910, 0.019238, 0.016287, -0.063028, 0.111835, -0.034658, 0.138823, 0.054319, 0.089318, 0.046747, 0.094986, 0.113242, 0.133946, 0.011522, 0.076899, -0.067357, -0.015070, -0.125884, -0.123732, 0.013205, 0.000933, -0.108988, 0.098495, 0.124494, -0.009868, -0.088753, -0.012963, 0.037491, 0.019329, -0.094741, 0.186665, -0.151637, 0.016932, -0.067635, -0.032437, -0.044782, 0.240551, 0.071308, 0.053032, 0.113505, -0.081102, -0.074133, 0.180418, 0.008764, 0.096454, -0.014014, 0.060334, 0.107422, 0.140735, 0.043626, 0.157817, 0.133539, 0.102794, 0.012086, 0.179191, -0.044216, 0.026710, 0.111199, 0.059922, 0.119927, 0.215339, 0.081869, -0.051879, 0.107184, 0.060769, 0.153172, 0.191521, -0.103611, 0.002241, 0.043083, -0.122184, 0.105472, 0.129960, -0.048821, -0.024927, 0.082918, 0.037069, -0.073872, 0.017114, 0.140868, -0.208123, -0.184929, -0.052692, 0.071455, 0.074230, -0.049047, -0.047326, 0.021272, -0.058325, -0.096740, 0.156567, 0.000271, 0.064656, -0.196317, 0.044976, -0.123742, -0.056342, 0.062928, -0.053856, -0.188246, -0.048389, 0.007579, -0.072814, -0.062762, -0.082467, 0.056147, -0.016221, 0.051453, 0.017802, 0.093044, 0.133008, 0.182404, -0.009002, 0.113797, 0.007617, -0.026107, -0.092885, -0.149705, -0.107141, 0.057477, -0.089512, -0.116221, 0.023368, -0.008824, 0.026964, 0.046923, -0.075037, -0.076674, 0.040635, -0.068796, 0.084911, 0.006890, -0.207707, -0.036773, -0.022425, 0.062514, -0.103885, -0.100956, -0.014054, -0.092562, 0.125659, 0.197380, 0.048617, -0.036759, -0.012093, -0.124558, -0.066625, -0.211075, 0.077891, 0.004990, 0.052456, 0.044739, 0.156750, 0.115355, 0.038333, -0.043977, -0.083209, 0.149279, -0.093107, 0.032540, 0.042238, 0.195546, -0.148684, -0.013920, -0.138488, 0.128669, -0.025764, 0.086400, 0.137349, 0.025315, -0.095902, 0.086478, 0.187849, 0.164461, 0.103355, -0.098439, -0.047829, 0.093026, -0.026924, 0.068460, 0.126443, 0.080876, 0.076853, 0.027537, 0.123836, 0.086461, -0.004706, 0.053390, -0.145492, -0.075653, 0.105371, -0.052465, 0.000458, -0.095444, 0.090792, -0.014314, -0.118322, 0.017632, 0.115196, -0.051456, 0.133662, 0.008682, 0.065062, -0.188891, -0.058415, -0.117819, -0.005339, -0.090706, 0.153913, 0.165121, 0.006042, 0.046188, 0.085026, -0.216065, 0.196266, -0.088427, 0.110223, 0.042607, 0.137732, -0.058552, -0.057382, -0.108671, 0.045115, 0.151468, 0.044709, 0.220238, 0.030361, -0.043255, 0.016113, -0.059264, -0.089536, -0.139366, -0.059129, -0.088049, -0.052576, 0.118144, 0.028216, 0.002279, 0.091798, 0.098725, -0.009202, -0.086613, 0.086161, -0.058654, -0.132117, 0.130622, -0.127947, -0.083681, 0.071341, -0.016529, -0.020668, -0.013438, -0.056142, 0.140402, -0.068386, -0.030121, 0.091881, -0.130745, 0.108796, 0.104207, 0.106863, 0.115813, -0.027711, -0.090599, 0.029716, -0.008759, -0.073380, 0.042010, 0.012578, -0.089779, 0.060057, -0.138273, 0.028451, 0.002709, -0.068228, -0.008112, -0.036985, 0.124035, 0.133061, 0.020542, -0.056264, -0.134319, 0.109507, -0.092812, -0.137336, -0.016770, -0.076828, -0.004103, -0.025517, -0.059168, 0.111510, -0.045255, -0.115076, -0.080494, -0.057725, -0.046275, 0.056688, -0.081467, -0.139973, 0.042024, 0.018875, 0.001365, -0.056198, 0.000636, 0.113893, 0.009989, -0.123487, -0.115113, 0.093190, 0.106634, -0.040337, -0.120155, -0.010834, 0.018235, -0.048608, -0.134958, 0.012808, -0.136982, -0.105365, 0.021649, -0.139424, 0.086498, -0.061558, -0.043028, -0.036446, -0.020160, -0.124380, 0.007243, -0.007791, -0.085607, -0.022888, -0.044705, -0.110421, 0.133807, 0.133197, 0.060270, 0.126556, -0.081495, 0.134295, -0.002233, -0.100808, 0.047362, -0.103729, 0.061327, 0.096253, 0.094132, -0.063028, 0.069867, 0.012021, 0.015203, 0.079991, 0.093430, -0.123216, -0.138586, -0.035890, -0.077597, 0.053869, 0.093395, 0.013071, -0.112436, 0.125182, 0.056917, -0.043002, -0.123795, 0.103112, -0.059159, -0.123701, -0.113801, 0.058024, 0.042307, 0.138497, -0.130132, -0.085755, -0.039277, -0.060674, 0.119402, 0.007383, 0.021119, -0.066316, -0.005699, 0.077749, -0.092461, 0.140765, 0.131657, -0.052956, 0.002802, 0.025782, -0.102329, -0.101265, -0.079391, 0.018099, 0.139636, 0.117719, -0.086439, 0.062462, 0.083165, 0.021567, -0.072896, -0.028969, 0.126900, -0.013949, -0.004231, -0.011026, 0.024746, -0.042347, -0.081611, -0.080892, 0.014077, -0.120830, -0.036349, 0.049776, 0.113985, -0.106895, -0.085433, 0.098294, -0.040986, -0.105880, -0.028737, 0.013365, 0.136495, 0.016773, -0.012571, 0.106507, -0.140315, -0.050295, -0.106371, -0.111606, 0.041236, -0.055843, 0.040865, -0.015709, 0.073298, -0.073050, -0.136699, 0.116087, 0.141088, -0.091277, 0.131993, 0.014746, -0.014545, -0.052971, -0.022867, -0.073733, -0.067340, 0.062217, -0.123413, -0.015128, -0.075302, -0.054813, -0.007700, 0.096916, 0.075478, 0.094921, -0.161565, -0.033420, -0.141016, 0.134123, 0.046847, -0.090589, -0.100676, -0.096662, 0.122627, -0.047509, 0.128145, 0.082359, -0.015678, -0.012414, 0.000127, -0.054354, -0.067851, 0.079261, -0.138546, -0.062034, 0.013993, -0.020219, 0.042775, -0.148190, 0.045298, -0.101910, 0.063849, 0.110936, -0.061243, -0.099807, 0.091597, -0.163198, 0.007924, -0.134674, -0.149356, 0.148568, 0.017254, -0.026274, 0.044297, 0.108140, 0.148135, -0.026985, 0.082520, -0.079699, -0.073542, -0.044121, -0.006872, 0.069591, -0.057164, 0.008829, -0.063657, -0.027257, 0.023677, 0.066629, -0.084536, -0.210465, 0.020350, 0.021826, -0.109504, -0.162595, 0.034802, 0.083125, -0.141752, 0.001244, 0.106684, 0.069148, -0.098806, -0.025837, 0.023416, 0.147926, 0.071542, 0.092147, 0.102766, 0.059816, 0.134282, 0.094009, 0.082421, -0.030869, -0.041946, 0.188290, 0.050329, -0.081459, -0.023415, 0.084158, 0.002341, 0.154179, 0.208467, 0.038594, -0.000220, -0.099956, -0.008889, -0.067414, 0.126976, 0.071619, 0.195915, -0.013389, 0.091551, -0.065660, 0.156919, 0.078405, 0.079239, -0.188897, -0.019413, 0.004989, -0.133052, 0.029776, 0.040776, -0.175029, -0.154754, 0.030319, -0.146819, 0.027293, 0.040788, 0.136360, -0.082011, -0.021711, 0.175081, 0.128841, 0.060061, -0.148968, 0.014206, -0.064183, -0.103763, 0.134925, -0.044933, 0.037471, -0.025864, -0.126376, -0.053305, 0.111045, 0.068509, -0.010558, -0.047007, 0.023324, -0.070535, 0.139187, 0.003539, -0.148116, -0.048484, -0.033969, -0.005118, 0.118465, -0.023032, 0.173265, 0.045767, 0.017308, -0.111517, -0.094587, 0.138795, -0.074559, 0.178148, -0.020440, 0.190300, 0.098734, -0.064442, 0.005284, 0.058232, -0.004885, -0.216972, -0.027783, 0.195654, -0.081638, -0.066283, 0.067313, 0.023057, -0.022844, -0.126724, 0.008972, -0.115998, 0.041874, 0.079303, 0.080245, 0.054168, -0.044115, 0.127665, 0.140121, -0.053878, 0.034792, -0.097534, -0.090807, 0.110502, 0.076583, -0.029197, 0.055079, -0.000930, 0.122357, -0.013956, -0.081056, 0.028525, -0.047706, 0.036593, -0.008988, 0.007561, 0.104604, -0.106518, 0.001814, 0.090006, 0.131150, -0.007012, -0.098613, -0.013289, 0.085884, 0.005949, 0.044706, -0.057926, 0.094025, 0.010989, -0.111927, -0.116225, 0.009916, 0.125045, 0.074402, -0.024913, -0.074605, 0.128999, -0.112975, -0.077233, -0.111100, 0.015733, 0.007037, 0.092951, -0.050951, -0.071543, 0.029712, 0.079776, 0.129142, 0.106192, 0.121232, -0.139954, 0.019227, -0.045263, -0.057416, -0.063052, 0.027430, 0.110426, -0.024267, -0.063148, -0.008517, -0.015487, 0.121952, -0.121090, -0.047847, -0.081157, -0.142390, -0.123349, -0.083315, -0.059846, 0.042556, -0.131599, 0.128144, -0.030773, 0.047097, -0.059586, 0.109742, -0.043326, -0.114489, -0.040411, -0.090450, 0.093963, 0.132239, 0.137921, -0.044088, 0.121749, -0.014405, 0.049984, -0.014805, 0.111036, 0.104491, -0.094699, -0.090266, -0.091760, 0.120049, 0.056878, -0.138032, -0.045883, 0.024399, 0.013759, 0.042667, 0.048973, -0.105086, -0.045695, -0.028107, -0.104095, -0.061722, -0.002250, 0.130184, -0.120439, -0.009784, -0.095547, 0.074501, 0.084716, 0.008373, 0.028076, -0.017766, 0.110423, 0.007872, 0.016468, -0.114118, 0.119399, 0.019250, 0.010113, -0.009981, -0.040499, -0.111091, 0.062291, 0.108512, -0.063433, -0.135326, -0.018872, 0.123934, 0.002552, 0.070095, -0.047548, 0.061217, -0.115615, -0.022444, 0.123230, -0.135719, 0.055024, -0.027754, -0.079639, 0.011704, 0.118015, -0.024841, -0.083237, -0.070603, -0.086251, 0.126105, -0.091411, -0.002443, 0.088618, -0.098767, 0.023819, 0.101957, 0.105509, -0.128516, 0.056669, -0.020290, 0.032213, 0.059896, -0.017838, -0.011494, 0.068384, -0.078136, -0.060726, -0.042331, 0.038252, 0.108270, 0.002973, -0.035105, -0.103410, 0.088891, 0.066051, 0.013328, -0.145285, -0.092817, -0.083140, 0.111458, -0.025018, -0.064321, 0.029043, -0.122821, -0.060345, -0.019212, -0.041969, 0.120722, -0.067388, -0.083908, -0.073310, 0.012286, -0.051899, 0.046319, -0.048486, 0.000809, -0.115383, -0.130566, -0.017672, 0.025840, -0.010678, 0.136822, 0.074122, -0.022094, 0.156056, -0.220147, -0.094078, -0.090409, -0.143708, 0.163164, -0.024987, 0.085844, -0.096250, 0.034507, 0.030250, -0.045591, -0.014091, -0.037752, -0.009016, -0.055172, -0.171255, -0.094615, -0.061344, 0.014182, 0.083135, -0.015645, -0.120766, -0.004315, 0.019061, -0.180460, 0.012775, -0.059702, -0.100797, -0.078423, -0.138468, -0.139548, -0.096403, -0.024553, -0.118211, -0.012618, 0.031667, 0.060295, -0.105630, 0.034256, 0.090869, 0.013140, -0.096782, -0.026037, -0.139535, 0.104485, 0.175967, -0.111059, 0.045909, 0.069381, -0.011041, 0.052947, 0.033496, 0.069954, 0.014085, 0.016544, 0.089071, -0.141741, 0.194091, 0.066507, 0.030125, 0.031311, -0.045764, -0.013533, 0.032432, -0.011071, 0.083824, 0.093326, 0.022389, 0.000524, 0.170670, -0.026936, 0.114567, -0.011032, 0.040181, -0.021982, -0.154183, 0.040495, 0.140290, 0.175917, -0.119753, 0.037837, 0.130685, 0.125811, -0.036852, 0.081514, -0.047999, 0.036192, -0.028942, 0.002775, -0.018999, -0.027264, 0.060204, 0.110799, -0.117082, 0.127451, -0.010544, -0.020499, -0.020663, -0.184379, 0.068913, -0.003562, 0.037846, 0.021376, 0.220069, -0.061231, 0.080958, 0.104713, -0.200547, 0.033972, 0.025692, 0.130211, 0.108954, 0.120734, 0.106046, -0.057323, -0.056198, -0.104683, 0.043685, 0.008505, 0.055284, -0.017003, 0.064348, 0.130985, -0.065068, 0.049628, -0.157346, -0.077292, -0.165734, -0.015592, 0.131107, 0.027268, -0.004455, -0.117707, 0.199355, -0.134068, -0.024217, -0.181604, -0.110913, -0.068203, -0.123082, 0.138773, -0.010694, -0.015205, 0.038316, 0.072117, -0.068353, 0.056121, 0.029125, 0.131210, -0.008482, 0.140797, 0.113937, 0.119391, -0.030914, -0.161047, -0.058678, 0.049422, 0.112840, -0.139471, -0.047067, 0.138683, -0.085828, -0.004026, 0.134927, -0.096324, -0.023083, 0.019531, 0.189952, 0.091958, 0.067960, 0.143340, -0.017916, -0.039104, 0.039897, 0.061305, 0.004654, -0.068877, 0.225548, -0.162454, -0.064492, 0.037491, 0.022953, 0.123158, -0.046726, -0.022747, -0.114003, 0.027207, -0.021621, -0.031385, -0.208476, 0.070728, 0.068648, 0.027968, -0.067810, 0.033991, 0.190040, 0.115954, -0.059641, 0.078718, -0.010486, -0.114096, 0.148653, -0.010073, -0.090607, 0.064538, 0.032838, -0.095916, -0.094178, 0.020772, 0.128873, 0.078007, -0.106014, -0.060734, -0.062247, -0.006230, -0.023716, -0.060702, 0.092227, 0.004446, 0.058372, 0.052730, -0.008204, -0.186794, -0.031678, -0.099676, 0.025019, -0.026878, -0.083939, 0.006113, -0.072426, -0.207266, -0.038981, 0.084064, -0.150899, 0.049888, 0.049620, 0.130589, -0.201788, -0.050513, -0.012798, 0.115211, -0.115220, -0.037499, -0.016955, 0.161165, 0.227708, -0.026765, -0.019025, 0.111535, 0.146086, -0.011439, -0.143355, 0.036283, 0.073343, -0.152381, 0.081181, 0.120170, 0.198774, -0.065242, -0.069953, -0.133131, -0.073944, -0.172966, 0.124698, 0.017073, 0.153931, -0.053631, -0.110758, 0.112685, 0.173699, -0.128642, -0.104019, -0.161028, -0.162025, -0.082291, -0.172544, -0.069087, -0.030170, 0.081452, -0.039101, 0.067458, -0.005054, -0.015891, 0.112811, -0.008800, 0.115005, 0.207409, -0.115854, -0.049985, -0.072871, 0.059176, 0.086857, 0.028304, 0.029581, -0.100857, -0.062354, 0.138514, -0.022050, -0.166490, 0.131585, 0.061842, 0.087988, 0.201860, 0.019764, 0.000495, 0.065413, 0.085263, -0.066737, 0.014028, 0.211587, 0.015202, 0.041757, 0.025545, -0.139526, 0.071757, 0.123482, 0.061030, 0.060053, -0.190104, 0.114399, 0.154178, -0.098128, -0.063339, -0.132731, 0.052149, -0.231618, 0.133087, -0.195431, 0.170211, 0.035125, 0.091963, -0.051897, -0.109035, 0.031330, -0.097731, 0.082716, -0.026662, 0.005563, 0.061528, -0.074676, 0.211670, -0.064877, -0.166404, 0.125785, 0.086257, -0.062542, 0.070850, 0.003487, 0.020548, -0.000729, -0.015432, -0.082225, 0.129754, -0.047183, -0.104728, -0.032954, -0.046292, 0.048168, -0.093493, 0.109892, -0.036805, -0.037302, 0.121773, 0.130402, 0.077389, 0.024925, -0.075825, 0.106672, -0.096610, 0.052007, 0.084141, -0.065699, -0.143583, -0.139098, 0.235598, -0.199087, -0.170301, 0.020671, 0.016720, -0.048404, -0.132192, -0.061178, 0.154225, 0.122507, -0.127316, 0.098384, -0.009476, 0.073984, 0.018627, -0.196638, -0.150714, 0.142175, 0.178528, 0.093794, -0.100703, -0.101713, 0.075707, 0.093030, 0.023929, -0.038703, -0.039626, 0.008480, -0.083908, 0.004999, -0.074532, 0.067817, 0.085221, 0.011896, 0.108634, 0.010740, -0.084264, 0.083132, 0.056690, 0.003075, 0.103614, -0.048453, 0.001956, -0.041793, -0.138253, -0.062361, 0.024449, -0.016145, 0.103415, 0.082325, -0.120792, -0.050482, -0.104497, -0.024610, -0.117112, 0.069453, 0.006627, 0.120199, 0.126213, -0.121614, -0.038196, 0.128566, -0.010205, 0.076924, 0.037780, -0.111498, -0.099531, -0.084105, -0.028978, 0.051914, -0.101578, -0.081165, -0.074856, 0.040950, 0.129219, 0.059512, -0.116091, -0.001920, -0.103955, -0.127616, -0.015579, 0.122534, -0.127921, -0.008708, 0.040473, 0.073770, 0.074120, -0.112083, -0.033741, -0.080052, 0.110213, -0.122847, -0.065881, -0.087889, 0.140245, 0.083055, -0.110085, 0.136894, -0.056730, -0.027322, 0.055491, 0.060128, 0.069924, 0.016326, 0.036165, 0.111819, -0.125111, -0.112244, 0.046919, 0.105678, -0.090007, -0.087420, -0.039700, -0.090746, -0.108477, 0.094416, -0.045618, 0.095983, 0.025379, 0.094811, 0.113136, -0.099368, -0.031504, -0.086629, 0.137315, -0.032721, -0.061304, 0.101986, -0.047843, -0.130306, 0.004643, -0.013079, -0.132718, -0.055312, 0.124618, 0.010586, -0.028222, 0.069378, -0.129492, -0.018296, -0.104166, 0.113643, 0.018950, -0.061922, -0.074057, 0.093999, -0.063666, 0.033994, 0.111029, 0.059054, 0.035526, 0.081405, 0.119093, -0.129292, 0.071278, -0.109940, 0.079926, -0.054756, 0.042565, 0.120549, -0.116048, -0.103642, 0.103982, -0.084386, -0.023145, 0.114144, -0.116634, -0.133236, -0.037475, -0.015293, 0.036052, -0.071571, 0.125804, 0.130691, 0.119330, -0.052204, 0.062685, -0.028085, 0.129128, -0.117676, 0.132800, -0.021948, 0.045685, -0.025699, 0.128680, -0.105810, -0.117879, 0.086045, 0.077418, 0.036229, -0.094419, -0.039036, -0.086275, -0.114942, 0.044250, 0.113029, -0.017003, -0.040693, 0.055113, 0.096214, 0.128764, 0.042171, -0.001085, 0.000936, -0.029030, -0.070690, 0.040386, -0.112010, -0.059863, -0.021260, -0.106517, -0.046543, 0.096545, 0.073213, 0.067868, -0.129185, -0.035347, -0.057492, 0.007261, 0.058449, -0.090290, 0.140818, -0.136300, -0.050195, -0.066427, 0.095049, -0.051293, -0.111479, 0.039335, 0.048591, 0.071137, -0.126889, 0.106457, -0.132475, -0.140142, -0.070564, 0.102338, -0.073871, 0.107912, 0.083891, -0.119583, 0.140597, 0.077769, -0.131756, -0.097611, 0.010578, -0.074172, 0.048789, -0.054954, 0.100362, 0.079551, -0.046025, 0.067813, -0.059922, -0.094785, -0.051417, -0.056558, -0.088153, 0.136021, 0.093272, -0.063917, -0.086801, -0.112574, -0.036690, -0.059421, 0.094210, -0.126003, 0.004154, -0.085536, 0.035427, -0.091108, -0.000972, -0.044633, 0.136127, 0.086299, 0.129607, 0.058957, -0.124943, -0.026960, 0.106404, 0.027219, 0.035176, -0.121447, 0.024845, -0.123808, -0.133032, 0.020475, -0.141226, -0.025178, -0.034335, 0.003421, -0.031306, 0.027449, 0.061574, 0.102632, -0.132221, 0.041282, -0.024134, 0.137023, 0.022261, -0.102244, -0.101914, 0.002433, -0.109608, 0.010298, 0.049838, 0.105166, -0.067045, 0.045536, 0.059673, 0.048863, 0.037317, -0.062214, -0.096939, 0.110189, -0.124338, -0.068664, -0.064075, -0.046192, -0.080783, -0.096236, 0.089964, -0.093272, -0.049742, -0.055273, -0.138586, 0.103272, -0.128686, 0.132031, -0.127962, 0.059074, -0.092971, 0.041078, -0.085102, 0.048123, -0.129756, -0.042517, 0.049346, -0.065712, -0.019884, -0.036145, 0.074137, 0.124491, -0.056386, 0.094557, 0.104246, 0.134733, -0.109783, -0.044826, 0.121235, 0.115621, 0.021733, -0.029954, 0.089552, -0.084822, 0.107554, 0.123427, 0.027862, 0.011791, -0.103037, -0.093232, -0.074519, 0.064201, -0.055936, 0.041913, -0.038178, 0.049457, -0.127774, -0.026448, -0.018602, -0.139601, 0.096568, -0.093962, 0.113229, 0.111774, -0.000276, 0.074258, -0.037959, 0.011599, 0.043196, 0.138446, -0.104933, 0.079324, -0.067395, -0.139360, -0.073974, 0.116205, -0.126575, -0.062896, -0.029827, 0.057937, -0.015601, -0.009807, -0.123125, -0.041804, 0.095382, 0.140056, -0.037543, 0.103423, 0.055189, 0.012479, -0.086854, -0.070533, 0.088921, -0.140578, -0.138607, -0.094763, -0.122439, 0.104126, -0.087636, 0.015450, 0.012603, -0.001219, -0.000484, 0.012054, 0.002564, 0.136008, 0.060049, -0.087082, -0.114453, 0.138084, -0.109439, -0.010592, 0.076801, -0.224819, -0.083333, -0.001895, -0.178259, -0.013922, 0.119001, 0.101051, 0.117067, -0.073616, 0.044193, 0.202383, 0.007022, 0.058548, 0.140983, -0.123360, 0.037473, 0.093091, 0.080539, -0.074185, -0.012923, 0.091463, 0.138698, 0.032091, 0.121931, 0.201789, 0.116551, 0.121179, 0.092787, 0.043447, 0.016680, -0.071388, 0.064396, 0.015730, -0.075626, 0.087559, 0.086133, 0.093697, 0.075855, 0.123487, 0.048268, -0.014439, 0.095923, 0.121356, 0.033890, -0.007076, -0.093578, -0.014210, -0.067419, -0.057589, -0.107235, 0.111710, -0.028852, -0.138141, 0.118262, -0.073736, 0.002008, 0.172417, -0.112450, 0.002546, -0.077601, -0.133777, -0.130048, -0.065039, 0.001568, 0.118271, -0.129893, -0.096958, -0.008791, -0.188068, -0.101479, 0.043308, -0.043675, 0.075232, -0.123600, 0.007125, 0.014096, 0.024047, 0.040301, 0.179563, 0.130109, -0.154613, -0.072615, -0.041702, -0.120349, 0.045482, -0.037949, -0.100963, -0.133193, 0.035205, 0.014813, 0.058779, 0.063248, -0.101580, -0.041892, -0.185047, -0.033303, -0.027992, 0.101054, -0.195592, 0.055158, 0.011934, -0.125598, -0.118673, -0.168288, -0.191839, -0.202342, -0.130079, -0.033876, 0.064925, 0.109456, -0.096702, -0.134770, -0.057798, -0.094324, 0.103159, -0.005790, 0.026380, -0.104623, 0.024998, 0.079462, -0.015252, 0.113675, 0.015498, -0.052778, 0.029803, 0.098118, 0.217421, 0.112978, 0.096001, 0.147949, -0.139081, -0.049710, 0.007848, 0.054497, 0.079293, -0.219221, -0.036461, 0.069152, 0.086225, 0.155242, -0.004668, 0.084410, -0.074565, 0.023354, 0.055152, 0.033186, -0.037278, 0.177923, -0.127118, 0.008798, 0.015362, 0.120468, 0.021445, 0.047221, -0.053438, -0.041028, 0.134981, 0.137747, 0.144027, -0.031590, 0.083121, 0.131371, -0.078067, -0.018034, 0.164766, 0.024453, -0.018911, -0.140516, 0.129922, -0.118696, 0.184359, -0.006305, 0.078066, -0.010646, 0.189855, 0.124014, -0.197099, 0.092793, 0.116500, -0.072364, 0.134444, 0.036003, -0.000656, -0.067351, 0.077663, -0.065605, 0.021912, 0.014642, -0.150007, 0.072139, -0.056505, 0.198452, 0.103535, 0.065610, -0.022553, 0.115856, -0.160842, 0.149046, 0.033237, 0.100846, 0.019877, 0.167920, -0.083388, 0.025521, 0.102755, -0.059777, 0.028219, -0.014369, 0.028150, 0.179796, -0.182336, -0.112017, 0.015483, -0.053561, 0.022989, -0.078373, -0.023418, -0.025870, -0.141604, 0.060346, -0.012816, 0.024445, 0.031207, 0.119551, -0.126047, 0.031908, 0.031888, 0.100978, 0.051216, -0.101964, -0.020850, -0.020051, -0.036015, -0.074130, -0.072390, -0.206239, -0.032273, 0.077206, -0.094649, -0.173485, 0.096506, -0.167360, -0.144906, -0.128982, -0.062397, 0.050691, -0.019598, 0.212041, -0.111927, 0.041289, -0.039006, 0.101117, 0.044769, -0.152820, 0.097818, -0.002492, -0.047566, 0.132364, -0.074532, 0.164190, 0.021240, 0.071216, -0.001616, -0.096070, 0.007323, 0.017843, 0.078423, -0.061940, 0.179752, 0.090903, 0.039004, -0.066054, -0.047097, -0.098298, -0.216953, -0.148353, -0.063272, -0.084366, -0.026502, 0.124904, -0.047128, 0.047202, -0.028497, 0.085949, 0.129304, 0.086390, 0.127137, 0.083480, 0.022687, -0.088561, -0.022272, 0.114773, -0.093299, 0.151833, 0.241353, 0.012390, 0.038080, -0.197066, -0.017989, -0.043175, -0.035460, 0.120976, -0.061834, 0.018804, 0.207346, 0.151670, -0.140561, -0.104483, -0.048062, 0.077941, -0.140914, 0.100736, 0.129810, 0.112207, 0.147942, 0.111836, -0.097253, 0.100550, 0.025456, 0.046288, -0.133682, 0.153437, 0.108012, -0.047574, 0.098826, -0.191204, -0.093028, -0.121176, 0.129554, -0.143112, 0.050332, 0.053458, -0.080235, -0.068768, 0.048090, 0.201758, 0.139794, 0.131893, -0.123269, -0.010995, -0.153074, 0.058997, -0.051169, -0.094715, -0.164034, 0.041209, -0.010897, -0.248657, -0.031193, 0.076381, -0.087533, 0.067497, 0.141978, -0.045222, 0.041044, 0.062826, -0.001018, -0.145510, 0.076059, 0.080181, 0.111521, 0.034949, 0.004541, 0.083084, -0.064464, 0.062736, 0.009396, 0.018287, 0.104320, 0.001682, -0.035864, 0.063781, 0.188510, 0.144056, 0.038600, -0.094843, 0.227048, -0.119320, 0.029890, 0.198250, -0.203339, 0.104568, -0.096708, 0.168436, -0.078827, -0.034985, 0.044583, 0.077965, -0.088882, -0.076021, 0.042013, -0.199464, 0.006843, 0.179223, 0.082732, -0.107869, 0.178513, -0.014857, 0.063249, -0.091483, 0.008264, 0.019192, 0.185132, -0.052411, -0.034665, 0.040208, -0.092503, -0.007580, 0.106746, 0.045220, 0.156386, 0.095034, 0.065335, -0.120806, -0.001081, -0.006460, 0.059449, 0.144671, 0.135933, 0.151038, 0.167059, 0.135082, 0.105716, 0.152470, 0.198322, 0.105177, 0.121609, -0.059355, -0.130773, 0.024807, 0.133381, 0.203202, 0.005034, -0.059708, 0.019265, 0.014375, -0.045176, -0.092822, 0.141899, 0.078698, -0.126129, 0.112994, 0.084752, 0.019498, 0.032094, -0.042962, -0.112996, -0.136278, 0.105821, -0.071849, 0.153088, 0.169951, -0.103386, 0.103009, -0.210736, -0.143617, 0.129692, -0.132596, 0.093246, -0.148100, 0.103465, 0.112477, 0.101587, 0.039939, 0.156240, 0.026103, -0.076574, -0.044298, -0.067257, 0.028000, -0.027631, 0.039046, 0.118472, -0.122300, 0.002388, 0.203508, -0.025955, 0.046958, 0.016788, 0.138628, -0.042129, 0.134313, -0.052635, -0.033065, 0.098758, -0.021800, 0.066452, -0.008663, -0.191209, 0.069967, -0.047399, 0.141169, -0.090697, 0.101348, -0.080186, 0.158127, -0.001094, -0.034835, -0.088718, 0.001669, 0.042053, 0.083618, -0.025969, -0.178170, -0.138355, -0.219609, -0.051089, 0.191842, 0.078639, 0.212288, 0.067283, -0.246459, 0.090306, 0.050963, -0.030004, -0.007706, -0.060461, -0.017271, 0.058276, 0.065212, 0.189859, 0.157529, -0.001709, 0.013129, 0.024644, 0.069325, 0.075487, 0.027410, 0.091608, 0.031268, -0.178725, 0.124817, 0.181022, 0.009777, 0.001067, 0.003539, 0.006765, 0.062492, -0.005086, 0.170987, -0.020601, -0.135262, -0.104155, -0.129586, 0.040969, -0.103365, 0.121204, 0.232480, 0.076223, 0.025597, -0.135369, -0.054232, -0.171173, 0.125654, -0.033049, -0.003790, -0.016027, -0.041551, -0.073969, -0.028329, 0.007155, -0.000112, 0.041943, -0.049628, 0.032475, -0.056717, -0.047357, -0.008307, 0.065016, -0.007490, 0.093665, -0.178513, -0.117904, 0.078998, -0.010456, 0.209528, -0.120103, 0.020191, 0.036184, -0.129282, 0.197405, 0.092404, -0.033529, 0.077819, 0.089289, 0.002592, 0.177242, 0.083562, 0.112520, 0.194171, 0.049189, 0.161823, 0.185250, -0.130771, -0.113005, -0.108742, 0.035056, 0.002084, -0.026237, 0.008415, 0.035831, 0.126377, -0.142643, 0.173647, -0.046701, -0.051728, 0.162859, 0.078550, -0.043102, 0.160203, 0.013355, 0.064356, 0.044663, -0.109775, -0.104953, -0.121431, -0.032022, -0.088098, 0.165800, -0.039114, 0.013240, 0.116459, 0.002003, 0.103385, 0.105064, 0.130710, 0.139481, -0.132823, 0.010291, 0.114764, 0.095560, 0.054792, -0.015483, 0.000075, -0.018737, -0.046166, 0.140766, 0.062759, 0.091353, 0.098945, 0.010580, 0.056364, 0.109821, 0.175360, 0.147180, -0.110431, 0.111566, 0.079015, 0.038450, 0.009815, 0.072519, 0.053603, 0.044503, -0.074828, 0.206927, 0.126870, -0.016050, -0.083346, -0.041145, 0.070675, 0.155870, -0.038514, 0.069066, -0.087867, -0.122080, 0.065539, -0.091406, 0.184208, 0.153924, -0.076530, -0.048018, 0.056661, -0.033441, -0.089716, 0.063818, -0.138588, -0.121068, -0.066891, -0.068117, -0.120530, -0.001684, 0.064772, 0.171865, 0.144994, 0.097964, -0.092688, 0.011883, 0.050063, 0.207655, -0.101771, 0.202553, 0.134529, 0.052424, 0.064687, 0.051226, 0.201473, 0.094831, 0.042734, 0.144580, -0.076933, 0.004982, 0.129666, 0.092263, 0.200888, 0.016403, 0.115490, 0.098219, 0.090349, 0.089972, -0.009397, -0.023693, 0.090394, 0.117443, 0.215928, -0.021488, -0.086760, 0.004177, 0.202013, 0.096565, 0.062125, 0.148091, -0.020964, 0.016851, -0.095369, 0.014885, 0.031576, -0.073644, 0.069296, 0.067795, 0.031933, 0.072269, 0.199348, 0.093243, 0.084154, -0.053495, -0.031091, -0.018875, -0.117832, 0.134263, 0.084314, 0.070487, -0.070813, 0.023402, -0.025909, -0.090269, 0.100245, -0.117856, -0.160825, 0.056727, 0.171842, -0.082847, 0.117329, -0.041285, -0.044955, -0.000529, -0.102740, -0.067188, 0.149965, 0.087697, 0.005313, 0.007766, -0.043449, -0.003176, -0.027044, 0.132975, -0.068446, -0.043327, 0.070077, 0.108861, 0.050389, -0.014114, 0.213519, 0.114059, -0.060965, 0.139084, 0.080499, 0.011804, 0.084041, 0.109896, -0.013155, 0.111191, 0.084081, 0.039231, 0.090286, 0.157674, 0.020633, 0.110903, -0.037810, 0.101617, -0.063344, 0.021887, -0.142261, 0.082741, 0.218644, 0.168254, 0.133702, -0.077510, -0.062976, 0.123589, -0.009101, 0.070108, 0.119063, -0.026072, -0.124624, -0.099596, -0.061150, 0.065783, 0.033525, 0.044751, 0.058055, 0.133248, -0.122116, -0.073793, -0.006339, 0.023549, -0.115274, 0.030387, 0.135088, 0.070309, -0.065537, 0.049219, -0.124189, -0.063890, 0.137957, -0.111517, -0.064036, 0.007794, 0.000232, -0.012744, -0.074695, 0.140092, 0.031214, -0.083510, -0.015814, -0.117426, 0.071989, 0.121390, 0.032496, -0.102041, -0.109030, 0.083852, -0.090462, 0.009039, 0.012021, -0.097573, 0.109078, 0.053206, -0.006280, 0.070322, -0.068961, -0.069025, 0.036865, 0.001245, -0.074318, 0.110446, 0.041261, -0.010044, -0.124986, -0.084439, -0.018677, -0.077789, 0.032783, -0.002679, -0.130528, 0.109960, -0.062530, -0.011496, 0.091401, -0.088515, 0.016895, -0.073646, 0.047034, -0.082371, -0.060109, -0.117168, -0.061108, 0.000742, 0.141021, -0.130799, -0.042868, -0.015902, 0.117341, 0.030249, -0.079649, -0.021142, -0.091155, -0.051161, 0.082235, -0.015914, -0.022692, -0.109259, 0.069630, -0.005974, 0.126872, 0.111539, 0.036030, -0.139374, -0.090378, -0.118489, -0.080402, 0.128602, -0.000507, 0.086383, -0.070102, -0.121051, 0.095094, -0.085595, -0.122928, 0.106818, 0.039030, -0.064194, 0.077521, -0.106726, 0.137916, -0.059258, -0.014164, -0.038335, -0.135135, 0.011471, 0.073151, -0.021633, -0.087089, -0.081142, -0.060134, -0.068502, 0.121725, 0.086123, 0.049843, -0.006052, -0.100278, 0.096987, -0.040216, 0.068621, 0.032775, 0.099758, -0.089867, -0.129767, 0.086226, -0.050018, 0.001221, 0.097695, -0.023692, -0.100187, 0.082121, -0.110836, 0.109374, -0.010610, 0.038929, -0.084339, 0.094742, -0.137032, 0.090075, -0.084187, -0.052668, 0.101878, 0.128044, 0.048236, -0.030250, -0.109931, 0.069796, 0.005389, -0.116138, 0.019172, -0.025754, -0.100474, -0.068702, -0.052253, 0.067448, -0.014893, -0.007344, 0.048120, 0.071275, -0.001909, -0.087210, 0.129560, -0.101634, 0.090599, 0.115323, -0.091553, -0.088184, 0.048777, -0.066842, -0.053110, 0.088605, -0.138192, -0.111273, -0.022074, -0.047333, 0.094677, -0.016797, -0.075278, 0.038783, -0.013082, 0.000809, 0.129035, -0.135394, 0.011870, -0.009106, 0.061285, -0.091238, 0.060350, 0.038145, -0.161232, -0.014799, -0.058984, 0.007321, -0.045860, -0.076109, 0.016995, 0.148420, -0.211332, 0.114923, 0.123448, 0.112970, -0.075055, -0.111411, 0.069637, -0.017889, 0.121829, -0.118951, -0.149948, 0.042419, 0.004798, -0.074402, -0.171914, -0.015483, -0.067052, -0.108484, 0.004341, -0.133279, -0.114502, 0.008112, -0.097657, -0.093182, 0.061639, -0.223642, 0.111746, -0.114680, 0.135264, 0.031902, 0.043023, 0.001403, -0.062594, 0.040213, 0.020663, -0.136621, 0.045565, 0.093366, 0.002795, -0.031223, -0.172386, -0.154645, -0.096353, 0.001074, 0.154929, 0.177904, -0.040518, -0.123282, 0.027699, 0.068166, 0.105054, 0.109744, 0.070505, 0.125584, -0.209804, 0.032380, -0.114902, -0.099126, 0.147405, 0.038716, -0.049442, 0.010886, -0.135555, 0.049296, -0.219366, -0.050387, 0.006686, -0.074512, 0.028747, -0.055678, 0.105996, -0.152592, -0.013799, 0.039691, 0.121382, -0.032091, 0.035017, 0.170137, 0.168500, -0.168937, 0.011910, -0.095551, -0.021206, -0.026140, 0.233842, 0.119833, 0.060198, -0.188566, -0.008079, -0.100090, -0.198164, 0.040715, 0.013048, 0.020516, 0.133163, 0.154851, -0.131261, -0.143425, 0.137064, -0.090600, -0.075193, 0.239163, 0.166029, 0.070398, -0.102461, -0.046984, 0.087205, -0.053932, -0.097166, -0.069279, -0.126751, -0.033072, 0.035554, -0.037715, -0.050326, -0.175925, -0.165313, -0.213098, -0.015058, -0.072878, 0.195967, -0.048107, 0.007148, -0.160504, 0.100446, 0.195380, 0.025716, 0.046407, -0.091577, -0.025525, -0.179545, -0.033350, 0.165152, 0.130147, -0.134051, 0.032452, 0.011922, -0.091759, -0.049582, 0.186379, -0.028700, 0.084618, 0.193889, 0.019305, 0.186243, -0.012536, -0.114820, -0.133133, -0.042510, -0.088601, -0.033370, 0.004792, 0.174740, 0.012565, 0.130057, -0.126552, 0.014958, 0.165520, 0.025494, 0.135991, -0.090672, 0.113316, 0.014507, -0.092832, 0.029763, -0.104270, -0.014503, -0.125552, 0.053495, 0.033305, -0.128853, 0.085458, -0.010370, 0.092142, 0.136322, 0.058002, 0.124679, 0.097646, 0.018748, -0.082651, 0.053179, -0.057320, 0.031193, 0.212509, 0.083959, 0.023457, 0.066664, -0.004477, -0.001306, 0.080909, 0.044363, 0.196500, -0.117646, 0.045288, 0.074756, 0.034786, 0.130856, -0.132266, -0.059979, 0.143841, -0.189614, 0.086341, -0.001485, 0.083010, 0.131679, 0.081955, 0.083813, -0.024832, 0.092585, -0.121007, -0.022792, 0.139193, -0.034675, -0.043612, 0.074577, -0.055365, -0.081865, -0.096168, -0.031154, 0.023190, 0.070712, -0.028578, -0.093343, -0.014836, 0.045921, -0.139015, 0.018972, 0.073919, -0.024489, -0.042549, -0.005612, -0.088048, -0.090082, -0.125384, -0.106669, -0.126293, 0.055534, 0.086376, 0.038814, 0.089355, -0.015852, 0.037444, -0.108827, -0.156008, 0.118213, 0.246705, 0.056141, 0.026100, -0.129478, -0.038342, 0.132537, -0.131468, 0.012673, 0.044733, -0.050380, 0.131477, 0.017744, -0.016159, -0.030209, 0.045535, 0.127906, -0.047790, 0.010363, -0.123215, -0.002533, -0.232282, 0.062402, -0.050306, -0.181644, -0.066947, -0.000205, 0.034240, -0.135285, 0.070325, 0.067166, -0.042863, 0.044812, 0.139626, 0.064657, -0.086283, 0.073382, -0.043080, 0.101258, -0.022966, 0.195539, 0.055320, 0.116512, 0.016178, -0.032341, 0.087370, -0.106468, -0.020407, -0.009827, 0.162879, 0.029481, 0.024053, 0.114986, -0.069825, 0.077986, -0.156911, -0.036343, 0.059558, 0.127217, -0.035034, 0.106523, -0.112303, -0.007899, -0.025119, -0.008989, -0.107890, -0.065914, 0.008221, -0.029940, -0.164403, 0.085112, 0.052374, -0.137603, -0.002309, -0.011912, -0.182509, 0.160117, -0.034109, 0.103812, 0.014742, 0.090510, 0.105875, 0.095463, 0.083211, -0.019092, -0.141506, -0.080337, -0.042563, -0.012045, -0.085525, -0.203519, 0.155276, -0.092086, -0.101926, 0.054223, 0.124740, -0.032792, -0.109631, -0.059245, 0.113958, 0.026902, -0.191244, -0.153466, 0.113365, 0.080371, 0.128351, -0.132058, 0.017853, 0.195689, 0.029437, 0.043180, 0.081620, 0.069488, 0.200844, -0.145328, 0.234312, -0.143797, 0.210756, 0.099446, 0.027005, -0.135249, -0.222875, 0.116268, -0.092894, -0.137264, 0.019800, -0.130181, -0.105066, -0.002392, 0.102539, 0.131328, 0.027187, 0.106106, 0.088350, -0.052380, -0.037509, 0.099040, 0.003852, -0.130982, 0.058774, 0.160693, 0.071267, -0.157793, 0.051006, 0.092749, 0.054770, 0.165987, 0.078354, -0.110224, 0.168078, -0.073848, -0.191504, 0.101559, -0.085985, -0.023252, 0.081604, -0.023275, 0.050005, 0.210472, 0.095590, -0.032426, -0.100499, -0.130255, 0.061307, -0.117323, -0.018032, -0.018046, -0.042812, -0.130824, -0.062920, -0.013091, -0.078533, 0.035540, -0.067973, 0.072889, -0.005323, -0.089491, -0.070892, 0.009949, -0.144799, -0.086706, -0.208914, -0.006537, -0.024906, -0.114948, -0.020161, -0.073758, 0.101800, -0.105556, 0.054344, 0.020925, -0.046372, 0.192782, 0.098161, 0.055293, 0.001838, -0.079939, -0.123113, -0.002427, 0.025558, 0.130490, 0.162152, 0.049950, 0.118824, 0.134592, -0.017622, -0.076009, 0.112036, -0.095485, 0.117512, -0.050247, 0.055799, 0.022027, -0.124299, 0.117394, 0.059719, 0.094035, 0.185639, -0.010956, -0.105904, -0.031563, 0.028997, -0.048792, -0.099296, 0.053948, 0.116915, 0.074789, -0.158857, -0.006432, 0.070209, 0.145705, -0.080386, 0.118172, 0.190088, 0.014309, -0.091145, 0.087972, -0.091812, -0.055818, 0.100956, -0.008528, -0.047900, 0.029056, -0.220501, 0.116227, -0.046274, -0.004943, 0.098244, -0.099128, 0.258139, 0.148617, 0.113084, -0.121242, -0.178128, -0.100853, -0.154344, -0.049439, 0.000237, 0.000055, 0.160896, 0.159768, -0.009576, 0.131330, 0.006393, 0.038686, 0.095709, -0.034805, 0.104598, 0.039443, -0.103629, -0.073153, -0.100092, -0.024231, -0.233330, 0.151109, -0.110708, 0.205234, -0.070031, 0.008490, 0.062923, -0.053177, 0.105848, 0.084854, 0.073366, 0.035885, -0.051239, -0.029669, 0.118458, -0.037784, 0.042670, -0.145696, -0.035325, 0.047966, -0.049724, 0.123718, 0.035468, -0.079157, -0.008151, 0.117817, -0.102051, 0.061485, -0.149191, -0.016117, -0.001987, 0.020936, -0.112507, 0.068742, -0.009714, 0.188955, 0.082109, 0.048107, -0.102660, -0.094365, 0.126738, 0.100042, 0.071229, -0.147051, -0.029778, 0.153490, 0.052453, -0.096578, -0.209932, 0.153998, -0.013323, 0.001218, 0.172200, -0.026585, 0.042172, -0.043656, 0.087868, 0.126238, -0.074387, 0.049756, -0.095525, 0.104373, -0.156767, -0.039923, -0.200569, -0.164039, 0.186072, 0.011075, 0.002750, -0.021758, -0.132133, -0.076872, 0.083505, -0.031367, -0.067981, 0.045000, 0.089017, 0.109971, -0.040031, -0.139931, 0.120632, 0.068116, 0.035467, -0.039127, -0.088108, 0.008797, -0.063980, -0.011672, 0.078754, 0.199397, 0.139367, 0.109312, 0.144319, 0.194587, -0.034219, -0.086070, 0.160004, 0.042623, -0.117819, -0.026889, 0.010020, -0.095255, 0.012626, 0.030606, -0.018631, 0.168275, -0.040097, 0.009085, 0.032661, -0.067476, -0.072401, 0.090376, 0.084347, -0.020330, 0.078043, 0.028525, 0.115970, 0.149040, 0.078857, -0.130911, -0.125404, 0.035082, -0.128186, 0.066762, 0.097488, -0.092813, -0.021208, -0.117954, -0.228940, 0.193842, 0.018724, 0.168713, -0.022115, 0.016257, 0.112844, 0.088782, 0.137939, 0.012697, -0.073043, -0.140976, -0.009129, 0.016953, 0.197636, 0.080263, 0.061881, -0.093339, -0.079899, 0.187083, 0.161205, 0.020892, 0.138864, 0.153378, -0.058944, -0.107966, 0.202209, 0.016178, -0.073401, -0.001377, 0.008142, -0.133981, -0.007235, -0.192293, 0.116611, -0.166332, 0.102026, -0.004239, -0.075339, -0.206264, 0.125871, 0.136450, 0.076689, 0.038380, -0.073022, 0.183178, -0.067779, 0.034751, -0.008016, 0.002631, 0.035072, 0.073561, -0.001281, -0.101303, 0.084832, -0.047070, -0.126288, 0.112927, 0.031944, 0.155311, 0.138585, 0.119348, -0.072483, -0.020602, 0.130171, 0.080219, 0.043638, 0.025125, -0.006452, 0.016143, 0.046963, 0.120906, 0.229993, -0.020146, 0.013930, -0.021190, 0.032047, -0.072543, 0.149678, 0.009034, -0.186621, -0.052479, 0.050181, 0.205490, 0.117108, 0.033552, 0.047145, 0.150429, -0.012974, 0.046157, 0.139747, 0.135900, 0.104278, 0.042308, -0.185621, -0.135208, 0.176622, -0.181500, 0.039710, 0.129420, 0.186136, 0.172479, -0.033882, 0.053799, 0.047117, -0.047149, 0.031017, -0.006710, 0.114326, 0.194472, -0.018297, 0.033166, -0.065796, -0.029891, -0.151115, 0.092296, 0.020711, -0.180878, 0.012430, 0.179658, 0.220543, -0.230515, -0.007541, 0.158562, -0.012095, 0.192777, -0.013687, 0.007639, 0.107172, 0.003662, -0.022578, -0.012154, -0.012160, -0.088534, 0.155727, -0.115049, -0.002860, 0.174546, -0.136414, -0.100265, 0.010653, 0.085462, 0.083120, -0.035470, 0.044440, -0.152188, 0.079676, 0.237793, -0.151670, 0.084413, 0.185054, 0.031845, 0.024954, 0.006401, 0.012279, 0.147940, 0.121312, -0.038451, -0.102288, 0.052817, 0.059251, -0.081985, 0.066258, 0.011588, 0.143460, 0.123493, 0.044514, 0.115311, 0.181000, 0.069067, 0.042938, 0.186281, -0.115566, 0.130492, 0.050566, -0.050187, 0.122833, 0.076234, -0.031849, 0.010415, 0.060800, -0.159681, -0.050805, -0.105748, 0.023773, -0.100421, -0.043005, 0.126258, 0.183593, 0.152684, 0.033203, -0.143659, -0.031065, 0.205316, 0.021137, 0.073959, 0.019241, 0.055299, -0.023096, -0.227969, -0.048234, 0.078975, 0.129367, 0.152118, -0.186964, 0.093248, -0.034832, 0.155689, 0.043243, -0.001522, -0.110611, -0.117366, 0.077750, 0.006932, 0.106765, 0.044840, -0.031837, 0.067022, -0.081511, 0.162975, 0.145104, 0.132338, 0.169905, 0.039577, 0.095427, -0.019406, 0.003091, 0.121402, -0.114722, -0.124461, -0.050692, -0.028063, -0.139973, -0.219672, -0.042105, 0.011330, 0.046005, -0.113138, 0.161548, -0.221228, -0.026877, 0.070738, 0.083906, -0.005287, -0.056878, 0.039492, -0.095147, -0.030764, -0.218346, -0.103958, -0.228085, -0.053132, 0.151465, 0.034844, -0.000892, -0.011928, -0.062981, -0.133963, -0.136390, 0.032358, -0.064019, 0.126145, -0.173167, 0.123866, -0.025909, 0.093812, 0.131900, 0.083959, 0.001255, 0.055910, 0.205441, 0.025770, 0.042647, -0.069565, 0.166727, -0.098173, 0.024315, -0.021964, -0.038352, -0.131487, -0.101228, -0.126447, 0.084690, 0.154489, 0.048602, 0.069180, 0.039992, 0.096014, 0.103029, -0.043750, 0.132064, -0.018728, 0.080252, 0.114263, 0.062477, -0.112102, 0.164777, 0.066903, -0.029782, -0.024545, 0.113065, -0.045937, 0.030865, -0.048791, -0.006883, 0.040423, -0.062823, -0.037235, 0.019067, -0.017154, -0.136371, -0.135261, -0.137269, -0.006140, 0.046216, -0.062778, 0.027875, -0.076987, 0.148529, 0.196003, 0.220288, -0.031103, -0.009918, 0.052444, -0.166349, 0.195447, 0.168476, 0.113360, 0.020355, -0.025955, 0.089644, 0.111698, -0.059666, 0.093116, -0.050198, -0.041449, 0.115127, -0.049508, -0.060817, -0.044134, 0.105957, 0.080129, 0.004741, -0.064235, -0.084973, 0.015112, 0.076446, -0.134089, -0.073846, -0.126458, 0.131414, 0.125638, 0.020256, 0.123861, -0.095515, -0.050420, -0.092673, -0.029080, -0.044209, -0.077814, 0.075831, -0.079830, -0.011642, 0.123853, -0.135983, -0.079266, -0.098879, -0.037587, 0.096806, 0.114608, 0.060955, -0.034809, -0.105390, 0.121715, 0.133774, -0.069446, 0.019831, 0.003291, 0.044587, 0.129224, -0.059427, 0.069381, -0.057779, 0.006820, 0.105314, 0.004856, 0.005735, -0.030748, -0.125913, 0.002075, 0.054476, 0.038973, -0.087987, 0.112570, 0.087146, 0.043596, -0.025376, -0.047738, -0.118830, 0.140850, -0.092417, -0.005046, 0.087356, -0.073056, -0.042627, -0.037390, 0.095159, -0.076898, -0.014645, -0.135851, -0.107958, -0.124417, -0.107186, -0.091267, 0.061212, -0.083524, 0.120453, 0.110619, -0.047623, -0.122536, -0.105780, 0.078537, -0.135841, 0.025880, 0.091145, 0.041076, 0.110221, -0.044266, 0.019433, -0.047885, 0.075034, 0.138808, -0.024265, -0.002105, -0.109853, 0.050833, -0.108457, -0.096137, -0.140042, -0.072516, 0.082019, 0.026755, 0.064397, 0.140606, -0.093801, 0.078143, -0.102146, 0.112485, -0.049582, 0.052606, -0.092238, 0.034492, -0.011002, -0.018655, -0.135614, -0.065429, 0.039238, -0.019887, -0.123379, 0.072202, -0.091366, 0.019397, -0.012262, 0.013447, 0.020032, -0.016545, 0.011773, 0.024846, -0.002765, -0.124973, 0.109016, 0.013584, -0.103510, 0.032802, -0.066969, -0.097668, -0.022537, 0.128691, -0.123284, -0.115110, -0.082106, -0.005010, 0.133671, -0.016209, 0.120570, -0.091844, -0.058599, 0.029413, -0.106894, 0.002004, 0.126297, 0.016643, -0.011133, -0.036624, 0.063018, 0.106301, -0.020383, 0.086740, -0.009557, 0.072124, -0.001416, -0.078180, 0.064456, 0.068109, 0.128636, 0.083972, 0.014209, -0.124085, -0.107395, -0.095289, -0.136969, -0.096331, -0.080071, 0.048411, -0.005568, -0.030687, -0.039457, -0.075072, 0.090237, 0.083029, 0.132098, -0.112228, -0.100228, -0.100178, 0.044021, -0.119549, -0.140332, -0.004139, -0.130064, -0.129209, 0.112207, 0.107063, 0.026513, -0.042179, -0.080362, 0.010508, -0.097826, -0.003671, -0.088590, -0.067890, 0.084368, -0.063255, -0.026625, -0.123359, 0.035365, -0.129831, -0.049106, 0.093936, 0.046845, 0.048349, 0.096197, -0.039044, 0.006424, -0.013435, -0.127916, 0.133824, 0.000399, 0.034242, -0.099146, 0.114795, 0.034007, 0.078254, -0.021827, -0.101211, 0.070286, -0.100186, 0.051366, -0.115216, 0.088671, -0.076131, 0.134450, 0.097558, 0.088644, -0.080651, 0.103663, -0.008012, 0.095052, 0.018807, -0.117787, 0.045458, -0.131982, -0.089443, 0.091883, -0.104250, -0.131645, -0.076272, 0.074215, -0.106277, -0.025095, 0.080630, 0.091317, 0.017681, 0.039824, 0.097122, 0.024479, -0.049781, -0.047309, 0.050469, -0.056061, -0.133491, -0.126710, -0.025338, -0.125912, 0.061076, -0.046964, -0.125130, -0.102090, -0.036643, 0.083629, 0.051198, 0.114947, 0.062135, 0.079027, -0.140279, -0.094265, 0.072015, 0.040077, -0.080239, 0.114961, -0.140745, -0.132928, 0.038108, 0.094817, -0.095383, -0.065501, -0.098004, 0.014272, -0.035272, -0.034633, 0.123760, -0.076884, -0.102616, -0.052054, -0.042639, -0.007371, -0.107540, -0.109933, -0.131856, 0.104595, 0.097019, 0.131643, 0.114708, 0.093454, -0.081686, -0.039913, -0.010224, -0.019702, 0.105222, 0.031756, 0.073351, 0.036291, -0.067910, -0.027101, 0.061096, -0.140979, -0.101004, 0.135542, 0.040400, 0.117405, -0.029052, -0.097339, 0.110109, 0.113648, 0.053914, -0.025636, -0.120190, 0.080229, -0.050616, 0.135696, -0.010586, -0.042773, 0.109054, 0.090910, 0.034997, 0.010692, 0.023808, 0.025619, -0.033625, 0.140560, 0.061073, 0.139568, -0.040059, -0.017916, 0.049894, 0.121222, -0.017553, -0.135415, -0.115408, -0.079886, 0.073239, -0.004027, 0.053209, -0.003873, 0.041376, -0.077928, -0.010717, -0.039725, -0.024014, -0.043358, -0.016416, 0.071781, 0.132383, 0.030419, -0.076481, -0.024998, 0.097457, 0.027265, 0.121198, 0.119017, 0.138094, 0.094377, 0.109545, 0.111559, 0.101952, -0.026501, -0.122337, -0.083549, -0.036183, -0.016757, -0.134391, 0.043504, -0.084087, -0.107526, -0.120234, 0.072814, -0.034543, -0.121658, -0.044207, 0.010963, -0.117105, 0.031162, -0.077818, -0.116474, -0.039522, -0.141200, -0.012888, -0.134408, 0.081502, -0.062632, -0.031077, 0.055977, -0.095178, 0.055622, 0.080490, -0.011676, 0.099422, 0.031745, -0.020811, 0.074484, 0.028567, 0.035791, 0.029547, -0.007611, 0.074696, -0.107426, 0.026085, -0.074297, 0.008383, 0.003732, -0.105980, -0.043881, 0.133657, -0.023743, 0.003767, -0.075140, -0.013435, -0.097624, -0.039605, -0.009242, -0.005371, -0.043965, 0.007110, 0.131167, -0.053832, -0.128587, 0.025053, -0.013847, -0.130824, -0.125879, 0.126182, 0.088307, -0.041780, -0.122095, -0.074271, 0.063209, 0.099623, -0.040428, -0.042520, 0.089737, 0.122030, -0.130325, 0.029057, -0.137910, -0.146934, -0.017327, -0.144754, 0.037428, 0.003828, 0.022992, -0.069241, -0.089794, 0.070513, -0.122685, -0.003206, -0.135399, 0.111602, -0.106697, -0.090175, -0.128150, -0.002354, -0.004252, 0.103477, -0.064997, 0.037724, 0.095955, 0.036557, 0.072164, 0.006947, 0.074600, 0.095099, 0.122440, 0.015279, -0.065263, -0.133367, 0.029275, 0.093219, -0.119989, -0.094060, -0.024208, -0.011928, 0.139155, -0.043424, 0.013579, -0.028946, 0.105873, -0.113290, -0.001341, 0.115570, 0.043505, 0.103305, 0.106735, -0.045980, 0.102745, -0.132308, 0.139517, 0.032937, 0.137360, 0.077527, 0.071118, 0.098403, -0.109720, 0.029252, -0.042579, 0.080518, -0.063195, 0.036659, 0.067607, -0.043726, -0.095364, 0.121960, -0.051358, -0.108090, -0.071799, 0.036705, 0.085605, -0.118465, -0.086348, 0.011710, -0.005294, -0.009636, -0.121704, 0.030422, 0.040303, -0.048025, 0.031595, 0.067118, 0.017329, 0.012534, 0.072730, -0.045221, 0.001073, 0.097600, -0.097178, -0.013980, -0.115175, 0.085744, 0.015768, -0.059296, -0.011637, 0.094827, -0.045482, 0.059916, 0.025600, 0.046682, -0.069649, -0.049273, 0.027153, 0.010495, -0.105579, -0.090540, 0.015723, -0.035734, 0.106948, 0.112692, -0.024950, 0.108080, 0.010477, -0.073814, 0.136429, -0.092494, -0.102789, 0.116898, 0.037652, -0.100446, -0.108293, 0.102066, -0.088589, 0.051747, 0.035898, -0.033836, 0.112140, 0.023768, 0.035642, 0.055061, 0.114256, 0.017077, -0.084789, 0.111813, 0.104888, -0.115885, 0.124778, -0.090456, 0.123873, 0.097978, 0.080731, -0.126186, 0.112315, -0.124591, -0.000798, 0.083749, 0.037591, -0.095008, -0.052371, -0.080450, 0.034857, -0.121083, 0.111087, 0.134629, -0.077350, 0.137016, 0.062670, 0.122006, -0.019584, -0.038498, -0.133758, 0.029004, -0.035215, -0.102006, 0.120613, 0.047448, 0.100450, 0.110537, 0.139362, -0.048957, -0.072711, 0.086335, 0.100289, 0.139797, 0.103145, 0.013525, 0.119598, 0.036414, -0.138290, 0.099866, 0.133275, -0.074885, -0.085762, -0.095367, -0.042987, -0.035635, 0.102304, -0.084816, 0.139089, 0.027561, -0.051938, 0.113882, 0.038273, 0.133702, 0.007675, -0.010404, -0.140847, -0.081154, -0.052993, -0.134974, 0.106356, -0.077627, -0.013588, -0.028452, -0.117178, 0.060086, 0.120060, -0.019280, 0.060884, 0.104755, -0.021671, 0.045562, 0.003396, -0.033263, -0.002824, 0.120415, -0.055896, 0.126060, 0.046422, 0.084825, -0.124931, -0.104138, 0.012313, -0.030994, -0.044208, 0.003847, -0.038293, 0.056392, 0.095177, -0.098074, -0.045420, -0.120164, -0.022749, 0.050915, 0.049051, 0.031094, -0.039226, -0.125965, 0.121566, -0.119934, -0.001170, 0.088867, -0.085757, 0.095351, -0.053316, -0.101407, -0.088312, 0.112840, 0.093920, 0.043466, -0.064815, -0.083590, -0.118413, 0.036877, -0.092649, -0.094038, -0.134770, 0.015939, -0.037779, -0.134302, 0.134295, 0.113693, -0.109782, 0.100993, 