//Numpy array shape [100]
//Min -0.093750000000
//Max 0.102661132812
//Number of zeros 0

#ifndef B15_H_
#define B15_H_

#ifndef __SYNTHESIS__
bias15_t b15[100];
#else
bias15_t b15[100] = {-0.0617675781250, -0.0003662109375, -0.0660400390625, -0.0690917968750, 0.0947265625000, 0.0903320312500, -0.0697021484375, -0.0769042968750, -0.0026855468750, -0.0122070312500, 0.0920410156250, -0.0054931640625, 0.0345458984375, -0.0776367187500, -0.0747070312500, 0.0703125000000, -0.0002441406250, -0.0026855468750, -0.0625000000000, -0.0668945312500, -0.0917968750000, -0.0035400390625, -0.0635986328125, 0.0985107421875, 0.0972900390625, 0.0933837890625, -0.0020751953125, -0.0067138671875, -0.0240478515625, -0.0013427734375, 0.0655517578125, -0.0039062500000, 0.0903320312500, 0.0665283203125, 0.0562744140625, 0.0468750000000, -0.0007324218750, 0.0535888671875, -0.0777587890625, 0.0943603515625, -0.0003662109375, -0.0791015625000, -0.0003662109375, 0.1026611328125, -0.0003662109375, -0.0607910156250, 0.0981445312500, -0.0001220703125, 0.0644531250000, 0.0085449218750, -0.0620117187500, -0.0449218750000, -0.0585937500000, -0.0795898437500, 0.0682373046875, 0.0720214843750, -0.0008544921875, 0.0368652343750, -0.0643310546875, -0.0708007812500, -0.0169677734375, 0.0378417968750, -0.0471191406250, -0.0773925781250, -0.0058593750000, -0.0657958984375, -0.0937500000000, 0.0902099609375, 0.0708007812500, -0.0029296875000, 0.0791015625000, 0.0682373046875, 0.0349121093750, -0.0800781250000, -0.0633544921875, 0.0562744140625, -0.0024414062500, 0.0565185546875, -0.0010986328125, 0.0258789062500, -0.0908203125000, 0.0963134765625, -0.0698242187500, -0.0760498046875, -0.0783691406250, -0.0021972656250, -0.0705566406250, -0.0657958984375, 0.0969238281250, -0.0781250000000, 0.0533447265625, -0.0870361328125, -0.0520019531250, -0.0429687500000, 0.0659179687500, 0.0832519531250, -0.0046386718750, -0.0008544921875, 0.0678710937500, -0.0791015625000};
#endif

#endif
